708 100
249 0.93815404 0.9983675 -2.8441558 -2.3361814 5.227653 2.3949516 -1.3560227 0.5274173 -0.3816242 -1.6533529 1.0176455 -0.08216109 0.3660386 1.0456756 -0.57158655 0.7039236 -2.4618127 -0.10954139 -0.031020738 0.33618608 0.09477265 0.72421473 0.92040265 -3.3225667 1.1248056 0.8401329 4.734952 2.0958705 -0.28115523 -0.046403576 0.024418404 2.643983 0.83895737 -0.2130767 -0.7485073 0.17654642 -0.80583626 -0.3571125 1.6088481 -1.5218793 -0.28834242 -1.0256984 -1.2185233 -0.76397747 0.09958227 -1.5168747 0.48196182 -1.1725184 -1.119236 -2.3737292 -2.6849265 2.4171615 1.6050098 -1.0074142 0.1091556 1.5729759 2.177703 0.8160366 0.951652 0.1640506 2.0964115 0.4497187 0.70159143 1.6510216 -1.6371677 -1.2807479 0.16171029 -0.6161693 -1.6563375 -0.4001156 -1.0100895 -0.5108584 1.1935225 -1.5458425 -0.21516865 -1.235407 -2.9721437 0.33612263 0.43284327 -2.3781571 -2.52674 -0.123788744 1.8872052 -0.40538755 0.32921287 1.16695 -2.4001596 -0.4121779 1.9532297 1.8935182 -2.1511161 3.8278906 1.1378284 0.09498043 -0.7482746 1.0351034 1.4653145 2.0468383 -0.31797722 -0.8549128
470 1.0113554 1.0385139 -1.9215273 -0.7833805 5.255716 3.5610268 -1.3565886 0.8495793 -1.3274506 -1.8784381 -1.8803513 -0.024162479 1.479386 0.14088966 -0.013595876 -0.9240333 -2.6459334 0.022547659 -0.78064525 0.7646276 0.20577268 1.4883629 2.2715805 -0.9052188 -2.0447886 0.21955489 4.515333 2.630696 -1.1993818 0.008470118 0.72167873 0.9236384 1.0351248 -1.7983569 -1.7915455 2.302096 -1.3842405 0.6610855 1.3484776 -2.1505618 -1.0264134 -1.5690787 -1.1474975 -0.25841936 0.08415972 1.2575687 0.8393157 -2.788214 -0.8133091 -4.5004444 -2.5569794 1.8110701 2.050631 -0.10315714 -0.99363285 0.8256714 1.7217818 -1.0203408 0.35182962 1.1343713 1.8718497 -0.92421997 -0.63475513 1.9453244 -1.2861083 -0.8526754 -0.16364959 -0.43586305 -2.5065496 -0.21059169 -0.5493455 1.6794974 1.2016331 -1.7416843 -0.47322813 -0.56734407 -1.6259899 0.14684378 0.6549728 -2.4447734 -1.0428956 0.5599451 -1.4786409 -0.0227762 1.5214217 -0.90044945 -2.0091884 0.39109543 1.4118572 3.2491393 -1.8426237 2.3252683 0.5380984 -1.3511163 0.7800655 1.5532715 0.96252453 0.67556757 0.17639759 0.5475964
305 -2.6048503 -0.8012891 -0.8714581 -0.7599654 1.1005064 2.826494 0.6217122 -4.1619463 -1.5524174 -1.2854023 4.8927693 0.06386492 -1.2593997 -0.5199706 -2.0740283 2.1150987 0.45912236 -0.04202102 0.34977263 0.6030207 0.055276606 -2.0510743 -0.19780634 -2.023683 5.9103613 -1.4322762 -3.350766 -1.6853362 3.447571 1.4122751 -1.274527 -1.7189536 -0.3674306 1.9273326 -1.7294428 -2.9853103 0.80177563 2.5429685 1.8180475 -0.26190317 -0.53997576 0.52921486 -0.59434366 3.5355139 -1.6880621 0.8389532 1.4368064 2.6832135 -0.49192283 -4.635911 -1.6941686 -2.9079134 -4.665387 -3.1219661 2.010843 4.3713546 1.825078 2.2775803 -2.7257721 -1.6247464 -0.5065359 0.38820434 -0.009635872 -1.7321655 -1.4889686 2.0470097 0.22584875 1.0183827 2.7003243 0.23274423 -3.243588 1.1390352 1.4758608 -0.8898798 -2.0906935 2.7827837 -3.2836742 -1.3432784 -0.20620024 -1.3965837 -1.8550757 -2.238618 0.1400894 -2.615306 -0.14957471 2.004074 0.91327024 2.4900544 2.1445665 0.6010091 0.36836573 -5.4410295 -2.8975012 0.5757982 2.478972 -1.60733 -0.025638847 -0.27141714 -1.0315286 3.071403
128 0.94243777 -1.6866896 -2.1579204 1.09827 1.4411527 -1.2799848 -0.56448585 3.335505 -0.7680801 1.7184541 0.5652337 0.16915683 0.2683736 0.062357057 1.6337786 -0.45693025 2.813034 3.487684 -0.24924928 0.4026202 -0.72790855 3.9844453 1.0680834 -3.8625455 3.7069492 -1.300676 0.28022 -7.07082 -0.57201636 0.82384783 0.94218546 -1.6871091 0.5436798 -0.008059354 0.5359551 2.3427298 0.35053897 -4.288809 0.23598143 -0.6140376 0.18915457 -0.3140052 -1.4844774 -1.0020591 -3.3520997 1.5539123 1.7028931 1.6270427 2.3154404 -1.5673531 1.4847795 -1.257684 -3.7124941 0.194171 3.9200697 1.5425146 5.847069 2.9743989 3.5046072 3.547805 0.8545255 -0.62043846 -3.1158738 -0.59298486 -3.1975427 0.81721854 4.591001e-05 -0.35729942 -0.37685376 -1.0100427 0.51313025 -7.50786 -0.5653581 0.51487726 0.1379673 6.4276175 2.2454417 -1.5718635 -1.840482 0.8507048 2.5400617 -2.553902 -0.8559312 1.9736503 3.1871517 2.8316872 2.3930323 0.035499986 -0.6116583 -1.2085856 1.5710589 0.6286643 0.61395574 1.8655752 -0.58705914 1.2284813 -3.9923854 -0.3291217 -0.8452972 -2.5115952
501 0.15838555 1.0301938 -2.1122184 2.527975 2.4971886 1.3796387 -1.4866022 0.2902188 -1.8266431 0.51044244 0.1024854 -1.304169 -1.5249724 1.3555834 2.1573212 -0.89645684 0.2525063 -1.2177706 -0.43003845 -1.2991161 2.223981 -1.4260243 -1.065594 1.3888098 -2.6239748 0.28423578 4.6192617 0.74306786 -2.3430672 -0.9240764 2.0925922 1.5731465 0.32419673 -0.5632656 -2.0987089 0.900288 -1.2696762 0.10587227 0.30133328 -2.9379678 2.522897 -3.4614573 -1.9221641 -0.070437156 0.3659828 2.2650619 -0.92876416 -0.7411736 3.1391308 -0.1110341 -1.6572642 -1.4296528 1.3453519 -1.6859608 0.46668178 0.18382236 2.360025 -2.5270946 -4.2832603 -2.8820565 -1.2692724 0.9477383 1.4917783 0.77723765 3.2646189 -0.9321668 -1.4814299 -2.512545 -1.9662848 -1.1756393 0.19382337 1.0290354 0.9140862 -2.960959 -1.5245503 -2.7111862 -0.9795953 -2.4121757 1.7954648 -2.6745465 -2.9736834 3.0531404 2.0376186 -1.0306121 -0.30832154 3.3930688 -1.0667961 -2.9611032 0.37118977 -0.6757123 -1.6774635 -0.7644315 1.6339858 1.8146793 -0.004246864 -1.60078 0.22664821 -1.851242 -1.0993887 0.072103456
408 1.5966684 -2.9342666 -2.0853283 4.2207794 3.7514567 0.48897824 0.1732085 -2.1351113 0.17122374 -1.0922277 1.8783989 1.025257 -1.3706716 1.0053077 -0.29724494 -1.6086124 -3.5775316 -2.7425919 0.6812415 -1.1125662 -2.1214468 1.5696995 -0.5814201 -2.127876 -1.0945174 3.5681758 1.7902774 2.083127 2.1287816 2.8663962 -4.6634326 0.9685438 0.78324556 -0.27784702 0.970501 -3.1133983 -0.61243546 0.87128305 0.602227 2.3665261 -1.4590393 -0.93496764 -0.67061186 -1.3547375 2.6863866 -3.1392784 -1.5571476 2.1473525 -0.89210606 -0.75965554 0.035670657 1.5254743 -1.2972506 -1.58238 0.69255525 -2.6408212 -1.5398422 -0.08561734 0.05930236 0.24103136 1.5856376 3.5443666 5.053057 0.7357609 -0.23818263 0.79600966 -1.077203 -0.31770498 -0.33693445 -0.1999656 -0.15041481 -1.6809053 -0.94414 -0.20093495 -1.2516302 -1.1640358 0.47972608 1.0038347 1.3616031 1.2489446 0.93185174 -0.49258298 2.48891 -1.230589 -2.5262508 -0.48879626 -0.44491947 -0.71574956 -0.6664308 -1.243968 2.7883162 3.0053082 -1.1865646 -1.2302978 1.033691 0.53230476 -0.2151922 4.201376 1.5498049 -3.697496
16 2.1813707 -2.7260833 2.8411005 1.7567652 0.38054177 1.8453921 0.4166555 -3.8644638 -0.8279571 -2.9913368 -0.03455521 1.4702605 1.5835799 -2.5366402 1.9160825 -1.727278 -0.70623696 -1.5422909 2.5989208 -0.5153069 -1.316853 0.71307856 -1.7576922 0.92187274 -1.0781103 -1.2652571 -0.1664241 1.7042845 -3.1343217 3.5001733 -0.79638773 0.7472473 0.4310728 0.8830745 1.1787429 1.7224901 1.0330564 0.99669844 -1.1239877 -2.8523414 -0.64473003 -2.2078316 -0.94616026 0.78642327 -1.3163162 0.42786738 2.3686512 -0.5425286 0.44732687 -2.1817005 -1.1220486 0.47447658 -0.097112924 -0.74681914 -1.7868159 -1.1017538 -2.9800537 -0.22323813 0.8625712 -0.8382044 3.2487102 -0.36887875 0.18304671 0.68561554 -1.9073002 -0.14928314 0.7228667 -0.21723257 0.5030027 -0.9102695 -2.6477404 -0.5278534 -0.6785178 0.5949124 0.14874783 -2.6721408 -1.0408543 -1.8116602 3.6550617 0.5793104 -1.0044872 -0.7075458 1.7352043 0.007179969 0.14370596 -1.7491059 -0.9471392 0.96745616 1.7934284 -0.041425638 -0.058295432 3.1541262 -2.318091 -3.0609353 -1.5035828 -0.33096936 3.3393235 -2.5757396 -0.7586272 2.9839559
134 2.4420047 0.16353692 1.2828745 -3.9950323 0.41465273 -0.24555191 -3.7117274 2.42393 3.1204538 1.0293511 1.316603 -1.1270411 2.4276743 1.3112243 -1.6690102 -0.9006689 1.5566782 -0.1347943 5.54318 -3.1319222 -1.348216 -0.83388513 4.5739374 1.161386 -1.2587799 2.8782763 1.2494994 3.6632695 1.9564965 3.7293167 -4.6067348 0.65545857 -4.7620435 1.9764309 0.78276384 2.4180164 2.352633 0.3398316 1.6617545 -1.5648695 2.3345075 1.3749807 0.4341702 2.4401937 -2.2350502 -1.3488808 -1.5796394 3.091888 1.5060407 -0.4008428 2.0641658 -0.52473235 0.60700375 -4.0651636 -1.142539 0.19686982 -0.6631424 -2.486214 -1.986491 -1.2855355 -0.72048104 2.0216792 -1.8626006 -0.04002998 1.3961511 -0.7850297 -2.1532283 -0.28519446 2.3484368 0.4617247 0.81606793 -1.298885 -1.3306036 0.78800887 -1.8636649 0.4344406 5.0597463 3.576435 0.38254702 -3.0566041 -1.1001085 2.1425629 2.3171048 -3.3504388 -2.250219 -1.3889792 -2.075632 0.66888297 -0.5221816 -1.7270002 2.724108 2.2552803 -1.2186601 0.123146884 -0.18845834 3.762042 1.3813481 -5.9369864 -3.1351745 0.28616774
289 0.5327568 -0.7655231 1.512452 2.526513 0.59013784 1.7683564 0.60915864 -5.3904796 -0.6052846 -2.4910095 -0.44043478 1.1532222 1.0286398 -1.3752997 1.7519184 -2.0853155 -0.695485 -2.1196926 0.803022 0.065658964 -1.0360589 -1.16827 -0.3779859 1.3225825 -0.9176166 -1.0951976 -0.17620327 1.7301239 -2.3960187 3.1924078 -0.08333999 -0.20464371 0.9843055 -0.051276296 1.92362 0.6951591 0.61801654 0.60840404 -1.7479248 -2.6873999 -0.27924114 -1.9340814 0.7844146 2.5239484 -1.5893058 -0.057740085 1.1747301 0.36850286 -0.1825037 -3.597327 0.59524083 1.0013901 0.050869547 0.17939961 0.43039876 -1.3802912 -1.6080499 0.69143605 1.0418793 -0.4333724 2.4836998 -0.783191 -0.20169842 1.5030087 -2.8909914 1.2597401 1.5888861 0.47789928 1.2792803 -1.6417724 -1.6275553 -0.9261282 -0.6526239 0.82452035 -1.1956271 -2.4606955 -2.630458 -0.7063959 3.4527237 -0.60607255 0.056039926 0.38689828 1.1764879 0.98764426 -0.8335524 -2.0208 -1.263295 -0.6656495 -0.5057899 -0.09695914 0.2863666 2.737165 -0.359176 -2.2672946 -1.6203029 -0.39970618 4.0188513 -1.158564 -0.54004663 2.8964648
52 2.4614263 1.7650454 -1.7364986 0.3514767 0.32327032 0.24997143 0.7998276 -0.029619088 -1.0226675 -2.3772144 -0.38005275 -1.0603449 4.473912 0.007765911 -2.3049183 -1.0962666 -3.29776 -3.286005 0.96804714 -3.0755262 3.556315 3.156626 1.1622075 0.9267876 0.9217589 -1.5393684 -1.5000559 -0.19299237 1.3213586 0.77477896 1.8476917 2.0061507 -0.8685089 -1.1432369 -0.43040457 -1.0279454 -2.78672 -3.0983195 -1.6353158 0.78855854 0.46644866 -1.0458573 -0.23086628 2.1615508 2.2138798 1.4556535 -3.066231 1.6376858 -1.6530213 1.8973413 3.0462828 -0.6638736 -0.6206534 -2.6903105 0.42343748 -0.49274188 -1.538117 -0.6036233 1.6895682 -0.38194084 2.7653782 1.8949009 -2.80265 2.9925156 1.843895 0.683482 -1.519918 -2.908118 -3.7333825 -0.9195365 0.0006680414 3.521183 -0.92926294 1.2220582 -4.1452904 0.7041806 -2.8390076 1.8319304 -1.688455 -3.4038596 -3.638565 0.3836684 0.4790256 -4.0406227 -1.5834482 2.095293 -1.0310423 0.37161866 0.17719594 2.0572965 0.4773669 -4.4859676 -0.073923 -2.1027033 2.8232498 -1.1035377 -4.839363 0.5920137 2.7341306 1.2066481
577 0.19286112 1.1396958 -3.6526496 2.0403457 2.8920605 0.4644201 -2.113471 0.8309265 -1.2038987 -1.4994422 -0.90847945 0.028116424 -0.3717289 1.4874728 0.9811228 -1.8695443 -0.62411505 -0.22991598 -0.9560377 0.12327249 0.667605 -2.017368 -1.1558323 1.0743169 -1.4933257 0.5022119 5.0135484 -0.4137246 -2.0114627 -0.1838016 0.3620169 0.55765736 0.2464862 -0.27223483 -3.3087816 1.7186557 0.06225227 0.7918604 -0.1663072 0.72283775 0.49718243 -1.8429929 -1.6227691 -0.106455415 1.8404827 3.1189935 -0.32734895 -3.0380342 5.076994 -0.8468865 -0.7316465 -1.026716 1.5012342 -1.4702541 1.1443241 0.7948409 -0.10162686 -1.9875689 -2.1358476 -1.8620489 -1.2352434 0.8690895 1.5480955 0.85784155 1.9885494 -0.86964273 -1.8713789 -1.4969134 -0.78245664 -0.7035806 0.5175882 1.2439876 0.509049 -3.8818927 -1.4989381 -1.0913101 -0.9092929 -3.437994 1.4042422 -4.8487825 -4.5093465 2.2437577 1.8479856 -2.9870722 -0.070815414 1.5021377 -0.4776116 -2.0934815 2.0682912 -1.6953958 -0.98762244 -1.5879718 1.9351921 0.57038397 0.120327346 -1.7780687 -0.10548097 -0.50963855 -2.1959312 -0.24437225
207 -1.8391467 -0.6696557 -1.9534062 3.5836287 0.09872772 0.09307096 -0.35556197 0.012965858 -0.6267592 0.041284215 0.077522404 0.08223564 1.1148702 -0.47657955 -0.6570468 0.5342129 -1.6320243 1.7306936 -2.5277977 1.0323855 -1.0983936 -1.7446159 -2.2614746 -1.8966204 -3.6218452 -1.0685139 5.1814437 0.36187118 -0.064762376 0.4210303 -1.5187638 2.9593227 -1.137618 0.6756786 -2.9741457 3.738685 1.3678457 -2.154969 -0.7361373 -0.9050808 -2.6639836 -0.6205355 0.5849765 -0.36883047 0.6570921 -0.51979256 -3.067808 -0.4792619 1.4390148 0.70792776 -1.8326252 -0.42162654 0.97932154 -2.3348384 1.5917045 1.223541 0.057507694 -0.42500678 -2.6333234 -1.4597179 -0.8680967 -2.2065978 1.0217054 -0.5789281 2.24533 -2.0320284 2.1075068 0.046727896 -3.1356559 -0.8894527 1.3728306 2.074829 -0.736754 -3.2148786 -0.18911162 -0.3323834 -1.3751847 -0.029825574 1.43717 -1.812186 -5.589356 0.55217284 4.0904064 0.47668537 2.9166183 0.6533224 -1.8101685 -0.48238188 -0.25672823 0.43996498 -2.4999685 1.109218 -0.51140666 1.1757344 -1.7835431 0.6702876 0.33816248 0.22527955 -0.31547758 1.1758221
604 0.049254917 -0.092020065 -3.8886883 3.4982274 2.1350787 0.35494927 -0.34278074 0.029572763 0.012096702 -0.74102837 -0.41300216 -0.9838815 0.74967015 2.7878945 0.78451765 -1.1204405 -2.8751554 0.046006866 -1.6691473 -0.09935088 0.30882636 1.0990459 -0.2379518 -0.12062102 -2.0016344 0.23773453 3.3953826 1.4824317 0.5834874 -2.2964292 0.36521688 -1.501754 0.41223535 1.5210481 -2.7577596 3.4033673 -1.2678143 -0.614732 -0.6798699 -1.2999462 -0.110776715 -0.9049258 1.3429881 -1.4757739 0.3775714 0.81703365 -1.943142 -4.870902 2.24679 0.38456115 -0.6794137 1.6806123 2.701346 -3.0452166 -2.0554528 0.63219017 1.8765129 -3.0325184 -3.023331 -0.123575725 -1.9025655 -0.7673977 -1.0827713 -1.02514 0.037822362 -2.0762565 -0.7373981 -0.58025986 -1.314963 -1.2956183 1.418264 -0.07433438 2.7234294 -1.1614017 -1.1958055 -0.7088741 -1.6294794 1.1351324 1.7136806 -0.9014648 -3.1118493 0.059945688 1.769975 -0.23039837 0.45535213 -4.0565147 0.1673068 -0.8000756 0.9315786 2.0046973 -1.6023688 -1.907497 -1.217566 -0.19556749 -0.130811 -1.8976036 -0.7844631 -0.4396635 1.4851581 0.7454068
643 2.5430434 2.1208563 -0.98698604 0.8131134 0.010350106 -0.26564944 -0.09394238 0.49485847 -0.3340459 -2.0138266 0.7985496 -1.4271964 5.711922 0.24330148 -2.0426707 -0.40507498 -2.4614024 -3.0508084 1.8322768 -2.6968536 2.670218 2.4913077 1.128886 2.4110727 -0.50049585 -3.2878351 -2.8904696 -0.7638481 1.554544 0.5402852 0.11349375 2.280403 -0.42444783 -1.3382474 -0.23170711 -0.2620499 -2.8323762 -2.5652845 -1.476618 -0.87070024 -0.46838698 -1.8804644 -1.4103168 2.7905443 2.2120938 1.859043 -2.0586333 1.5620106 -1.563133 1.4766546 3.0868604 -0.58588105 -0.8305616 -2.4198706 0.8725629 -0.4428939 -1.517825 -0.50187236 1.8976327 0.096687496 3.7658436 1.8761142 -3.5686502 2.5424902 1.335493 -0.18179457 -1.6719503 -3.0663133 -3.5675907 -1.7137873 -0.102749474 4.6745086 0.18395601 1.0596508 -3.955564 0.5378219 -2.6092718 0.035979807 -2.1272495 -2.604115 -3.657758 -0.42551097 0.18135957 -3.9458997 -1.3930125 2.1500697 -1.1688699 0.35987943 0.16439757 1.6322901 -0.062136386 -4.9584556 -0.21345094 -1.2729372 2.9024718 -0.93355757 -5.0649137 0.31749058 2.9724593 1.0162088
432 -1.1454471 -1.0924323 1.3768241 2.610193 0.5457737 -0.01684531 0.33300367 -1.9912137 3.269927 1.8610333 2.7704654 -0.08777122 0.9434421 0.6241137 -3.278441 0.8921883 2.1514778 -0.643047 0.3005458 1.9472443 -1.5522844 -1.3553919 -0.44661543 1.3848546 1.5407207 1.2517457 4.4114175 2.598911 0.4410066 0.8055618 -0.19688697 -1.5002407 -2.6352184 0.90517855 -1.5203187 1.8676214 -0.61084116 -0.39265046 0.9417278 0.1321264 2.061038 -0.3717156 2.9720507 -0.34156954 -1.3841226 -1.943506 -0.24012408 -3.5556064 3.5890896 2.2051299 -0.75084484 -0.2845197 1.0269812 1.0402247 1.2864391 -1.3797295 -0.30446106 0.45480186 -0.22873232 -0.10806938 2.1164782 1.6260394 3.4858234 -1.1095434 -0.5326907 2.142194 2.8595603 2.9159024 -1.8662753 0.3771068 0.33690166 1.9639647 -1.7010907 -4.067654 -0.60561866 -2.3131216 0.6696635 1.9735432 0.23800631 -2.0776567 -2.4060419 1.3697698 -3.123567 3.4214878 -0.38412827 -0.4623936 -2.3618808 -0.754801 -3.9236367 2.6714585 0.7770936 -1.2280259 1.682351 -1.534395 0.6783619 -0.035739176 0.7840078 -0.14731635 0.46767357 -0.42737994
21 1.1185777 -1.4272622 -3.3797464 3.3068528 4.038111 1.7873137 -0.1738015 -0.8801888 0.47674948 -0.42673373 -0.3325546 0.40759033 -1.3958206 2.337055 -0.34856358 -1.0740266 -4.0873656 2.2031887 -1.5432118 -0.3163718 1.1299461 -1.2908322 0.44736725 1.2577537 -3.077963 0.31922355 1.9921541 1.5853269 0.6327387 -2.4520075 -1.4046625 -0.7713807 1.6690991 0.28473753 -1.1565632 1.4804646 -3.3172593 -2.3322399 -0.7054754 -3.6547277 -1.0993528 0.09281372 0.7021727 -1.878157 -0.17320852 0.71275496 -0.8946207 -3.6704783 1.1970814 1.3251543 0.64641064 1.3463297 2.038206 -1.4699805 -4.3835597 0.62253124 2.9525917 -0.5870615 -2.1408386 -0.9729117 -1.9623549 1.9553396 -0.47744995 0.5205418 1.1458211 -2.6913085 0.95245194 -1.2927516 -2.502729 -0.36741593 -0.66380835 0.13924171 4.6673775 -0.26704165 -1.1689438 -2.0743816 -2.0646245 0.10341175 0.7933563 -1.5254556 -2.2834992 -1.4431506 1.7498183 0.8337073 0.07859657 -3.8011267 1.3822216 -2.0244603 0.9900107 1.6600925 -0.415437 -2.2727947 -0.69112015 3.0684485 -1.1950172 -1.3861023 -1.7857916 -2.409302 1.5641733 -0.20410986
69 1.2776703 -0.95605594 3.3364887 1.404735 -1.1648889 -2.8091621 -0.41575336 -4.3079157 -0.059003297 -2.1680727 1.1113745 2.7123704 -0.41043854 -3.1516404 1.6632814 -3.0321414 -1.2414013 0.19015817 0.5900564 -1.3103182 -2.5958157 -0.30098528 -2.5754964 2.5032754 -1.8109314 -1.1252979 0.42962694 1.319672 -2.8874571 2.2103524 -3.5690675 0.1170419 3.561118 0.9402633 2.089634 -0.097550526 -1.7261319 -0.24728653 0.27108973 -1.9686838 0.7174356 -0.12084385 -1.2522159 1.4650058 -1.5988438 0.7721184 0.65534645 0.9143308 -1.415052 -1.6897455 0.036028653 2.6468334 -0.48949587 -1.2008379 -1.7637249 0.11503893 -2.7278237 0.6648118 0.6714347 -3.7958834 1.4679388 -0.9913247 0.09806105 1.8095881 -3.7269719 -0.81617117 1.575753 -0.99405366 -0.06583964 -1.4640514 1.5675954 -1.2630272 0.9111509 2.7635136 0.3719483 -3.141658 -2.8542109 0.10986469 3.8428724 -1.2163787 -0.65007293 -0.23375703 0.7098605 1.052803 1.5434405 -0.62673575 1.3957156 -1.2780621 -1.338689 -0.7305251 -0.6237098 4.5725946 -0.8758095 -0.46904233 -3.570626 -0.010044977 2.0280974 -0.55326754 0.45004174 0.61976343
447 -2.2462912 -1.7107537 -0.42654508 -0.4128006 2.4323444 0.35859257 0.11655051 -2.4603622 -0.1607529 -1.5333542 -1.9002191 1.7981398 4.1684685 2.0243526 -1.0401706 -1.5304083 -0.4939943 0.36832544 1.7418058 -1.9016591 3.4942262 0.9607365 2.321963 -1.1299587 -4.651423 -0.009627955 0.90441847 -2.2038298 -1.0730441 0.5415342 -1.7359033 2.1156452 -0.94037277 -4.132909 -0.7281213 -0.055643626 -0.123600625 -1.900947 0.23252922 -1.6663578 0.79637223 -4.9944534 1.8314198 -2.2164025 3.4838665 0.34251985 1.483137 -1.3018116 2.8135402 -2.1701944 1.2208405 1.2079831 -1.1907332 -0.5674668 2.5959363 1.1069789 0.88108414 -0.86846817 0.08130503 0.056795657 -0.8900299 -0.6943927 0.5154083 2.1823392 -4.3212366 -0.13367803 1.8689812 4.603515 -0.7716764 0.2847395 2.504479 3.0489037 -1.456117 -1.5320225 -1.5018687 -0.5375351 -2.847109 1.625003 0.19749603 -0.1135918 -3.4347827 0.46940765 4.621463 1.2433013 5.045204 0.09007022 -1.1525947 -1.8718189 0.16626954 2.0177598 -2.138014 1.3506936 -0.8702785 0.45265108 0.9127961 -1.4259477 -0.054809354 -0.20754732 -0.19004354 -2.18056
292 2.4372294 0.870392 -2.1488142 2.9310148 1.2642876 -1.2854724 -0.9964037 1.4113383 0.0637826 1.0741605 -1.0940454 4.521077 1.7002249 0.04648638 1.4975348 -0.43804252 0.083373435 1.9397367 0.71168196 -0.9456604 1.802683 -2.3422933 2.7012002 -2.2427776 -1.0647799 -0.51761377 -0.5060778 0.78079325 -0.331212 1.2948805 -0.31925654 -2.226824 4.2630973 -0.8841455 -1.9211693 -1.102241 2.5372205 -3.1020312 -1.227864 -1.2920018 0.04652389 -0.31827623 1.6529064 1.0399216 1.2907456 4.0523167 -0.33314902 0.7614115 -0.45177108 0.018858053 -4.3472075 0.015419473 1.7262404 -0.035788767 0.59526235 1.8142524 0.9412551 -0.082143776 -0.33308747 0.938101 0.6534883 -0.075641125 3.0846236 0.5174264 -1.4588141 2.1745296 0.47236195 0.42436394 2.0447195 1.3477075 2.0787928 0.3277298 -0.35483912 -1.1520032 0.85931146 -0.95628405 -0.30587256 0.91715723 2.4800453 -0.36622438 0.22066733 -4.405082 -3.175952 0.7567485 0.015171992 -4.413283 -0.019829629 -0.92340267 -1.6925542 0.94876105 -1.6475126 -0.36605304 0.8596648 -1.6660479 1.1162691 -2.7430782 0.3234448 3.12876 -1.7072734 1.7268258
324 1.1448966 -1.6773411 3.8651848 1.1158106 1.0435908 1.5099299 0.6810903 -1.8986534 0.5839096 0.4005543 -0.9171095 1.7811171 -0.16808951 -3.0147424 1.7045066 0.6875655 1.0176973 -1.6626433 3.8104687 -2.498479 -1.5110353 1.5312922 1.4793384 1.1871816 -1.3280373 0.54137313 2.7001987 0.10307303 -2.411783 2.0116477 -2.1632814 0.5685822 1.1598969 2.7988358 0.3268296 3.110431 1.0955887 1.0256835 -1.0523522 -1.4259459 -2.430601 -3.833221 -2.7964633 -1.197604 1.1961133 -1.2634981 0.83041376 -1.7835602 -0.48583338 -1.0955178 -3.3794115 -0.2277157 -2.8086617 -1.8030925 -2.5334754 2.2829626 0.7507268 -0.89504933 1.7351236 -1.5791842 3.4213076 -0.71382946 0.059839718 2.0921977 1.2453206 2.8064795 1.4642036 -0.47536144 0.8725417 -3.9835923 -3.7048259 0.19769686 -1.8621346 1.7237328 2.4584763 -1.2415683 2.5488532 -3.7184603 4.206095 2.7244003 -1.0156332 -0.7596305 1.9466726 -1.2725086 1.6228426 -1.4270967 -0.50584596 1.8538826 2.0580645 1.2012115 0.8879332 -1.5447123 -1.5384634 -2.0917401 -1.8353677 -1.0200207 -1.768263 1.5513185 -2.149953 1.16759
240 2.884712 -0.674933 0.032306336 2.947429 1.5979469 0.62253535 2.6511922 -1.7425785 3.1607637 1.6378534 -0.97017133 0.6474226 2.045643 -1.9880122 1.0233395 -0.6518845 -2.467132 -1.6220989 -2.0056052 -2.55575 0.9219722 3.166897 3.4302356 0.4666744 0.28027603 1.9996808 1.2884502 0.47832295 0.9654614 2.5368383 1.4209265 0.8507338 -1.5288355 -1.7613113 -2.4381618 0.47940224 -2.298821 0.09241328 -0.68620133 1.2708268 1.2522271 0.7845989 2.1815498 3.1750712 2.6806064 -1.8860749 -1.0478129 2.1723163 -2.595972 3.951027 1.2922702 -0.2576584 -2.0558178 1.1332072 -2.5326698 -0.87716067 -0.53107 -1.3448149 -0.2413819 -0.55264246 0.7484574 -0.5662837 0.70324713 2.172435 1.9319487 0.2536824 1.5015239 -4.021851 -0.02327393 -0.6017615 0.115214415 0.70286095 2.413151 -2.5992107 -3.2152162 0.26121542 -2.2124398 0.7176899 4.0731974 -2.5303156 -3.4155078 -1.075163 4.2557 -0.05206101 2.9279552 0.5378411 -0.9177673 2.357117 -1.2935336 -0.82912487 1.0625623 -4.349846 3.1292653 -2.1484294 0.6477072 3.1165855 -0.9827783 1.1220984 -1.6962614 1.429392
525 0.42568052 2.3253288 0.11607919 2.0476866 2.148433 -0.63769925 2.072228 -2.8697913 -0.6062358 0.6728375 0.7542737 -2.8541632 0.943703 2.2781537 3.8891556 -2.0208595 1.6206343 -0.581326 1.3148398 0.22500207 0.77665484 -1.0905964 -0.57088995 2.441718 -1.2470033 -2.2082958 6.6705904 1.2998527 -0.8289856 -1.195347 0.9534602 -0.1043969 -2.176603 0.1086929 -2.858704 3.1784573 0.035050906 0.42936656 0.56993866 1.2768805 -0.016421191 -1.9742349 -0.6201291 -2.7447684 4.095366 -0.45879495 1.3857219 -3.9553826 2.4216862 -0.45876986 -0.7507421 1.1519496 -0.26149035 1.2586577 1.9783223 1.709721 0.9770493 0.08949647 -0.35700962 -4.1515217 -0.27484 2.4355562 0.9813241 0.2200103 1.9520265 -1.378514 3.0935926 0.58002037 0.43922934 2.0596159 5.3006244 -0.97879016 0.73457277 -4.163058 -3.2006536 -0.75270087 -0.5301225 -0.14939886 2.4157357 -0.5962563 -2.3116682 2.7555938 0.48926702 1.120031 -3.841038 3.0550318 -1.1914927 -1.8404768 -0.80073 -0.3051155 -0.9733008 -0.93391067 -1.5653172 0.0031637182 -0.10096041 -1.4058597 1.9990816 -1.4110247 -0.6210282 -0.013174262
205 0.7819509 1.7598804 -1.5786073 -0.5007968 1.6073216 1.9808716 -0.21453162 -1.4533737 -0.5708416 -0.13929982 -3.216821 1.9114379 -0.4017657 2.1327534 0.46906066 1.7077949 2.1893644 0.8064977 -1.9579995 0.428744 2.0639842 -0.08707815 0.78076804 0.275299 -4.6430044 -1.2528801 0.46939337 -3.9381752 2.8173685 1.5887089 -1.4053494 0.96483934 -0.48652378 -3.5255713 -0.8875586 0.9865559 -4.0172877 -0.22474572 1.0305123 -1.3395838 -2.2939286 -1.4650757 2.0918686 0.5146837 1.3206227 -0.86416316 -1.0917233 2.3794036 0.19093846 2.2230048 -1.7306345 0.13080867 3.1173592 -1.2128075 0.81582296 1.2673008 -4.7385616 2.5194623 -0.30461872 1.6244633 2.920302 -1.4045293 1.9400363 -0.36843964 0.24110466 -0.85430145 1.2683088 1.2891598 -3.0633345 -2.136637 0.5273489 -1.4824895 -4.906514 -3.8256073 2.4566054 -3.7339764 -0.034834918 0.38237265 -2.6571221 -1.2953697 -1.5928504 1.2463828 2.1210768 -1.3808699 -0.20750701 -1.5861335 -0.68248194 0.13234764 -2.3766294 -0.9747542 -2.717782 -1.5149605 0.20555952 4.3358016 -2.7897787 3.4956088 0.88184845 -1.7720851 -2.8756797 -3.0071166
678 0.003890051 -1.7389789 0.19217737 1.7198333 5.911927 0.017295996 -0.5107974 -0.43558928 -0.62417847 1.0133154 -0.0897033 -0.7079453 -0.82333416 3.927093 -0.17431349 2.112665 -1.1442045 -1.9510742 2.9465225 -2.3559234 -2.1134572 0.62356246 -1.1494684 -1.5057528 2.8811588 0.65570784 1.9123968 2.1811872 3.255432 2.214873 -3.3496158 1.1378881 -3.7488062 -1.4842032 1.2865636 -2.9432926 1.8281548 3.198438 0.530823 0.8273783 -0.4861154 -0.5162534 -0.6752511 -2.2823696 -0.5514886 -3.0559483 -0.45077017 0.48130766 -2.022846 2.0086038 -0.4786543 1.5967351 -1.1335242 -0.97279274 -1.6813861 -0.27983102 -1.2872825 -0.36935177 1.2258397 0.9131088 0.20729496 2.7631638 4.5352497 1.9625678 0.21274553 0.45239055 0.33680686 1.4394667 -0.35527524 -2.0812454 1.7116272 -2.5459788 -0.14821379 2.8893933 4.0969644 -0.373372 -0.9743284 2.6216714 -2.1814938 -1.4790872 -1.6645142 -1.5596281 5.8050737 -0.44043046 -5.559247 0.023645816 -2.6280444 -1.373038 -2.891548 0.8535343 -0.47169235 4.0555997 -1.0612991 -0.2556118 -1.5419229 0.43090403 1.1971292 -0.35700348 0.8004848 -2.7984452
300 2.183435 0.12506515 1.9197426 -1.2713608 -2.3950102 0.8914549 -0.47674596 -0.5305859 1.6188115 -0.016540414 1.7246526 1.5560287 -0.14864075 -2.1257055 0.23148492 -1.9728425 -1.3571522 -1.7520208 3.7966163 -0.71025836 -1.0172184 0.29771677 -0.37365976 0.58492935 0.31367844 -0.4719277 -0.76263875 -1.8146043 -0.022207765 1.4949253 -1.8192674 0.76611215 0.63024515 3.2159355 -1.4719752 -0.4271035 1.5725391 -0.37260306 1.6149114 -4.2228045 0.8763515 -1.9545943 -5.276338 -3.191147 0.82075536 -0.46602538 1.7382618 -2.5793707 -1.3470776 -0.48927727 -4.6850934 1.8461058 -3.2073853 -1.3652498 -0.80394596 4.723663 -2.5582078 0.09991489 1.0024627 -1.3898602 5.8318644 1.8160815 0.26243415 1.0130128 0.386097 -1.7672046 0.64717007 -0.011335902 0.72555023 -2.8747869 -4.8664875 -0.48001873 -0.27026552 -1.2367076 2.7712517 -0.8963725 -0.9536559 -2.508176 4.7932134 0.7320233 -2.7302146 -1.7847418 1.5922455 -1.8470018 3.007831 -0.24096563 -0.5696125 1.9432554 1.0563773 0.8798636 0.107964076 -0.10573004 -3.5607924 0.077994645 -0.64695054 0.10551202 0.4901014 1.2051563 -3.171462 1.732262
48 -0.88264465 -3.1118035 -0.48185816 1.7089442 5.631779 -0.49537677 1.1290836 -1.1322803 -0.043470766 -0.13674662 1.6442243 1.773088 -2.259693 2.5540898 -0.073003 2.6114695 -1.9579803 -2.0124993 2.176271 -2.5195024 -2.000839 0.9810384 -1.4387202 -2.9159813 3.0061743 0.5567153 1.8881232 2.1793504 2.7091908 1.0738907 -1.7830498 0.23858073 -2.1637113 -1.1182941 1.521753 -2.0908246 0.3749173 2.9757228 0.5852009 0.39491692 -0.4361853 -1.9423201 -0.38144603 -0.18858643 0.2314371 -3.94034 -1.0976355 -1.7555531 -4.233662 2.8867607 -1.1392152 3.053084 -0.36000034 -0.8209991 -0.8167523 -1.8371253 0.22993577 -0.53720826 2.1915493 0.07900929 0.06693888 1.7506329 5.4779925 1.9573498 0.90462357 0.5224796 0.22291717 1.0363914 -0.14944732 -1.975727 1.697322 -1.5642226 -0.9728536 1.3345183 3.6218526 -0.9023016 -0.39445743 2.0824027 -0.4766659 -2.4236283 -1.3791703 -0.8353314 4.4957504 -0.19822218 -4.7072926 1.1180799 -1.1116195 -1.4204379 -0.9345835 -0.44149786 -1.2470644 3.0630362 -1.8740027 1.2997254 -2.1583905 0.9567414 1.6629909 -0.021766156 1.3238515 -2.661742
181 -0.57757485 -1.0172222 -0.06034365 0.36673662 -1.8318508 -3.1794727 1.8489909 -0.18389 -2.1376772 -1.1664788 -1.8224356 -0.49559447 0.3710935 -1.8181258 0.78063565 0.8041355 0.59520906 -0.2769908 0.12331486 0.31728896 -0.46232268 -1.5823072 -1.3067198 2.2664933 -0.78854966 -0.97674364 2.0105946 1.649127 0.36654308 3.0851712 0.33817425 0.8166625 0.24396713 0.42416087 2.6276882 0.5785707 1.2762419 0.038980436 2.3193583 0.28878054 -0.016321473 1.614572 -1.1069609 2.8419976 -1.8618279 -0.3699616 -0.40469325 0.54241145 1.1238618 1.3431224 1.2455455 -1.0966407 2.0688956 -1.0711797 -3.960063 -2.3174388 -1.944266 1.3400886 1.8121294 -0.42626742 -0.7828454 -0.2243355 2.109091 -1.272181 -1.943915 -0.73817825 -1.0981214 0.9377714 0.050694145 3.3562505 0.5643803 -2.9372852 -0.09261555 -1.2046475 1.7128936 -4.695314 -1.4301342 -1.325411 -0.37433168 0.3334674 0.3245421 -0.13263589 1.5468347 0.1700483 0.32637474 3.707494 3.586371 2.3284907 -2.3499928 -1.3307376 -1.0085589 0.85056037 0.9973913 0.21806762 -3.5441995 1.2367116 5.482538 -2.1229663 2.9247828 0.27636746
4 0.544321 -1.7639422 1.2470793 -0.3932936 -0.50131273 -2.8910754 0.1057299 -2.3057895 -0.97939336 4.2023206 -2.3533614 0.11376955 -1.305174 -3.1367316 2.4350195 1.1515805 0.8208325 0.8778688 1.7258401 -1.2215488 -0.24582374 0.88670874 -1.2964544 1.9075412 -1.515748 -3.0888205 0.90554357 1.2310033 0.60307825 2.4304934 0.35811508 2.8696628 -0.6049841 -0.13131274 3.5089107 -0.76716036 -0.39524174 -1.5563996 -1.3622596 0.2963656 -2.4237223 2.841931 -3.2045434 4.4711204 -2.0261474 -0.09487657 -0.70513034 2.5766313 0.94765145 1.7930655 1.5011444 1.7355729 2.290788 0.2963781 -1.723806 -3.6835837 -3.3929005 0.643336 1.1081411 -0.6442403 -0.71240795 1.1506234 -0.84645 -4.4137864 -0.6046474 -2.289129 -0.49346676 1.0912477 -1.275348 0.89716244 0.62519646 -2.8885763 2.2902043 -0.45047078 2.1864233 -4.410254 -3.0427213 -1.5299594 -0.82525265 -1.0991001 -0.3754186 1.6334627 3.5149634 -0.9812303 0.3580233 3.0964978 1.8744372 1.1609837 -2.3400457 0.22995085 -1.6284462 -0.28820783 -2.4226656 0.21469419 -3.8607624 1.8409641 5.166921 -3.417415 2.5197418 2.6077707
652 -3.1970475 -3.8669772 -1.5759766 -2.7674801 -1.1935742 -2.235185 1.5460011 1.1975622 1.2024004 -1.9967425 0.9188213 -3.3793402 -0.3588144 -1.8115572 6.4687023 2.3917744 1.1139674 0.36379716 1.0073094 0.8025252 1.4236058 3.6006794 3.3993046 3.1215613 6.0720067 -0.55073637 -0.109185964 -2.4497325 0.8742886 2.4172845 1.2687187 3.4540472 3.7819476 -0.7104899 0.13843144 0.11221923 3.7334015 -3.20558 -0.34388623 -0.75890553 0.13894495 0.64239687 2.7072115 0.36275887 -3.7553036 0.42875928 1.1624362 0.4939328 2.446718 2.3830378 -0.6918593 -1.7091047 -2.047388 1.1611749 4.605484 -2.4843993 1.4947263 1.4698328 0.5463303 1.5684001 -1.2571691 2.756055 -0.50025934 -4.1114125 -1.2101315 -4.5037723 3.4884849 -2.7158728 -4.522374 -1.4833491 -2.99852 -7.160632 3.5005217 3.9990752 -0.14165309 2.0837934 -2.913967 -0.88528657 -0.40525317 3.164821 0.86548936 -0.5440783 0.03558271 0.23170193 1.3976095 0.60769284 1.0593628 1.9349732 1.439373 -0.4296598 3.132519 1.6900024 0.80090106 6.176762 4.0654926 0.13243337 -2.5474184 0.4276131 -1.6685458 -1.6863581
299 3.2215273 -4.7719603 2.5580962 -0.2505285 -1.7364825 -1.5494785 -2.8135808 2.117336 4.34286 -0.9010245 0.43838516 1.5558728 0.9657931 0.99856913 -2.467309 1.8413299 2.4478066 -2.2755914 -0.29637367 -0.94653875 -1.1240981 -0.20220578 1.8459772 -0.5937133 -1.2836432 3.3806062 1.5067378 -0.56692046 1.2927616 1.5221386 -2.6762276 0.6503222 -2.9046888 1.3128351 0.80674255 2.1987333 2.7040508 -0.9248077 -0.3572472 -4.9473786 0.40455532 -1.067313 1.70204 1.7707862 -0.032316986 -2.3502254 -0.31723955 -1.799901 -3.3915777 -0.37157562 -0.8995723 0.40484923 0.31950992 -2.3641186 -3.9676056 -0.32394654 -1.927358 -1.9605371 -0.062376827 -1.511708 -0.658372 0.17046086 -2.80503 -0.95121896 3.6527145 -0.18272994 -2.1113143 -2.8384678 1.3555373 0.8038421 2.939137 0.6159253 -1.0822756 0.08915855 -2.6486247 1.1133122 1.5427738 4.13888 0.73823255 -1.3520207 -1.4221818 4.0740905 1.9917687 -1.5570824 -3.6289394 0.79493713 0.54019237 2.9552252 0.93098354 -2.4498608 1.3116978 5.1901827 -3.3585448 1.6895046 -2.7670765 2.8025146 3.8978705 -5.419375 -0.8373037 -2.3578084
211 0.9625757 -2.063292 -6.653978 1.603912 -3.1470265 -0.20407887 -2.7971418 4.062924 2.1081378 2.0192723 1.896227 -2.2146044 -3.1890826 -2.5403893 -0.10925918 1.8604163 4.0666842 -0.43411174 -2.7360141 1.997742 2.773591 3.8918865 0.94355696 0.5400388 9.648307 -1.6275958 -0.08863638 -4.271636 0.7301858 -0.25664812 1.3027042 1.5767443 0.1695476 1.1334373 -0.8556104 -1.9902226 2.013553 -2.044379 2.7054935 -1.3863869 -1.2156026 1.4902917 1.9975532 0.8553199 -3.444546 2.0581458 0.7717668 2.5650363 2.2839222 0.76744765 2.2446582 -1.0941163 -1.4886541 0.96643364 4.2869105 -2.8524146 0.66807073 -0.06890637 0.5642434 -1.3450402 -1.6094017 1.8245314 -1.0234362 -2.8590863 -5.5594964 -2.3374875 0.44570008 1.4608486 0.7774405 -0.6066544 -0.9322902 -3.0942597 -0.6654575 0.893981 1.951685 2.7015922 -0.82732505 -0.37706614 0.27993113 6.6449323 -1.9241071 -2.792071 -0.6028028 1.9738163 0.7877513 5.2754383 3.4246318 1.7245429 3.1949778 0.15008985 -0.10894978 -0.049250364 -1.8224182 0.9230077 0.8313891 0.22171798 -3.2925625 -1.37938 -1.0469652 -1.6149492
39 -1.5710137 3.0020053 -1.1637526 1.9114176 1.9716365 0.040812947 -1.2400355 -0.6101424 0.0046476787 -2.6142423 -1.3876961 -1.150685 -1.0681826 1.0848806 1.3732743 -0.18602495 -1.8262317 -1.25909 0.08445324 0.40577528 0.8572092 -1.904454 -0.667595 -0.20159903 -2.0062883 -1.0439509 4.941455 -0.73479813 0.30914676 0.11371058 1.5531574 1.0600332 -1.8725725 1.3276894 -4.957028 3.2867832 0.71873266 0.5147712 -1.1436887 0.39129972 0.09259297 -0.86012954 1.303977 -3.1409137 4.1374307 1.0268764 -2.4181087 -3.630726 3.6608844 0.30209574 0.3120354 -0.19471283 2.6981003 -0.50928205 2.8376393 1.9616892 1.0262052 0.5340789 -1.8666941 -3.2531815 -1.9991742 0.30661502 1.515943 0.19978462 1.5319923 -1.7719065 1.5661521 1.2792745 -1.3887755 0.6989531 3.3446538 1.3764964 -0.28934377 -2.1823611 -1.5030519 -0.9043836 0.99565554 -1.5878011 -0.26821512 -1.3399192 -5.2290683 2.3303173 3.0336812 1.1123399 -0.52307856 1.526228 1.5211233 -2.8353717 2.0976834 -0.12118498 -3.5337543 -0.6299205 -0.4647901 -1.933589 0.890129 -0.7400706 2.0887413 2.3406177 -0.81854 -1.1544864
397 3.6305575 -4.7497587 2.2362113 -0.35913646 -1.8790691 -2.2160292 -2.5715353 2.3252578 4.845111 -0.74701816 -0.19316295 1.3304834 0.9291559 0.80254513 -2.416228 1.8800175 3.2623634 -1.9988592 -0.23858096 -1.2452847 -1.4139303 -0.022668278 1.4294446 -0.8481335 -1.2335969 2.9118633 1.3677418 -0.16438578 1.365232 1.6731591 -2.4582763 1.069075 -2.5726128 1.7689339 0.9736349 2.1112392 3.1812785 -0.9893867 -0.1253673 -4.717305 0.07723697 -0.9626058 1.657897 1.8694232 0.13956904 -2.045124 -0.65147793 -1.0491593 -3.2093828 -0.32168925 -0.9152615 0.4455143 1.2919146 -1.917811 -3.4897683 -0.70369434 -2.1657734 -1.3320125 -0.09087125 -1.2208359 -0.24037921 0.032668922 -2.9494624 -0.8939101 3.3484714 -0.023954045 -1.9142861 -3.3553133 1.457546 1.1479263 2.961453 0.7182424 -0.5107544 0.4673327 -2.953872 0.78908944 2.222144 4.0718937 0.74100107 -1.4141862 -1.3624487 4.389565 1.8606445 -1.9457632 -4.082869 1.0076772 0.54881537 3.0476575 0.64244336 -2.008141 1.6380206 5.2157044 -3.262324 1.9864248 -2.2408626 2.9338474 4.756695 -5.2488136 -0.45052305 -3.0961294
627 -2.2453153 -0.5433953 0.18622896 0.2667764 -3.116772 -2.9835274 2.1731243 -2.7409697 -0.29090923 -0.49214405 0.3762539 1.3487301 3.1882691 -2.4157305 -1.3989154 -3.4142528 2.1336298 0.091029815 -2.9175742 -0.29944447 -1.8088411 0.6023313 0.20849799 -2.0956256 3.2443976 -4.468202 0.6496302 4.036921 -4.833181 -0.41348982 -2.6239476 2.9064443 -0.94881815 -2.268492 3.6592565 1.7088729 -1.694454 0.068788424 1.4285269 -0.47788686 0.53188896 2.4675274 -1.001708 0.96490663 -0.39431825 -0.87696576 1.4418854 1.3382152 -0.4904998 0.86388445 -0.5582822 2.1325338 -3.4522746 0.5319986 -0.79567593 -2.4870925 -0.7727095 -0.33216923 -3.2163684 0.56322074 0.233557 -2.161307 -1.5593637 0.8644959 -0.21665408 -3.8259668 3.34729 -3.463476 -0.32089028 -1.540203 3.7727299 0.08652318 3.068171 3.0585027 3.2042913 -3.946715 -0.08771935 1.000714 1.1642101 -0.08087878 -1.5161642 1.8395956 0.39719692 2.176503 -3.2522945 -0.27617678 3.969399 -0.074879505 -1.4456203 -2.0197601 -0.68087065 0.8022685 -0.8192646 -1.2993346 -2.6835659 3.3636196 3.628633 -0.73313195 -1.6378788 -0.07671354
37 -0.9006242 -0.19207641 -2.6793365 4.3507676 2.5148733 -0.2828384 -3.47432 0.6817684 -2.0633092 -1.7003169 -0.99185264 0.27317303 0.9136144 1.4276261 3.3291662 2.0210588 -0.732628 0.74815583 -0.3103591 1.2463243 1.798853 -0.88306665 -2.4119318 -0.7034967 -1.8253042 -0.070316836 3.3770497 -0.14198646 -1.050967 -0.79411864 1.0059087 2.4692204 -1.4012398 2.2328682 -3.1003144 5.3789115 -1.1264797 -0.14454256 0.19665548 -0.33386585 -1.4744734 -0.90405387 1.7930055 -2.1125753 2.7476647 1.8103592 -2.946235 -3.09224 4.8846345 -1.077552 -0.74555933 0.20527181 2.2573519 -0.072537266 1.2060156 2.9343064 0.3411198 -1.9303846 -1.677117 -0.06530622 -1.4192001 -1.5170146 0.89472216 1.1553702 1.9209121 -0.59573114 0.27005506 0.6672577 -3.1727302 -2.0445068 2.0455468 2.7161992 0.86600655 -3.3475935 -0.7451651 1.4300305 -1.8532014 -0.81154186 1.1808896 -2.9563925 -7.068428 2.6237755 3.0040758 0.056516152 1.8117734 -0.4611694 0.6362496 -2.3712225 2.094651 1.1566824 -1.6496713 0.20510073 -0.055608228 -0.17844307 0.8728691 0.7404994 1.6719172 0.25458473 1.3022386 0.23343638
361 -2.767156 -0.049874466 -0.20512562 0.04734083 -3.460915 -3.3320675 1.9116321 -2.577778 -0.07334892 -0.4851972 0.15342651 1.4264271 2.6786067 -2.277436 -1.4282874 -3.4795315 2.5788329 -0.098531924 -2.5824988 -0.245791 -2.1126728 0.43625474 0.279198 -1.920836 3.2406487 -4.425617 0.34275153 4.446264 -4.7160363 -0.6311163 -2.9344416 3.317064 -0.7069223 -2.7635221 3.6040885 2.198009 -1.8337499 0.17479393 1.4919437 -0.39112002 0.8637743 2.3761303 -0.891004 1.1916641 -0.45219338 -0.40824988 1.9427716 1.7295482 -0.91613775 0.4935932 -0.56596303 2.4571497 -3.6773012 0.22044817 -1.4206214 -2.77587 -1.0567038 -0.6725337 -3.2951965 0.44624496 0.30314478 -2.0306942 -1.4567114 0.85183924 -0.29469547 -3.7848568 3.2775133 -3.296364 0.18468085 -1.4557163 3.7391794 0.37470642 3.0117111 2.8596601 2.947483 -4.324758 -0.071064614 0.8474476 0.8109007 0.1758308 -1.2608154 2.125077 0.17667507 2.036914 -3.171259 -0.16044365 4.3823023 -0.043907132 -1.5870332 -1.7149291 -1.1361269 0.4497827 -0.84382993 -1.185421 -2.5479078 3.5931787 3.9173849 -0.78572536 -1.3755171 0.12783039
224 0.57769984 -2.829778 -1.1766713 1.5614522 6.395693 -0.8665343 1.2520428 -0.1570298 -0.22850752 0.028107684 0.9896158 0.7370459 -1.9187942 2.7266734 -0.46266937 3.1141298 -2.1074405 -4.083178 1.5463254 -2.5504587 -2.457775 -0.0038228217 -1.9236528 -3.4092603 2.7899406 0.7956477 2.2189963 2.7656147 2.4605358 2.7652273 -2.423393 -0.11386179 -2.4666362 -0.6464852 0.44723025 -2.8494868 1.4890434 1.074462 0.89330804 1.9985385 -1.9582682 -0.9664132 0.38922542 -2.188091 1.3404524 -3.8342762 -1.3096371 -0.45414653 -3.254402 2.1486843 -1.2432507 2.526404 0.40445143 -0.7379559 -1.9374986 -1.0760745 -1.2819225 -0.85831445 1.188331 0.21188739 1.1162306 2.6449552 5.190117 1.1228943 0.6067013 0.17638959 0.75192386 -0.75520784 -0.3278902 -1.5003953 1.7809858 -2.6032562 -0.07798786 0.7453712 3.18763 -1.2057968 0.09231019 3.0531862 -0.6207668 -2.7008488 -0.9841004 -1.4183837 4.279469 0.0038613693 -4.6592016 1.4577184 -1.3142151 0.17576434 -0.550653 -0.5103544 -0.40866113 4.078524 -1.7278782 1.4071242 -1.5142909 -0.2130418 -0.12737152 1.2960969 1.166173 -2.4333434
567 0.3511798 1.1295165 -1.89091 2.3873014 -1.7948983 -2.3257437 -2.0789127 0.65333027 -2.9490628 -2.5410416 0.46457437 0.18516356 0.8241388 1.1403899 4.1174216 0.4214468 -1.0321307 0.6004059 -2.2494338 0.64573437 -0.12307767 0.5587028 -2.463273 0.3157285 0.9638365 0.24117033 3.7563047 2.1840208 -0.19646108 0.12506585 1.4385744 1.0703436 -0.13313791 3.6891198 2.4396694 5.597328 1.9963858 0.3479827 -2.2736213 -0.85788494 0.30607262 -1.1987092 2.6112194 -0.48633605 1.4780301 1.5727197 -1.8556882 -3.102729 4.1647544 0.741844 1.8308698 0.65700465 1.4541068 -0.1891232 -1.6788294 1.1142969 1.9934137 0.15781064 -2.1410463 -0.27953357 -5.9365053 -0.98621285 0.5987313 -0.69453543 -0.6513578 -1.0067242 -2.1508865 -0.09454541 -1.1594026 -3.3999836 1.8331013 -2.487658 3.4838295 -2.5147862 -1.9053074 -3.2235463 -2.4069045 -1.316105 3.4741912 -3.2910624 -4.712566 1.1932701 0.6356256 -0.051987294 1.6099321 -1.4019524 -1.437644 -3.4498339 -0.6983425 1.3542511 -0.3731228 1.4868226 0.7229162 -1.7404546 -1.5480268 -0.92958957 3.9198458 -1.2356924 2.0202587 4.481453
18 -0.6953055 0.27100605 -4.6032414 1.855343 4.5295177 -1.267735 -1.9709368 -1.9768646 -1.7675714 0.43986186 0.5051252 -0.9361847 -2.504837 0.54768384 4.224356 2.3491566 -0.5806486 -2.4170423 1.2079915 -0.07109971 1.418119 -3.3082433 -0.81886876 -0.53082246 -2.5988953 0.556721 1.3810651 -2.727146 -2.354925 0.6184307 2.9303079 1.25343 -2.921817 -1.7516313 -1.9690781 2.0785599 0.7362931 -4.096451 3.8441248 0.023561092 0.2587659 -0.5930626 1.834298 -0.20344669 4.2113066 1.8194453 0.2163196 2.0860415 0.9897646 0.18848498 -2.0299385 -0.80033505 3.0460265 -1.1933618 -0.8041449 0.08864746 1.0957708 0.89852047 -2.4195251 -2.7376354 -2.2549267 0.9306767 -0.04560499 -2.9579322 2.9259763 0.27932727 0.29464397 -0.27356997 -3.4367542 2.207869 0.61431724 2.9481394 -1.45591 -0.97634226 2.4484193 -0.49969503 -4.2132015 -0.0009120379 2.1129928 0.53580976 0.5704288 3.4537282 1.7625959 -0.92159265 2.073976 -1.339149 -0.38932908 -2.3128102 1.5573199 -0.278224 -0.9566077 -2.3215415 3.4214635 3.4337356 0.6514815 2.3738368 0.20789695 -2.8957448 -1.3546703 0.25542176
620 -0.99624056 1.4800417 -2.6253808 3.207573 1.9370438 0.4810759 -1.128077 -2.5154524 0.48919773 -2.5225077 -0.78231823 -0.60528696 -0.5587735 0.3193227 3.5708025 1.2533783 -1.4518273 -0.8397601 0.95782924 0.35820493 2.2350097 -1.1219923 -1.7785943 -1.6179925 -2.0250032 -0.0069037704 2.1766481 0.35634702 -0.939552 -1.1293445 2.1928906 3.0093293 -1.6894708 2.1043022 -2.571372 4.4687314 0.6972268 -2.2031102 0.66133565 0.28656 -0.26894048 -0.41008723 2.8122199 -2.0089557 2.7221346 1.7865324 -4.619577 -3.9676087 4.0838776 -0.61085904 -1.601965 0.23482361 3.2852705 -0.10682322 1.1419638 1.4100393 1.109439 -0.9318722 -2.3077667 -2.7325144 -0.5841395 -3.70887 2.3750768 -1.2771246 1.2908481 -1.1882147 2.347946 1.7558495 -2.758037 -0.5757876 2.6728866 2.5585973 -1.7478898 -2.270668 -1.1807902 0.87108016 -1.7323565 0.4788615 0.66622776 -1.8726488 -3.7249863 1.6047376 1.6522826 1.2491896 1.5508784 -0.47457844 0.10210357 -2.5374532 0.97183436 0.6989049 -2.4584248 -0.22610833 -0.9784555 1.2062336 0.89634436 0.9320681 1.284558 2.7075555 -0.45459807 1.903708
266 2.631204 0.38294592 -1.5000976 -0.09970704 -2.6533551 0.07559602 0.85774463 -0.91019285 1.1825199 1.2307884 1.9799405 2.136509 1.419414 -1.0710055 2.8726301 -0.4241731 -2.2987304 -0.652618 -1.8589419 -2.798283 -1.49935 -0.25761533 1.148441 1.4498994 -0.37304723 -2.1275265 3.3696609 1.027847 -1.1962167 -0.49185306 -3.3265889 -2.9969642 -1.6019186 -0.17337751 -0.7083133 2.7158265 1.6193398 -0.92797375 1.9554304 3.1356084 -2.2188425 -1.8452135 2.6850667 -2.8974867 2.9184017 -1.3922555 0.68741477 2.6153698 -2.727812 -0.4548246 -2.0894504 0.42864075 -1.1584189 -1.6297494 -0.945388 -0.7589332 -0.8528197 0.21145073 -0.046612855 -1.1360146 -3.5656326 -1.157204 1.3900836 2.561291 1.005908 2.004526 0.45786625 -2.9796836 0.34487674 -0.34257677 0.5549674 -0.029172862 0.65094435 -4.409107 -0.25264317 -2.5211778 -4.7124815 -0.37633762 2.98227 1.1039456 -1.0549849 -1.5018344 4.5961995 1.6312445 0.96549124 0.7287272 -3.3611274 0.8114927 -5.1353116 1.9824891 -1.1580983 -0.9202215 0.87308675 0.9527895 0.23323853 -0.80062425 1.3860971 -0.43524256 2.6127732 0.8807839
302 -2.8890898 -2.8561172 1.0388414 4.453318 1.1233544 2.4384425 1.5793023 0.82874024 -0.4411529 0.34269363 -1.3892355 -0.83300555 2.7875993 0.24125633 -1.3125159 -1.0983777 -1.3134366 -0.053186182 -0.89133704 -0.34326246 0.15065296 2.5507457 1.5258187 -0.80597776 1.2733521 -0.17009439 0.20506172 -0.50109863 -0.2012427 4.924599 0.9341401 -1.7345076 -1.4170378 -3.1530871 4.111057 3.4075444 -0.5336346 1.2422322 3.859516 1.9155768 1.3044122 1.2264808 -1.4224607 -1.8103714 -0.4905179 -0.48979086 -1.0088582 -1.7493575 -1.5326939 2.1625507 0.0533422 3.8295338 -0.55203325 -1.9711013 -3.45642 -1.0230095 -1.3441087 -0.5100872 -1.8996764 -1.5352881 1.0381764 1.6280203 3.6779418 -0.84966415 0.35651472 -0.78456986 2.366904 -2.224297 -0.8720171 -0.04300651 -0.5293084 3.2510757 -0.40017015 0.09475987 6.061284 -1.193664 3.1764724 1.7965647 1.2516617 0.69532293 2.000852 -2.4852679 1.0635561 0.4406145 -0.10844152 1.2448426 -0.21143189 0.7277617 -0.0039100097 -0.6061272 -4.0999546 1.8070153 -1.8072344 2.3089404 -4.0705914 -0.24409474 2.1141064 -0.634527 0.5578783 0.47870976
307 0.11920908 -2.108417 -1.687773 1.5312918 -4.1686363 -2.486749 2.0325942 1.3458805 1.735438 -2.605926 -0.58123326 -4.0650563 -1.9617604 -2.750937 1.1582913 0.80432326 2.5413496 -1.2074959 2.536304 2.1783662 2.0596666 3.7052872 -0.025446037 -3.042856 1.4206086 -1.0509608 -0.5831021 -1.2327585 1.513059 -1.4318131 -0.9044858 -2.7775068 5.084246 -3.3389027 -2.6837804 -0.8369455 3.8445373 0.31048226 0.32888266 0.54891324 4.133071 4.7891808 -2.7404366 3.0491264 4.6771936 -1.5554287 0.92916715 5.024738 3.3687158 7.11404 2.4633963 -0.1903035 -1.1039181 4.9493446 -1.6426926 0.3069966 -1.2063314 -0.6942898 0.6743739 0.9762025 -1.4851984 0.079357624 -2.3626757 -1.0869412 -1.7328671 3.7024536 -0.71003294 1.0926425 -5.492041 -3.5220337 -4.2620554 -0.6365436 0.39017895 0.34135938 -3.231801 6.2186766 0.6475349 -0.36964867 -2.592038 -0.07221869 1.7797323 0.9843064 -2.994106 2.8032296 1.5535796 1.1959717 -0.8313157 -2.9443212 1.4818 -0.6984616 -0.43595836 3.9291363 -0.37496886 -0.9618349 3.8762255 -2.091749 -4.9543657 -2.2158153 1.6198676 -5.662354
413 -1.0978754 1.5351297 -3.764987 -0.37594748 3.1728683 -0.39037526 -3.1219378 1.0539162 0.007402761 -0.34457493 -1.7910471 1.3845562 1.4819791 -0.3245356 -0.07184288 -0.07281288 0.122217506 -1.2698939 2.201544 4.8181334 2.6178243 -1.079418 -1.8565764 -2.0523071 2.2255907 -2.8863058 8.379964 1.0150185 -1.203687 -2.4036736 -0.87434953 3.9509168 -1.1378169 -1.2741073 2.2924502 0.92761993 -0.21345711 2.4164584 -1.4235151 0.09523913 0.67152715 0.28491962 -2.342077 -1.5199428 0.22562705 1.1107161 0.019062309 -7.5405016 0.34633783 -0.10977114 -0.46251 0.5312467 1.0821042 -3.961758 1.728328 0.6762423 2.9197826 -0.27746826 -3.3436134 -2.135798 -1.524078 -2.5794833 0.91934526 0.90316916 0.43342623 -2.8717883 -2.0854812 -1.9729 -2.0388572 -3.2035923 1.4536436 0.5868911 -0.35226738 -5.411893 -2.022253 -2.8613093 2.7177398 0.4029667 2.026139 1.810344 -0.9563448 1.3314396 -1.9419439 -0.79676926 2.0758502 -2.0363224 1.8637606 -0.5304608 -2.2286518 3.3603566 0.53000456 -0.08807805 1.7490637 -1.1873363 3.986538 1.1772453 -0.15923744 1.9975446 1.7257377 3.3559327
403 -3.2087471 -0.5352958 1.5322452 -2.1146846 0.69724804 -0.6141951 -0.2088784 -0.673312 4.6767116 1.9923099 -1.6439197 -2.3744497 4.450441 -0.69905925 -0.9965465 0.95157546 0.028778777 -0.09737855 1.4307357 1.2935252 1.1198765 -2.8785772 -0.25676167 -2.2674704 -0.7920561 1.2600965 2.1765635 -0.4043119 3.5842414 4.2764344 -0.17282015 -1.022748 -0.44780624 -1.59428 -0.53410625 3.3553214 0.48787418 -0.7119573 -1.1283557 0.10198624 1.8857657 -1.6109265 -0.0267981 1.0845896 -0.6325694 2.9170072 2.2685304 0.31561938 -2.0306554 0.6398775 -0.7228528 2.061091 2.015509 -0.262635 -0.7923982 0.9424684 -7.201887 -0.448497 1.8414428 -0.5027059 1.1009309 1.8132281 -0.43108875 1.3967868 -2.7527325 -2.5923707 2.4983213 -1.6925406 -1.4893334 -1.2295345 -0.46761742 -1.912587 0.8545263 0.4706669 2.909873 -7.1718197 3.065745 2.62418 2.214015 1.2208166 -0.49941263 -0.4817839 2.7453666 1.9061263 -4.5858264 0.83216435 -3.1091604 4.1697187 -3.167652 -1.3776736 1.2545595 1.6120836 -0.31665277 0.95506334 -2.378903 2.63708 -0.47624138 0.080245234 -3.9932756 0.35418156
348 3.4609928 -0.5112664 1.1047772 1.1669309 0.049867857 1.5727757 -1.7089323 -1.4306922 -4.6559873 -1.6570959 -1.0807751 -1.140174 5.639879 1.9402537 -5.600925 1.3891952 -2.4055617 -0.816922 1.8673474 -3.3905022 1.8647542 -0.39184603 3.1837199 2.0112634 1.0527855 -1.9527076 -1.4067618 0.5845838 3.2746453 2.732352 0.8299042 2.3844504 -0.73052275 -0.34069708 0.0071493536 -0.9526677 -3.7904322 -3.443366 -0.5387101 -0.8869231 -3.952735 -1.2662437 -0.4006826 1.1468048 1.0266081 4.2588196 -1.4250808 2.901421 0.050901525 1.865985 2.7434616 -2.072672 0.9953069 -1.717252 -0.054989252 1.6067556 -0.8583026 -3.277704 0.77660984 1.6917133 4.1197352 0.3128072 -3.395067 2.7158623 0.6292162 -2.8627174 -1.2370489 -3.2434614 -1.9398599 -1.174201 0.569208 5.5571966 -2.22679 2.3962834 -4.089356 2.2796867 -4.2733016 -1.2114371 -2.3665476 -2.9878159 -2.0445387 -0.62828135 3.40105 -2.2046654 -2.5545053 1.336499 -2.0562234 0.24040353 1.5240215 -0.38140306 -0.74370843 -2.8936672 -1.2382942 -1.6418049 2.5488212 -0.9359632 -4.272951 1.5115981 0.37896317 2.484917
506 -0.55910724 -0.7779326 2.220351 1.1304519 0.91827977 2.097744 0.6378608 -4.9071593 3.4205582 -1.6808416 -1.4391425 1.1524264 -0.53200364 0.20223606 2.9748495 0.20131262 -0.031706106 -1.5163102 3.413531 -1.293203 0.2902202 1.1040603 2.5372066 2.4297504 -2.0961623 2.0994701 1.3956866 0.3997553 -2.8589892 2.374173 -4.6926503 -0.43330526 0.6681202 2.9029675 0.6437285 1.5545915 0.22019556 2.4023073 -0.9260441 -0.91128224 -0.9167212 -3.296997 -0.69297934 -2.1240668 -0.064332955 -0.61962914 1.1205412 0.44162503 -2.7573116 -2.0631816 -0.33528554 0.78293383 -2.6009114 -2.5942786 -0.67742497 2.0011218 -0.15921542 -2.0545034 1.160687 -0.9755424 4.058677 -0.05176894 1.653655 2.4670854 1.7060311 0.6476252 2.0558908 0.15528958 0.9194203 -3.3385623 -3.4351392 -0.69156337 -2.0061715 3.8165166 0.7866362 -1.2245883 -1.1236175 -1.905978 4.9671974 0.9520505 0.10917489 -0.29820916 0.44224373 0.62507653 1.8639416 -1.6858141 0.71477205 1.2495431 0.9992084 -0.2948346 0.5871426 -0.3457389 0.30650884 -3.9946604 -0.026097873 -2.6873405 -0.12197099 2.1657157 -2.1461425 1.1288294
219 3.5961745 -0.38899267 0.6244141 1.5370259 0.26359785 1.664683 -2.1028526 -1.5700545 -4.440494 -1.892675 -1.0467267 -1.6817905 5.714781 1.8921255 -5.4899855 1.4584734 -2.3067741 -0.7874988 1.7082506 -3.5150294 1.4730985 -0.66359705 3.3862078 2.2610173 1.3402642 -1.8701844 -1.2062093 0.42938256 3.8296518 2.4979916 0.63079584 2.5328124 -0.75639564 -0.36891627 0.18874305 -0.69944835 -3.4507177 -3.494565 -1.0304787 -1.0544298 -4.100937 -0.9349433 -0.64143115 1.6437402 1.7646347 4.1012893 -1.674458 2.5666375 0.15197943 1.7379124 2.8333986 -1.8760716 0.5204143 -1.7077252 0.18354404 1.661717 -0.7068454 -3.2694163 0.73474514 1.3974767 4.01881 0.26039937 -3.3117044 2.6914883 0.58730763 -3.7528927 -1.5592526 -3.043776 -2.0937188 -1.1196834 0.63209015 5.660564 -2.2219706 2.6912231 -3.784548 2.2579618 -3.9089544 -1.1128231 -2.5100927 -2.9860466 -2.174546 -0.73772216 3.2084868 -2.0304096 -3.0006154 1.1141757 -1.8425437 0.55652255 1.8478898 -0.85942197 -0.80110466 -3.3289297 -0.9894173 -1.4134542 2.2425447 -0.9229242 -4.8525043 1.5361215 0.34344584 2.9900672
316 0.10721272 2.720045 1.6371272 0.8269654 -1.0270118 1.719929 0.013602731 0.32138842 -0.7962778 -0.7236872 -3.0391066 4.132207 4.3859143 1.33019 2.8495681 1.6574532 -2.945315 -0.3245214 0.89923936 1.0746818 -0.99897987 0.09647778 -3.3979044 -1.3130493 -1.5247458 0.053766847 -1.7121891 -1.1434699 -3.410557 0.59693426 -2.0835216 0.20025904 2.9496636 1.4708475 2.925786 -0.20776351 -1.3567888 -0.5063848 -2.269254 -1.5256255 2.7218883 -0.43590245 0.49311993 -0.8279328 0.3242419 3.6638703 0.5939672 3.021978 0.38652018 0.88101715 -4.4395027 -3.626905 2.7586217 0.6397919 0.028371148 -1.6594211 3.2652235 2.7021463 2.9705255 1.7303008 -1.702961 -0.85498685 3.3817172 1.2821444 -5.178857 -0.54506403 0.1967826 -3.7904997 0.089063115 1.2384688 5.2778006 -3.1763992 0.17928354 2.5536075 0.42972746 0.8624429 3.4326818 -3.3677707 2.7509737 -2.7916167 1.5921882 -3.458133 -1.9226671 -0.11746696 0.88686115 1.8671412 -0.042711116 2.6999815 -2.217091 2.7393742 -1.0450909 -0.8544877 -1.560446 -2.785823 -1.9159045 -1.2143927 4.6955833 0.37463576 -0.6300577 0.4977536
655 -1.3060011 -0.8886227 0.04230097 -0.027900355 -2.685908 -3.8495286 1.2728199 -2.2598934 -0.17306475 1.1712167 0.43262658 1.500666 1.8612965 -3.333451 -3.66713 -3.4873066 1.2013885 0.65989393 -4.251583 0.15424928 -2.2048187 2.3498404 0.6716804 -3.1510425 3.3221133 -4.8465533 0.5804438 3.8421893 -6.4030585 0.10841711 -3.0827067 3.9889123 -0.8860756 -1.003252 1.4718156 2.5338452 -1.4466702 -0.56940496 1.7996353 -0.8643328 0.5820687 2.5679688 0.23775227 0.76883596 -0.86884576 -0.8504511 2.4650214 1.9139924 -1.172285 0.3871413 -1.8760201 2.5010433 -4.4066687 0.96358585 -2.0642729 -1.2195934 -2.4570694 -1.2066032 -3.0408 -0.7846951 0.8839931 -2.4044406 -2.3940182 0.7492241 -0.056867372 -4.010465 4.013234 -2.7329276 -0.06306934 0.5244756 3.8457756 1.1319954 1.7946885 3.9883697 3.4556477 -2.4936724 -0.16542599 2.7343729 -0.36350256 0.97151333 0.28676564 1.9775398 1.3163582 3.246762 -4.3189287 -0.46629468 2.9821887 -0.25579384 -0.84186 -1.7914226 -0.4434828 -0.50494105 -0.21709254 -0.7760081 -1.725176 2.7963645 1.9397967 -1.0865713 -2.0126698 0.73331136
552 0.38070828 -0.46050748 -0.3708865 3.8988607 -0.47098657 0.69427484 -1.5239371 -0.5984168 2.7459035 0.8038131 1.4077854 2.4002535 -2.693979 0.8794426 -4.339231 0.86384267 4.0054364 -1.0104648 -0.9366886 -0.056651227 2.1927745 -0.6926767 -0.78581065 -1.2937882 -1.6755669 1.5567716 1.0258555 0.6524075 -1.5871284 0.46377838 0.27323103 0.2359654 -0.36498538 -1.1654198 -1.316399 0.61812377 -2.060187 -0.32727233 0.62262183 2.1159294 3.6762154 -2.3578045 -0.99883133 -2.5039725 -1.8314668 -1.8880374 -0.007575389 -1.4473966 1.9465241 1.5532633 -0.66605437 0.12900804 2.1663132 -0.33161017 -2.2727883 -0.5138267 0.2312438 0.7996156 2.325368 1.2862403 -0.44862413 1.1517975 5.9667163 -3.182803 0.64404917 1.6850476 1.7028548 0.9648031 1.9547014 1.4066244 -1.7281721 2.7810535 0.14848368 -0.25645757 0.0011712532 -0.5138986 -1.8093138 -1.0189109 -0.28863174 -1.2613783 -0.40076986 2.2408974 1.8002276 1.5085632 1.3192847 -2.2304518 -2.8814893 3.777418 -2.248062 0.7349891 0.25655302 -1.6747191 2.1747313 2.7072659 0.04182929 0.5226822 1.944212 2.5593662 1.8409462 0.6435153
62 1.9882233 -0.2981417 1.366084 -0.8600022 1.534086 1.2118895 0.8884168 4.1415215 -1.7864966 0.7101193 -2.5076025 -4.3805676 2.38028 0.36741766 -0.16312277 4.0888634 -1.3291022 3.554576 4.268362 1.6447037 -4.2658377 1.258995 -0.81299376 0.08194753 -0.6219133 0.9500627 -3.0197139 -2.807172 0.43349364 2.448807 0.025204077 2.46123 0.46320415 0.23882385 -1.8770641 -3.1687222 2.3463366 0.051203247 -1.2098069 3.1353774 3.1025965 -0.53047895 0.7138437 1.9918606 -3.0511405 -1.1986736 4.960229 0.9901597 -0.82335836 -0.12486901 -2.3435829 -2.4620364 0.7120181 0.64167166 -1.5918505 -3.1360376 -2.6246686 2.1006715 -3.9818738 -0.9984869 1.1930872 2.5415885 -1.8110374 0.15102252 0.57936555 6.169794 0.1251531 -0.9273719 0.9595151 -1.0841842 2.548897 4.485969 -1.9246068 -0.5722554 -0.2832887 -0.009429158 1.1885233 2.6057334 -0.76667994 -2.4868078 1.113067 -3.3164763 -0.55252844 3.4019735 0.072838575 -1.6417575 1.6714555 -6.5623894 -1.0165749 3.539647 0.0283565 -4.5810285 3.2002475 0.041868836 0.011084029 -4.122339 2.4694126 0.9786869 -0.24159358 0.23667243
92 0.012531057 2.977157 1.8674754 0.7575828 -1.5938966 1.757554 0.2784215 0.22343689 -0.5857693 -0.6092736 -3.147303 3.8635871 4.0800033 1.2291626 2.7973444 1.1230402 -2.7390614 -0.45199728 0.34531984 0.8647721 -0.7872392 0.035454426 -3.7510383 -1.3113418 -1.5980886 -0.56948406 -1.4865592 -1.1649541 -3.6208498 0.7187897 -2.4981802 0.22064847 2.779707 1.1297632 2.6403096 -0.022557396 -1.149442 -0.67196006 -1.8069987 -1.5035032 2.4485579 0.08098607 0.41721728 -0.52186483 0.8292444 3.9184773 0.45903078 3.1278582 0.70474434 0.8798744 -3.9532945 -3.646058 2.6422148 0.6827529 0.21499324 -1.8003213 2.724561 2.4946375 3.23662 1.915472 -1.6966196 -0.74608976 3.4372118 0.85774606 -5.2978854 -0.287292 -0.03902793 -3.4965794 0.21172537 1.0585933 5.410187 -3.2694244 -0.13437937 1.9697479 0.22434601 0.9618053 3.3212957 -3.5382547 2.7872121 -2.9605188 1.889082 -3.1258132 -2.1271427 -0.06862122 1.2543414 1.4180893 0.13471593 2.6909192 -2.0471597 2.8351097 -0.7553259 -1.1574634 -1.2491171 -2.7387285 -2.1758156 -1.1125913 4.033752 0.26348072 -0.502848 0.8824398
137 -2.427081 2.9160485 -1.7737273 -0.927516 1.4043708 2.3430572 2.6957448 3.6692586 -0.36568618 -2.43002 2.6479414 0.034399424 -3.8274796 -6.698897 1.4487046 -1.9098897 5.593402 -4.171339 2.3227153 -0.18372393 -0.051843535 -2.8282588 -3.291379 -0.4947799 0.49397933 2.8611772 2.9576075 -2.3482754 2.093415 3.2764595 2.0917792 -3.5682218 2.24862 -1.2591314 -3.9400706 -1.6372342 -0.18193634 -3.0509627 1.2480756 0.1355884 -6.168878 0.5657558 3.1745236 -3.1997693 1.0519754 2.954163 1.2696604 -1.850995 2.5833127 5.0016727 4.607328 -3.5029132 -3.1598527 -4.667596 1.2191055 0.84876055 0.82624 2.177162 0.2762477 -0.8295723 0.580298 -0.75952315 -0.08730426 0.84834915 -0.8786444 0.2574546 -2.3618622 -1.1436054 0.9442329 -0.6630969 1.9958783 2.5750854 0.044002686 2.6194458 1.2380155 3.5353165 -1.3586309 -0.1787665 2.4187257 1.0147587 1.0892692 -4.101146 0.18365224 4.506271 -2.7105033 1.4983227 -0.325886 -0.53247875 3.6574936 5.911157 -0.6173986 -0.14395696 0.23632997 2.7201314 -2.5808535 3.4822457 -1.8847842 0.13081811 1.753838 1.9236618
239 2.8461041 2.7670572 -3.3455215 -3.6387448 -1.9996969 -1.0249822 -3.06447 0.14269787 4.93062 -0.38353172 3.8690097 -4.781894 -2.9283633 1.0479438 -3.790252 -1.3661133 -0.34504575 1.9018598 -0.050780647 3.1081557 -2.4581919 4.1413403 -2.0090127 0.079650745 3.9416482 0.6986998 -2.354588 -6.3134756 3.6551297 0.08757949 2.9403627 0.7966268 3.018652 4.846465 2.0668962 -6.2987313 2.9004757 -1.92429 1.3274527 2.4879375 -1.4935417 3.0678196 -0.45339522 4.3982124 -1.080369 1.3617835 3.5179908 0.70774615 1.0834652 -3.412386 2.6771126 -0.8276209 -4.9767013 2.1239398 1.9595966 0.74936676 3.3271284 4.4615273 -2.2365906 -0.76619655 1.5738271 1.174767 0.2020733 1.6101832 -0.35719347 -1.4581469 1.0753126 3.0752769 -4.179155 3.7104805 -0.418721 0.45778364 0.76743907 0.26972216 0.8436723 1.6944808 -1.806779 -3.9125075 -1.671708 6.522009 -3.5030122 1.940552 2.1957283 -3.3134499 0.9277962 -1.0422636 -0.6286819 5.076064 0.7672605 -1.4580187 -2.3977406 -2.41009 0.5652125 2.4358828 -0.68988305 -3.9332678 0.21153279 -0.9015043 -1.4843515 0.7811075
127 1.005206 2.1274664 -5.105854 0.29285637 -0.46678138 -1.4446678 -0.40376902 -2.579002 -0.06116219 2.8537314 3.0660613 -8.496897 -0.4250503 -1.0802206 0.1352674 3.1011887 1.0240058 5.484826 -1.6124386 0.7814954 -1.6240686 3.3134947 1.6783645 3.5000956 4.452484 -1.3646641 -0.8002263 -3.8194818 2.1771314 -7.819286 -0.39775065 2.5585008 0.59401166 -0.45246527 5.4817877 0.14030609 2.8633697 -0.17604212 -3.0724933 1.1411794 -0.79945725 0.12321938 1.8332479 -2.06896 -2.8142583 -2.7745428 0.05095583 1.6045119 0.10003961 -4.5056257 2.5928488 1.1869884 -1.0953383 -0.3147605 0.6363159 0.87458915 3.9233556 1.643626 -0.86755866 -2.3313668 2.8109386 -1.4005574 -2.3034792 -5.4336753 -2.713147 -0.83274305 1.3364532 3.1520312 3.2984934 3.3360493 -1.7108098 -3.2854462 3.149051 -0.51193076 3.075823 0.59367585 -1.9454154 0.44229335 -0.8278961 1.9228779 -1.1170393 -0.501526 0.3796905 -1.8772033 -0.898733 0.47684404 0.7047202 5.1129346 7.010472 1.1895154 0.113569945 0.9984169 1.842032 0.5187939 -2.464361 2.8424437 -4.7194185 0.8534281 -5.6436276 0.19205648
323 1.4877071 0.7268606 -0.9301791 3.2404313 1.2778926 -0.76591957 -1.4707139 0.056848798 -0.4832887 -1.1069355 1.6067886 -3.5797536 -1.9801134 1.0030082 1.7554268 1.1456889 -1.5719929 -0.06356534 -1.5308076 0.39497197 -1.03926 -1.4006295 0.024048032 -2.4117393 -1.504093 -3.2133422 1.0149138 1.4694897 1.7547036 -1.5360427 2.2761233 -1.28331 -3.3196359 2.3615932 -2.7909832 4.028045 -0.39439008 0.24040562 0.8560952 -0.29166132 1.1802223 -1.3894011 0.16395986 -2.0647182 4.2159357 2.0169656 -0.5352469 -3.292837 3.3366833 1.5211806 -1.903978 1.0961256 2.1428752 0.9689318 0.9482916 0.48319277 1.320414 0.17872965 -0.06561781 -2.2795756 -2.4391503 0.9487885 -1.0795096 -1.3015828 0.08445446 -0.41016594 0.3139239 3.1151137 -2.380136 0.8740538 3.5703716 2.174688 -0.028632494 -2.4785979 -0.97288644 -3.3084824 -1.3110036 -0.26401263 2.4493995 1.5822768 -0.22849077 4.061439 0.24922813 0.41760993 2.0218086 -1.3941536 -0.043051112 -2.8486238 1.3667406 2.7999957 1.9282563 -1.7547803 2.9690685 -1.5923728 1.5951211 -0.90609694 1.0521878 1.5596678 -0.9448931 2.3155165
478 4.2768035 -6.229922 3.7550638 0.74941933 -2.1964595 -1.7852142 -2.8003387 2.8413272 3.4796503 -0.38555238 0.2572233 1.3583118 1.0473676 -0.21163605 -2.974315 2.6006525 3.701911 -2.1335635 -0.044493604 -1.8514311 -0.9615557 0.43326548 0.3505679 0.49414393 -0.66703516 2.1666923 1.636751 0.2614026 1.4201313 1.3918506 -3.332094 1.1581779 -3.2516897 1.0540162 1.5968624 1.4706587 2.3350317 -1.9027022 -0.8057596 -5.0559897 -1.1003188 -1.1022416 1.8139724 0.88671434 0.6175664 -0.891636 -0.19356011 -0.4713378 -4.4212074 0.5470365 -0.8791417 1.490872 1.8715217 -1.187694 -2.5738964 0.11341515 -1.7597501 -1.2926277 -1.0177926 -1.4012122 -0.30116498 -0.20166191 -3.1708345 -2.2580926 2.755576 0.66310245 -1.4427835 -2.715892 0.4608006 1.5591453 3.092325 1.3477283 -2.011942 -0.39158097 -3.2488027 1.0043476 1.4914031 3.7965202 0.59677505 -1.4449825 -1.3661885 2.8690076 1.1383492 -1.7101456 -3.3692853 1.1463094 -1.1334532 4.048752 1.8809286 -2.4265244 2.5888348 4.8475685 -4.6002917 1.7509053 -2.9390492 1.9718505 4.3989496 -5.403288 -0.08742714 -3.2500913
581 1.94197 -1.2836325 -3.3855786 -1.3748447 2.472784 1.4615326 0.13856213 -3.505951 -1.0224142 -1.7620491 0.35265878 0.5166128 0.6183984 -0.23145984 0.36774704 -1.8149829 -2.9983854 1.502686 0.111721694 -6.8348775 1.8760566 2.0615692 4.3423123 3.5501895 1.6673154 -2.2243433 -2.9354901 -0.16857962 1.8048865 1.6262618 0.7606905 0.42814413 -0.09817184 -0.14684828 -1.1478422 -0.02276394 -7.1501565 -0.22517665 -3.5788121 5.1794295 -1.9286599 -1.5401933 -1.5367482 0.52933186 1.1619148 0.5257937 -3.8719718 0.8920718 -1.0789162 3.8559897 -0.5054318 -1.8411802 -0.48951498 -2.3292904 -0.60769975 -0.47983235 -0.73748726 -1.5941794 1.1385932 1.468264 -1.4269382 -0.94635075 -0.7144528 3.763453 -0.5477524 -1.2698439 -1.3991265 0.101341985 -3.7096899 -2.4351583 -0.88071084 0.8156273 -0.22017257 -3.1295524 -4.3261094 2.255258 4.167694 3.7574677 -0.80355006 -3.6018913 -0.20541635 -1.1397765 1.5106353 -4.18778 -0.14996469 2.1239114 -0.7987325 5.437655 0.8459135 0.8006742 0.89370936 -3.4809377 0.02739949 1.3419827 -0.82134116 -0.7888135 -1.4149209 2.3263016 0.034754667 3.376521
615 2.221256 -0.893102 1.8177211 -0.5447359 0.95409167 1.3088634 1.0695714 3.6460402 -2.0222824 0.40597335 -2.7673495 -4.1661105 2.4349127 1.1337249 -0.6083615 4.142959 -0.7958907 3.734138 4.8273964 2.5294685 -4.6233897 2.2476234 -0.91760033 0.10443436 -0.258301 0.8507022 -3.265251 -2.7510536 0.7612931 2.6090262 -0.7966025 1.8243529 1.1609641 0.12829806 -1.9613234 -2.987776 2.7852793 0.107885994 -1.6289608 3.100215 3.4808397 -0.7010434 0.32475692 2.1042516 -3.444765 -0.47540438 5.9676504 0.9702957 -0.32245407 0.10993013 -3.059914 -3.4310172 0.07217934 1.2392167 -1.9569927 -3.1184576 -2.4512687 2.50867 -4.2721386 -1.0370682 1.4228134 2.7332747 -1.8667806 0.26905784 1.3735918 6.0703115 -0.25103799 -0.58536667 1.0918163 -0.6777894 2.9274442 4.5306926 -1.5170937 -0.12574346 -0.75610155 -0.5831946 1.8306857 2.4000828 -0.4250522 -2.2532907 0.55973446 -4.0402904 -0.37631574 3.6409206 0.3974446 -1.8381978 1.9030623 -6.870786 -1.2728595 2.8801343 -0.022079425 -3.9978218 3.3163855 0.48062775 0.6076243 -3.8964229 2.629729 1.1539687 0.23500621 0.7666055
120 -1.2497923 -0.3678227 -0.57454985 -0.17225328 2.2914195 1.2019324 0.16290323 1.6750852 2.4286506 -3.9621086 -5.4065886 -3.7918026 0.3038783 2.264162 -2.9412394 2.1775277 -2.7648525 -2.7937663 2.5787437 -3.2490702 3.4387984 -1.6489497 1.6526401 -1.3208216 0.09907949 3.129503 -0.7336499 -0.6862252 -0.65746546 0.01591587 0.513282 3.545647 -1.8819678 -0.4948806 -3.356589 3.5069757 0.2165007 0.41162154 -0.048722576 -0.59757984 -1.0144179 3.1108644 0.8934184 -1.3040571 0.807274 0.14565803 1.3393153 2.3366392 -0.14518651 -3.2433815 0.6290771 1.5185022 -1.5381482 0.8056319 1.2597092 -2.7799609 -0.92901707 0.04328577 -3.0785744 0.37856787 1.2328517 -4.1858 -1.1384659 0.2554358 0.15353863 -2.124943 0.760977 -0.85697967 -1.0056999 -1.4923471 0.19405143 2.9372134 -5.3877583 3.690394 3.857603 -3.2880437 -2.7187698 -3.376099 0.010522744 -3.4176345 0.8671988 0.58300656 2.3096726 -0.85668606 1.2635034 -2.4065065 0.33550647 -5.1797748 0.025636155 -0.6417032 1.2161256 -2.635767 2.7422285 1.9779544 -0.8221162 1.4136667 3.8302636 1.8855072 -0.10814209 -1.5281731
242 -1.6856128 -2.039865 -3.0701175 0.43963435 -2.084623 -1.2400346 2.297821 -2.5196984 0.20006624 0.4491868 1.9929534 -3.84247 1.1974396 -3.5858617 -1.0732394 -0.25587162 0.59452814 4.036807 1.681279 0.8180064 -3.7027416 0.38685185 1.7694503 2.9179115 -0.38054323 2.8114185 -3.5461805 -2.3579264 2.4161828 -7.5501804 -1.8410926 -1.3847839 -2.0490863 -3.9251223 4.159955 1.6308416 1.4439129 -2.2036092 -4.438031 1.6378187 1.089984 -2.1161473 -1.409047 -4.1934915 -1.4533364 -5.508684 -1.8353784 -4.4267554 -0.44933763 -3.0778892 -1.1546738 -0.6883804 0.09047765 1.5693746 0.24065864 -0.052108746 -0.688661 -0.9972114 -2.0308802 -0.82107943 3.71602 -2.6886966 -0.5614378 -1.5669822 -1.7379239 -2.039361 0.8032287 -0.28014854 1.7498803 1.1239069 -3.2486715 -2.909445 3.5649407 2.324067 2.2049718 -4.343615 -2.8909714 2.22058 0.6479318 -1.2260165 0.21658985 1.5046734 1.7137681 -1.1463989 -1.2068038 0.39758512 -0.30881497 -0.363167 4.5378513 1.8914859 0.81695414 1.6197951 0.41947332 -1.1509643 -4.6493716 3.8413434 -4.607474 1.8674401 -4.4180346 1.7539897
87 1.4144058 -1.1521587 2.152339 1.6323808 -0.86914253 -3.8609805 0.32693425 -3.1564796 -0.80169135 -1.9509016 0.8577259 1.6216464 0.124829516 -1.3882942 0.7623265 -1.9633094 -2.305348 -0.44508913 0.3842078 1.9011215 -0.99525464 -0.9311098 -2.9975586 0.8235895 -0.48243073 -2.8907921 1.2001557 0.8267826 -2.0030153 1.2830818 -1.3274053 0.9470161 2.2998269 0.004739808 2.921169 1.1755251 -0.92445886 0.6720387 -2.3610027 -4.097588 -0.4660608 1.6229163 0.024071895 2.5055954 -2.2954943 -0.6115461 2.3020942 0.46234775 -1.4454038 -0.3096677 1.2243007 1.4455003 0.72435415 -0.9906861 -0.83376473 -3.1690738 -1.0588988 1.7850932 1.8844501 -2.0841317 0.30387267 -1.6196641 -3.5006263 2.9524045 -4.6205916 -0.67644423 2.8771822 1.023481 -0.93307745 -0.40460557 1.8753697 -2.5354488 2.5251846 1.8007622 -0.0102215065 -3.301125 -2.2254362 1.0066775 2.8557248 0.16859704 -2.232808 1.9818579 2.4396372 0.7339025 -1.9563268 -0.58997494 -1.4312615 -2.0175815 -1.8905089 -1.9971989 0.2767922 4.6223965 0.024579559 1.0926398 -6.501685 1.7788588 2.7370522 -4.0393286 0.50133544 2.346042
642 -1.4905553 1.7314813 0.049746886 2.9825032 2.651752 -0.7798591 -2.1089528 -1.1662143 -0.68997 -1.7833291 -1.3249446 -0.75525355 0.7682061 2.315574 1.7012212 2.0268962 0.10118083 -1.0724442 -0.032172978 1.2545891 1.3469365 -0.57746595 -0.95658267 -1.2000328 -2.4939456 -2.9525533 1.2406332 -0.1794668 1.8824217 0.21729675 1.8380386 2.186483 -3.5717204 2.3274617 -2.8176947 3.5336425 -0.13252161 -0.56553495 1.0417213 0.3961393 -3.4169493 0.3837217 0.8799769 -3.5599449 5.418943 0.4778321 -1.6779563 -5.463005 5.0897493 1.3251106 -0.15946896 2.0729797 3.5183842 0.08468598 1.7137533 2.3958724 0.5807577 0.690696 -0.6465539 -2.8047276 -3.2028005 -0.40177307 -0.17483985 -0.22798765 0.7261206 -1.5765816 2.6653383 2.0865958 -2.3565302 0.7089279 2.8237243 2.4722903 0.25936136 -3.7199934 -0.72155523 0.65704596 -1.562804 0.15460531 2.710271 -0.4756047 -4.748767 2.9422145 1.3429059 0.38959846 0.32325923 -0.05668593 1.3714985 -2.5769749 0.44892943 2.9685104 -0.607086 -1.1468769 0.81801873 -1.3396441 1.5993114 1.1351045 0.798559 1.9422766 -0.5482793 1.1540939
175 -2.1049986 1.9678351 3.2070236 -1.7554854 -3.4485102 -1.1747875 -0.06662395 -2.24335 -1.4112532 -0.0103833275 0.5867391 -1.8730452 -0.8009198 -0.93989027 0.7477306 -1.7846879 -0.6758237 1.1760745 -3.6223137 -0.23266079 -0.40704972 -1.3452287 0.43117326 2.185429 1.6998963 -2.3896322 -2.0848556 1.2729833 -4.614563 1.6596965 -0.7017538 2.480891 -2.1237724 1.5533118 2.0176637 0.5403724 -1.5029515 -0.16619733 -1.6102127 -0.39068493 3.8500082 -0.57925755 0.23273005 -0.590357 1.4639708 0.42827773 0.95353 -2.8058085 -2.6561277 -1.1673261 2.2057452 1.3455848 0.3921409 0.8640327 -2.7762113 0.4474599 2.179414 0.62608993 -1.6980339 3.059304 -0.58369064 0.10824162 2.5305579 -3.047765 2.6125343 -2.6306303 -2.748453 -0.4385372 2.0089087 -2.5113204 -0.46287 2.541388 -1.3789289 0.8943515 3.6503823 -1.0086433 0.7356479 0.67572725 -0.015164335 -1.4397292 0.64099044 0.44839942 1.2562904 -0.7658959 -2.1323488 -1.4513682 2.0787454 -1.8478186 -1.1371893 1.9346603 1.1900368 0.92159265 -0.76249737 -1.7198476 -2.02261 4.227494 -1.6064069 0.35507303 -0.38606295 -4.063185
320 -2.0263615 0.7837582 0.657091 3.412458 2.5075328 -1.1891223 -2.1069458 -1.2408869 -1.0027034 -3.630565 -0.23345083 -0.09568492 0.8373388 3.2558253 1.6214787 1.3620294 0.7715582 -0.83291 -0.41833246 1.1033307 1.7583498 0.6321787 0.04062318 -1.0508817 -3.1457148 -3.0110428 0.5053366 -0.21455713 2.6197627 1.9167205 1.370625 2.908634 -2.824952 1.3922287 -3.096815 2.8904576 -0.28388122 -0.39861712 0.26410326 1.481366 -2.9905453 0.61118406 0.86462337 -3.3695831 5.354239 0.9804858 -1.3535566 -4.8878765 4.624429 1.2736086 -0.71732855 1.0030739 3.2936258 -0.2799375 2.3938746 3.112773 0.60786206 0.51825595 -0.5638501 -3.2407153 -3.225144 0.4509173 -0.2309965 -0.60566866 1.1322802 -2.5394127 3.034688 2.1477323 -2.1647303 0.28489488 2.9746614 3.0118241 1.2471147 -3.2215626 -1.6448683 1.360081 -0.9822469 -0.7254441 2.7822063 -0.13903762 -3.8962665 2.4259875 2.762698 1.0973288 1.0052401 0.43655646 2.5084467 -2.0176353 0.4223363 3.2024727 0.23543751 -1.3837277 1.6554105 -2.149883 1.2808558 1.2005576 0.09022415 1.113111 -1.3724049 1.1718764
330 -3.1755922 -0.38928694 1.2480099 0.77611464 -0.53328043 -3.2984 1.6724176 -0.87539476 -2.5031543 -2.8044834 -3.2095184 -1.7448436 2.3884132 -1.3790774 1.2040396 0.5989721 0.7994354 0.416486 0.5050598 0.05445085 -0.44752353 0.18912484 -1.162192 1.4216644 2.2661645 0.5382442 0.42436126 1.1969205 -1.167687 3.934828 0.63644135 -0.06294526 0.8061825 2.311978 4.7274857 0.2441188 1.3400432 -0.99782217 0.9553334 1.3396621 0.12991564 2.193872 0.6232051 2.7436833 -0.9657364 2.750795 -3.6602285 0.6017798 2.6848295 2.0566266 1.090013 1.2747289 1.5687636 -1.7540774 -5.665095 -1.8759178 -1.3995469 2.8518195 1.0641557 -0.8325143 -1.6390156 -0.9407133 4.02239 -0.84270966 -3.3788345 -3.2116318 -2.3117545 1.1225764 -0.31498086 1.8538213 -0.55886924 -2.6853938 3.030123 -0.71134895 2.1826966 -5.3948636 -1.0654633 -0.49898893 -2.289135 -1.5753344 0.1569719 0.4638775 -0.041990902 0.9582606 0.9951657 6.277153 4.825788 2.9187527 -0.52449644 0.33198082 -0.7418086 1.9780053 -0.089089975 0.45606053 -3.2410924 0.7395197 7.1024585 -0.24152042 0.9276799 1.055117
697 0.91749007 1.6047485 -0.82012707 -0.34109002 2.520782 5.725426 1.8913547 -2.6068854 -1.4979507 -0.14413252 -0.5441581 2.8215058 -1.2689741 -1.1704558 3.4670012 -1.8964564 0.11222433 -2.2771866 -1.043051 -3.0550013 -0.78612375 -1.043091 0.80899763 0.13569742 -0.7978631 -0.68454367 -0.41126907 1.8130523 -1.1241049 0.19699107 -0.34380376 -1.5490396 2.282753 -0.063879505 -1.7826595 -0.40951464 2.6447716 -1.8898668 1.3934071 -0.728285 2.2777264 -4.6137314 -0.2210904 2.4848838 0.39385122 1.9652388 -0.96215606 0.5934205 -0.7882235 -5.2763786 -0.5262381 -0.1501638 -0.4032369 1.7760077 2.0268369 -0.010270159 -3.569845 -1.7484337 1.4690412 -0.30447567 2.9217877 -0.0061610946 0.78765523 -0.29255542 -3.0715265 2.9354203 0.48793548 0.21679285 2.7304103 -0.7431522 -1.7172829 2.3109174 -1.5545897 -0.4505148 -3.4410965 -0.8676178 -1.4026711 -0.11203723 0.43032813 -0.5924819 0.51401544 -1.8983798 -2.5187614 -0.5779452 -0.27784225 -3.3172767 1.3204936 1.2194911 0.458287 0.37617075 0.061097212 1.6945974 -2.5117445 -3.0363398 4.8656964 -1.9879299 3.9356015 2.6034045 -0.66801894 1.6841774
268 0.73192286 -0.31574646 -1.2593831 1.5709641 1.6336913 0.9405512 -3.7382507 -1.8718256 -1.2003425 -1.0559207 1.595593 -0.0028563219 0.8984608 1.2380183 0.72588426 -0.05492693 1.2092359 0.6259154 -1.5649642 -0.16433918 -2.5011127 -0.32924503 -0.5227015 -0.06295362 0.9778213 3.1379063 1.2807432 1.8819294 1.3292423 -1.8828374 -1.566079 0.6060751 -1.0220479 0.3535215 -1.9321015 5.14871 0.7405628 2.059975 1.3278333 0.65073526 -1.6925427 -0.9597295 0.024709411 -1.3589907 1.6429656 1.8938133 -1.1800759 -6.0321155 4.2808733 1.4152346 -1.3472209 0.051567722 0.2788 0.95208704 -0.03202883 0.46867746 -0.4800099 2.5852664 0.74321216 1.0124408 -5.5264635 2.0907092 -1.8356124 -2.6132436 -0.37821695 -0.678242 0.076369226 3.4923987 -1.7340103 0.5723609 2.3679059 2.5810223 -1.2388738 -3.672059 -1.0780718 -0.7700649 -0.96235216 0.45723987 1.968742 -3.514586 0.7781229 2.7286766 0.5195143 -1.2290097 2.655759 -0.8463545 -1.8380109 -2.0981977 -1.0697589 -0.3924208 -1.5999043 -2.809536 2.2878354 -0.7426456 1.2564752 -0.58197016 -0.31764862 1.5397531 1.201053 3.0351326
569 -2.7463322 2.7311237 2.6669717 -0.5938258 -3.5207236 -1.4862714 0.17804635 -3.4517698 -1.1819228 -0.15932718 0.6938208 -1.7126807 -0.8003612 -1.0841339 0.82803416 -2.531732 -0.14871143 1.6333379 -3.9117794 -0.27215 -0.34924817 -1.1203581 1.5689476 1.5800756 0.4318687 -2.7674026 -1.7811786 1.7073132 -5.417728 1.1581957 0.46773735 2.4848678 -1.5439991 2.9298716 2.0360162 0.5169706 -0.17694421 0.12825742 -0.16101049 0.01515852 3.7717469 -0.20090352 1.0076498 -0.7907807 0.7305219 0.22910452 1.0440165 -3.0815403 -2.3296099 -1.320973 2.1337826 2.1231163 1.6776762 0.29205963 -2.5301356 0.11640744 1.1643375 1.0839981 -2.700424 3.106609 -1.482395 -0.37807572 2.2658806 -3.0225637 1.3647974 -2.3006449 -2.6396427 -0.8730261 2.2061436 -2.6826546 0.02557534 1.9288634 -1.1408117 0.9191155 4.0198255 -1.0610284 0.42519632 0.7743028 -0.22453165 -1.5936147 1.4074893 1.4404737 0.82672924 -0.58915275 -2.0319078 -1.2640599 1.6057596 -2.4085474 -0.084405325 1.7813349 1.4722726 0.61942625 0.048214927 -1.1477939 -1.6967967 3.505987 -1.9208114 1.215465 -0.22324897 -3.9671566
47 1.0294414 0.0058480664 -1.0684701 3.6922536 1.0013399 2.1150172 -0.13458806 2.3842206 1.2220714 1.8673563 -1.1194439 -0.7349751 0.8248765 2.9417505 -0.23138496 -0.34873995 -0.22723246 -3.167071 -1.6980591 3.309507 -4.200547 -1.0721259 0.76576513 0.81227994 -1.336974 -0.558149 0.37317416 2.8444836 -2.130792 0.617016 -0.42683566 -1.8410838 3.9904687 -0.7813316 -0.43120366 1.0236958 -2.399663 -0.092540324 -0.5315166 -0.6316993 -0.08687388 1.3731699 1.3306744 -4.894314 1.8125079 -2.2570803 -0.6001322 -1.0395094 -0.30150965 -1.9608043 -0.9480979 1.107397 1.2128078 -1.0672362 -3.192488 0.56042916 1.5435846 -1.2703233 3.1973312 0.7917341 0.64624804 1.8693097 4.4809866 -0.35868436 0.13966349 0.9087664 -1.269256 -0.66007876 1.4974549 -0.9546428 -1.9564611 2.4182396 -1.4891065 0.6939022 1.8114396 0.99590683 -0.7184228 3.1689534 1.9053723 -0.3333448 2.5294483 2.1295862 0.97811216 -0.79923123 0.8822281 -0.10132971 -0.87659514 2.33446 -0.9344564 -0.12892167 0.07657881 -0.5454609 -0.83060706 1.7162634 -0.28079996 -3.6614354 1.4742229 3.103187 0.5813588 1.245481
448 -3.0348628 -3.1748335 0.4008523 4.1934958 1.6745665 2.1902173 0.98353976 0.93615454 0.1524087 1.2159897 -0.7964871 0.72151405 3.2220578 1.0691527 -0.90352976 -1.9245205 -1.0798125 -0.4687766 0.019808847 -0.21318108 -1.0618887 1.5443131 1.64761 -0.41530964 0.7294817 -0.054299667 0.50961447 -1.037154 1.6288689 4.106955 -0.27126923 -1.460682 -1.7858553 -3.8684783 5.09231 3.0277328 -0.47666803 3.1305947 4.1996336 0.15827325 1.6400827 0.5100179 0.56877625 -2.9994059 -0.27597946 -1.1859022 1.0140543 -1.2088721 -1.6904767 1.51562 -0.2071714 4.343406 0.017620917 -2.367448 -3.2933671 -1.2264299 -2.1240203 -1.6028324 -4.07025 -1.1237463 1.1595651 2.8879726 4.1493225 -1.1960225 -1.3709558 -0.97762614 1.5165136 -2.1549695 -2.2279932 1.1787205 -0.31577277 2.9072754 -0.35365003 1.4796267 5.796634 -0.3206132 2.9119668 1.5438039 0.3729923 0.17497475 2.6217792 -2.8131902 -0.004049559 -0.71345913 -0.49960524 1.1595199 -1.0411202 1.168103 1.2014695 -1.1096262 -3.6676166 2.0671046 -1.6347243 1.2882173 -4.4213004 -1.3785948 1.6209872 -0.49494225 2.521286 0.4915784
93 -2.8888261 1.8089987 2.8115509 -1.9845665 -3.2882466 -1.1727719 -0.50705296 -2.8543386 -0.36191323 0.73047334 0.94032824 -0.92080855 -1.2365551 -1.4576758 0.6074566 -2.0767531 -1.661934 1.0909567 -3.6895242 -0.3381021 -0.17381768 -1.1523677 1.0534292 2.4481256 0.75624 -1.9067595 -1.8378413 2.3849854 -4.4612484 1.2504715 -1.2436864 2.4294834 -2.881753 1.8986301 2.961055 0.0117894355 -1.4002928 -0.51713336 -1.7702389 -1.0829567 3.5188913 -0.6553649 0.25404787 -0.89236075 1.4909514 0.21101038 1.3757662 -2.7422116 -2.665472 -1.0036056 2.1909373 1.6812553 0.33145893 1.3579005 -2.5671616 -0.10567832 1.751215 0.13799728 -2.053978 3.9964693 -1.0771681 -0.15217586 1.8264248 -3.400744 2.5267243 -3.0449712 -2.8923478 -0.5685293 2.0312915 -1.6509525 -0.54934263 2.3674705 -1.2847198 1.8032789 3.6579294 -0.3568052 0.18046597 0.69364583 -0.36491293 -2.2342968 0.7286642 0.754671 0.8173691 -0.1323917 -2.2920675 -1.1432804 2.436974 -2.3786361 -0.41738027 1.402409 1.0831392 0.9355201 -1.4430287 -1.2481394 -1.6209043 3.5863762 -1.766357 0.53651977 -0.30496556 -3.797887
564 -2.9200842 1.7198081 2.7873082 -2.2568078 -2.5279365 -0.96310586 -0.3597711 -1.754459 0.21265507 1.0586069 1.5550557 -1.6664995 -1.7005829 -1.0162274 0.91315407 -2.3064883 -0.86878604 1.2851837 -4.497335 -1.117499 -0.2166057 -0.9760906 1.4904009 3.666894 0.58469087 -1.1218007 -1.5505418 2.0604606 -4.5780287 0.6220539 -1.1918463 2.987772 -2.8781312 1.1877912 1.6656066 -0.18751217 -0.3870296 -0.8342423 -0.9393036 0.26586276 3.3989308 -1.531011 1.4008126 -0.85133356 0.9362154 -0.53075635 1.8313981 -1.9787911 -2.5638146 -1.5104885 1.9984623 1.8377665 1.620927 0.9351172 -3.6585538 -0.5889879 1.0746232 1.3000395 -3.7090998 3.774222 -0.46420375 -0.3732953 2.158769 -3.3086894 1.3478067 -2.415936 -2.2445943 -0.3754794 1.6322404 -2.2083411 -0.5620953 2.610106 -0.5313043 2.4513848 3.7013948 0.22958036 0.7703463 0.8748208 -0.40926805 -3.416941 0.095498584 0.50857216 0.33385485 -0.52080196 -2.332307 -0.9058788 2.9290574 -2.6944072 -1.0205386 2.1858506 1.5306858 1.0415179 -1.258044 -1.7952706 -1.6351873 3.3596203 -0.90027505 0.68628645 1.2963034 -3.0859141
626 -2.6369607 2.492855 3.3976867 -1.6376089 -3.0947647 -0.83457625 1.0401843 -2.078412 -1.1566757 -0.3077614 0.6576709 -2.544035 -1.409637 0.006750841 0.6055362 -2.7205365 -0.47257835 1.2241316 -3.4330235 -0.6689178 -0.72278756 -0.40212774 1.4922675 3.2772303 1.9940655 -1.7333812 -2.3033385 0.68585193 -4.886819 1.310491 0.12235375 3.8747833 -2.94361 1.9359113 0.9984655 0.39730808 -0.46901646 0.16783513 0.0015838693 0.48813173 3.228003 -0.7031316 1.5241568 -1.7575048 1.1328917 0.9217187 1.2616471 -1.6926427 -1.8151574 -2.1786385 1.751119 1.2851801 0.46974155 0.7906903 -3.7997222 0.70585686 1.0865414 1.0278119 -3.7563908 3.4076843 0.013192386 -1.3113412 1.8680543 -3.3872943 1.1994593 -1.964987 -2.3484204 -1.3933505 1.4860076 -3.4205823 -0.25542685 2.5752096 -0.4618749 1.403127 3.5420394 0.3872595 2.0404885 0.83977437 0.27603525 -1.8328075 0.29446653 -0.20403744 0.83240414 -1.5502213 -2.9309826 -2.1825192 2.4608505 -1.7415731 -2.2278404 1.7589931 0.5821823 0.9908284 -0.20006973 -1.7161161 -2.6963792 3.9093387 -1.888605 0.8167239 0.94579655 -3.620857
225 -2.9579668 2.1228242 2.1772854 -2.117822 -3.7598329 -1.0420672 -0.118550286 -3.322223 -0.7460512 0.4860038 1.3664874 -0.78775233 -1.1964351 -0.95230144 1.1395446 -2.3669825 -1.5453203 0.4199288 -3.2495658 -0.80303204 -0.6571084 -1.2807316 0.84616625 3.0124123 0.9589074 -2.810532 -1.625021 2.0925198 -4.8475337 1.2593887 -0.7026022 2.87969 -2.4112177 1.8384182 2.7649233 0.56152487 -0.918126 0.47357616 -1.1173702 -0.712251 3.6556325 -0.24860351 0.7601363 -0.58184725 0.82628155 0.7908045 1.9562265 -2.301731 -3.2499564 -1.380224 2.2961395 1.7178681 0.10949627 1.3456573 -1.8756912 0.03890933 1.7927756 0.29968712 -2.349679 3.30541 -0.8516853 -0.68765426 2.0012233 -3.497373 2.1240876 -2.691192 -2.709411 -1.1232222 1.6122103 -1.728612 -0.42689577 2.5297794 -0.8308902 1.0654963 3.354635 0.1871139 1.1884485 -0.008886602 0.016492305 -2.4007215 1.4433237 0.73626095 1.1600096 0.04512251 -2.3960962 -2.0171173 2.07335 -2.4565983 -0.3248721 1.3544611 0.13380311 1.2106662 -0.7325119 -1.9365742 -2.1160545 3.3989918 -2.0483017 1.112411 -0.53288347 -4.1382866
64 -0.82199574 -0.79170763 0.38725504 -0.31861305 0.47887912 0.72511476 -4.906604 -0.83429664 0.59858996 -1.3206277 -0.1025731 2.8601809 0.35349786 1.948205 0.091396615 1.916871 -1.7088112 2.2207363 0.22734234 0.72127485 1.1878388 -2.6555326 -2.3661954 -2.9548213 -0.5765521 3.9003172 -1.4775724 -0.7172758 0.98023534 0.021113476 -0.4128434 -1.5135502 1.2157657 -3.370426 0.64196837 0.39767188 0.7832032 -0.12203663 0.4438675 0.7467666 2.8932753 -1.7177944 -2.8592467 1.9871532 0.13271613 0.8954306 2.6855643 -0.6840821 0.6242541 3.5783982 -2.168155 0.6390713 2.493544 0.9341216 1.2198164 -2.78433 2.2350419 1.4407235 1.833326 5.1969056 3.5614326 0.21976385 7.5005665 3.9894655 2.7322533 -0.1575827 0.25058773 0.8192044 2.7184446 4.6811194 4.293578 0.474292 -1.6679865 1.5521555 0.367245 2.921266 4.693264 -2.7828333 -0.34281874 -1.186999 3.1219847 -4.4172125 -2.6788087 1.0046281 -1.7527796 1.6792054 0.9473936 -1.2062236 -2.026671 1.9509975 -1.6263468 -5.0074434 1.8535731 0.80958796 -2.666924 -0.06907665 3.723148 -3.9940052 2.2263608 -0.3530156
317 0.54999495 -0.8670284 3.967422 -1.97635 1.6701219 1.5738902 -0.6276919 -0.30609807 -1.8234872 1.1859567 -3.6556277 -4.8315744 0.5789797 -1.0909109 3.1393938 -0.5268784 -0.52888995 3.2562714 3.6894197 -0.50166166 0.0364826 -1.759977 3.4977262 1.9867164 3.1329918 2.5335627 -0.22471502 5.0733933 2.7116542 2.4945712 -2.6700788 0.83014303 -5.7943416 -1.3073292 0.96244526 0.7740753 3.3744407 -0.9167625 1.8568122 -0.36396897 3.915897 5.8560777 1.1037141 -1.6630613 -4.7319093 0.12251845 0.06316624 2.387709 6.7309403 -1.2990584 1.1624575 -0.19009295 -5.480795 -3.8840945 1.3917602 4.6217446 -1.2428696 3.3944476 0.40192842 3.0835505 2.1693065 1.1714414 0.37998006 1.2879754 0.5518884 1.9829144 6.7680287 2.0489383 -1.4348506 -4.838991 -1.6719247 -2.928366 1.5007353 3.5346117 -2.1832743 6.4809055 -0.6776963 -0.29822484 -4.965677 -0.20474905 1.8144039 -2.7448053 0.8274527 -1.0139886 -0.21438983 -3.4141014 -1.6404206 -3.5150187 -4.5822234 -0.06342317 1.5631229 2.2793303 0.37297422 2.9339828 0.03435475 -0.2548253 0.18622163 0.42917678 -0.060572665 -3.1737108
57 -1.352845 -0.052694708 -3.8827 1.0334814 -1.522938 -2.107985 3.033204 -2.2383308 -2.0342596 1.5674858 2.136389 -4.7228355 -0.1551999 -3.4683106 -3.6301343 -1.6206794 1.1740681 4.1192274 0.36798757 2.0587509 -2.3655112 1.4475287 2.289424 2.9185312 0.12997374 0.62107915 -2.7686121 -2.4833605 2.2143774 -7.286536 -1.349771 -0.53011835 -3.3712237 -3.0633962 4.5224705 1.0921963 1.6860946 -1.7570567 -2.7356477 2.1496272 1.2825905 -3.2031925 0.8811251 -4.781248 -0.6360907 -6.145596 -0.42050374 -4.8304553 -1.0234617 -4.298494 -0.96387875 -1.928049 -1.6168289 0.50081754 -0.030528812 1.8325742 -0.43594828 -0.61144745 -0.90552866 -1.7069925 3.0868492 -5.344088 -2.2357364 -0.46112 -3.0575917 0.36181954 -0.09894121 -0.9734429 1.7698141 0.11407689 -3.152301 -1.5614548 3.574765 2.038189 0.91037446 -1.2164879 -2.8290372 0.9918489 0.046356905 -0.7317445 2.3085265 1.3930846 1.0404474 0.4000064 -2.169343 0.34079978 0.57003236 -2.653415 4.917949 1.8042226 0.5875463 2.413928 1.6796933 -2.6651645 -5.0942636 2.3369548 -3.9715636 1.9203117 -4.6215696 0.7126408
406 1.17496 3.5125716 2.7749925 2.9251692 3.7874975 3.322464 0.24344201 -0.52487934 -2.1942654 2.8372006 0.30226666 4.4253297 -0.34164748 -1.9405627 0.0041502677 0.7688495 2.8213751 -3.6075585 -0.30547503 -3.519124 -2.008802 -0.64074117 2.6423624 1.1262715 -1.9409363 -0.0736222 3.7246578 -1.7117404 -1.90609 -0.51298654 -0.70986706 -1.4550881 3.2283223 1.8520535 2.3897483 -0.16013962 1.8078645 -4.4786315 -1.0013442 0.3481005 0.43554172 -1.6219937 -1.4958575 1.2885112 0.8839955 -1.1609598 -3.1453707 1.5890148 0.25855708 -3.226492 -4.068686 0.10244558 -0.8892088 -2.203352 -1.4367411 1.6115143 1.6997057 0.7600757 3.0555909 -3.210897 0.12944457 -0.5934858 -0.2411936 1.7649717 -2.060951 4.0714064 0.696705 -2.4679484 0.89513016 -1.1584061 -1.0108591 1.0539231 -0.20154959 1.5784793 1.3826908 1.0216343 2.5736604 -2.4896033 2.5303133 -0.14240588 0.7647529 -0.09584188 -2.0322 -0.2633263 1.8155605 -2.4655902 -0.7774162 1.2006345 -0.77938026 0.7155373 1.8167301 -1.1252592 -2.5877492 -0.8701882 -1.3964831 -1.0307258 -0.20769888 8.034776 -1.8626348 -2.4040685
683 2.8549433 -3.3750615 3.538888 -3.6502655 2.5989316 -2.3234246 -1.421084 0.04653638 4.409494 -2.1085055 3.6261055 -0.55257434 -0.52787864 0.77831244 -0.67389935 -0.22494152 0.7472796 -1.0371058 -1.2913456 1.5692389 -0.66361266 -1.3289169 0.689813 3.9183335 -2.9527462 5.1923394 1.8840306 -3.4079804 0.40238062 3.5067286 -1.9489958 -3.1987672 -3.6306062 2.3655398 -0.22255048 -1.121976 2.4802685 0.30505037 -3.1646814 -2.4967976 -0.7080734 3.2486327 -4.1176815 0.089169964 -1.9599736 1.0604749 -3.244188 -1.2806474 -2.0431533 -2.5072963 1.0715559 5.1289735 4.6799445 2.7976785 -3.0523927 -0.35401842 -1.1573879 -1.6627486 0.59760326 -1.5495719 -2.1454787 0.48518145 2.1342587 1.2505649 -0.33463222 1.2156372 -6.037668 -2.8228583 0.9095423 0.47274715 -0.3886487 -1.1967354 0.16252214 2.6001933 -0.082589895 -1.4457691 1.4209052 1.3391974 1.808461 0.17589597 -3.339928 -2.3048143 3.939199 1.0506759 -0.25897378 3.364122 1.370935 -2.6156974 -1.1089612 -5.867891 1.212014 4.1657233 -0.045679454 -0.4633543 -0.16456982 5.2708893 -0.7104119 -3.4771917 1.6145054 1.1439149
453 -1.2269781 -0.627859 -0.2871664 -0.18012336 0.47976023 -0.7012955 -2.9470797 -1.6094561 -1.3837438 -0.15113802 1.4595785 -1.339611 -0.19529279 0.9511368 0.3165312 1.0398623 -0.44684786 1.3374459 -1.3413618 -0.14477967 -3.4120555 -0.6898784 -0.48186734 -1.9524978 0.20824727 0.42678052 2.5859015 -1.7565787 0.62760127 -2.2523654 1.2863411 2.1866825 -0.40504733 -0.30238473 -1.8956792 5.2449007 -0.29987264 3.9837656 -1.606868 0.6219098 -1.3618983 0.43710244 -1.4981829 1.7235442 1.5687747 2.123774 -3.0313218 -6.363095 2.7574143 2.3841527 -2.7075334 2.0444884 2.4861386 0.080879405 3.4778514 -0.38339847 -1.489063 3.2457755 -1.6403196 -0.43850297 -2.8815916 2.788356 -2.1848238 -5.5830436 1.8410126 -1.5499228 0.50200474 4.398492 -2.8097854 -2.770842 5.5319457 2.3226833 -1.0541415 -1.6163814 -3.5203364 -2.3717499 -0.97650313 1.8149596 1.1268969 -0.3984587 -0.50168484 3.741239 0.18496431 -0.1857261 2.1659017 -0.8261157 -2.38351 0.82735986 -1.3241652 1.9022777 1.301571 -3.0133414 1.5134592 -1.1064014 1.0797145 -0.82615584 0.3440449 1.3017082 1.7604642 3.628039
367 1.0115088 -2.1593208 -3.830053 -2.2437496 2.2105103 1.1556866 -1.1815833 -3.494582 0.1943072 -0.8362994 0.3189907 -0.16631311 1.2408339 0.12542824 0.16995652 -0.8147408 -1.828802 3.3865056 0.59905165 -5.9687247 2.3969996 0.6457439 5.202929 3.568192 -0.60018104 -2.5408363 -3.9690776 0.9696411 1.037954 2.060221 -0.13134307 1.4575001 0.2907924 0.50865686 -0.78893477 0.61739385 -8.640498 -0.42971194 -3.016233 5.600841 -1.4990396 -0.5489296 -1.2987587 2.592804 1.1010823 0.044568855 -2.132794 1.762375 -1.2540084 4.546782 -0.08196757 -1.5929321 -0.2700708 -4.2536707 0.22543195 -1.7879782 -0.769183 -1.0149497 0.7218915 1.8284323 -1.7101734 -0.843474 -0.62468565 3.9565377 -1.2206342 -3.991536 -0.39379555 1.556973 -4.2296433 -2.362887 -1.5845371 1.1254183 0.6657385 -4.387071 -3.9776938 2.5340073 4.370667 1.7091795 0.06535848 -3.657431 0.3561786 -1.1388874 2.0829191 -3.1158743 -0.071747206 3.23536 -1.1599073 5.492309 2.819406 -0.7376317 1.8677915 -4.2964354 1.4477706 1.2240674 0.3379376 0.051747374 -1.6127899 1.8707982 0.76145303 4.537324
194 -2.662813 0.53419846 -0.48489153 0.5740977 -1.233253 -2.2615726 -0.041067667 1.6790143 0.7371888 -0.10985975 4.965601 0.7138318 -4.3703766 -2.8058743 -2.122341 2.996402 -0.82779723 4.0242414 0.43486902 -0.67638385 0.2616369 -1.5843083 1.261289 3.940345 2.5177383 0.12686379 -0.82767165 2.7188191 2.90836 -5.9169273 0.3534249 0.911534 1.610056 -5.7671194 2.2235708 0.5190722 2.4699783 -3.4580967 -2.315429 0.01786608 1.867874 -3.8476882 -1.5969615 -3.5183995 -0.04497917 -7.5906334 -4.654739 -3.2773135 0.8703403 -1.7070053 0.9878073 1.0151027 4.367039 -0.9131878 -1.7266027 -1.335474 1.5647571 -0.1903146 -0.12157049 -1.3209176 4.1261864 -2.5455744 1.6032107 -1.5041335 0.09265803 -2.7181814 1.4158555 0.9863276 1.2103977 4.137234 -1.5618654 -0.5809953 3.4048016 1.3191026 1.7480949 2.0372708 0.70795256 -1.2485194 -2.7100327 0.6133403 -0.8305355 -1.1069922 1.7599516 1.7270063 -0.88323414 -2.0772398 -1.6119602 0.6827055 2.4860744 2.2264113 3.479904 -0.8838423 0.7369415 -0.307047 -4.027838 2.8954537 -3.905383 1.054745 -1.1845284 0.5145723
97 0.2610588 0.41602898 -0.39807957 0.39459482 -1.9455305 -1.8638828 -6.041501 2.5905943 -3.6851735 0.43140888 -6.090145 -0.3065123 1.5418017 1.0966412 2.170391 1.956341 0.09158945 1.9800304 1.092415 0.30877882 2.412585 1.924935 -6.550053 -3.9522936 -1.7045451 1.607189 -2.6663744 -3.0347881 -0.060177132 0.21897367 2.3061554 -5.5278764 3.8889692 1.4721283 -1.5329294 -0.5565594 0.62701875 1.5518084 2.466767 1.1930643 -1.0662338 1.9423869 -0.1090015 0.4138379 0.303292 4.75719 2.008136 4.694584 0.5592285 3.9432216 -1.2478627 -3.5734334 -0.6182541 4.747855 1.4942135 -1.9097394 4.3512726 -0.33506882 1.9641353 1.578619 2.1548715 -0.96812785 0.8473951 3.0717618 -1.7062107 -1.7934668 -0.3832809 -1.2533251 2.2046783 -1.71661 3.2577372 -3.0595558 -1.6587687 -0.239948 -0.25360632 4.8085814 5.1643953 2.8094428 0.50847745 2.2597132 3.870589 -5.135841 -6.104367 4.229932 -2.2900074 5.300281 -0.5045121 -0.017425483 0.34674063 2.318078 -0.8000999 -0.5893542 -0.42586112 1.0044148 -0.35900187 0.38147718 -3.2587938 -5.0603495 0.8735858 0.14179024
107 0.61959904 3.3324897 -3.1998084 1.1857256 1.6839162 -2.9286392 -2.7507727 3.6605332 -0.33666897 -0.8460007 0.20230591 1.7007602 3.6974666 1.3294837 2.6259234 0.62394196 -0.77937794 5.2884536 -2.0239563 0.7594164 2.8280482 -3.4475596 2.4654162 -1.5548342 -0.6712808 2.1952798 2.0463986 1.9764079 -1.5583079 -1.2927265 -0.2568408 -2.4714496 0.37821084 0.52968705 -2.1888487 2.1281698 -0.7790354 -3.4307635 -2.2537181 -1.8063421 0.3497521 -1.5026819 0.29100117 -1.8490238 3.6462696 2.8982365 1.5925537 0.5471172 -2.0671911 2.6435528 0.48342192 1.6254519 1.2715324 -3.5020177 -4.6541486 1.4354823 0.28597376 3.3034217 1.4217337 2.5330734 -4.7733965 0.45556143 1.6316543 2.493043 1.7667656 0.46428865 4.141343 -0.12428201 1.2010269 1.0866425 -0.012838325 -1.283021 -3.0709994 -2.2460053 1.5910299 0.18181522 -1.3235327 0.45795664 -0.20182905 0.060927596 -1.9881524 -2.3813426 -0.4496522 0.71301675 1.3957154 -0.8839924 2.0583973 -4.273725 0.31468657 1.5415521 0.06858357 -0.99181205 -0.8288155 0.76223046 -1.3378651 -2.6781626 2.8269005 0.56870234 0.36530644 3.4200697
298 0.42700106 2.5998158 -2.0106416 1.8763863 5.140995 2.872713 0.357128 0.7025943 2.0056045 -4.5086346 0.9501174 -0.060935497 0.08971843 1.3023224 -3.0482104 -0.6916769 0.88175607 -3.1168613 1.85673 -1.3600355 0.62681645 0.57038283 -2.0534432 3.4955857 -4.0824475 -0.6273891 1.4190791 0.27243698 0.37914124 0.371872 1.355841 5.078019 1.1477876 -1.7710342 -2.7046185 4.7661543 -1.2753185 -0.59944755 3.5487053 -0.056942932 -0.10415042 2.2633626 -1.8885 1.5321989 -0.95347047 -0.21168573 -0.058176402 -0.71387994 -2.3981524 0.45133483 -0.23194669 0.22738023 0.5556586 0.5588482 -0.53435045 2.6770551 1.921038 1.9448752 1.0299629 0.6635821 -3.7769048 2.7702897 0.6971755 0.5356046 0.7490504 -1.6018802 -0.57360256 1.6741657 1.682868 0.19627647 2.1710253 -0.3681683 -1.5085434 -2.3033586 -4.503647 -3.1828973 -2.2524703 -1.3928605 0.36495063 0.09996779 3.8635974 1.3981355 -3.1006079 -1.1548676 0.31885865 -1.8818718 0.41035643 -0.93561184 2.4323447 1.0239887 0.07000037 -1.3019588 1.1869951 -1.6856787 -2.5738375 0.49894035 -0.91689134 2.1289823 0.06670155 0.38505712
40 -1.5908203 0.4097441 1.3050478 1.6692324 2.6576447 2.1519115 1.4242989 -1.3101523 1.7639952 -1.5326793 -0.2704275 3.0261288 0.12807715 -3.1497998 1.0061163 -3.2758808 -1.5821209 -2.3835108 -1.980246 0.7273315 1.334842 -1.051041 -1.207137 0.17108785 -1.3999926 -1.819822 2.108219 1.1693176 -0.28358802 -3.6842573 -0.8344897 1.8035164 0.16792792 2.1317606 -1.6358548 0.5785535 -0.6062213 4.5382776 0.3486944 -2.003022 1.7577064 -1.2143296 -0.838992 1.9085885 1.2110684 -0.5344073 -0.8566878 2.4975402 -1.3289151 -2.2092876 -1.2759665 -1.4305482 -0.37970537 -0.7071222 1.8744558 -0.21027796 3.1446862 -1.8152779 -0.4082652 -1.8446658 2.4113941 0.24666467 4.3836327 0.08622313 -1.6030513 4.273268 -2.2843435 0.2173934 3.3251626 -0.24063039 -1.1922907 0.89522415 0.971893 0.42823547 -4.204917 1.2163906 -1.9886439 1.0855776 1.9467387 0.71770465 5.229369 -2.0232842 2.97058 0.85551035 0.33360484 -2.0235524 0.96790296 2.3123057 0.2305065 -0.5013326 -2.2273731 -3.0271447 -3.9071202 -0.11010302 2.7707958 0.17265877 4.4898596 4.2836943 -3.9648046 0.5063319
635 0.35046297 0.8125599 -1.5862697 3.0697768 0.76486486 -1.4888835 -0.9621259 -0.66878206 -0.5222557 -1.6432244 -1.6049421 -2.5772595 -0.5023241 -1.0697871 1.5507548 0.9073436 -3.2204025 -0.0542421 -1.1434565 1.4443675 -0.6650322 -2.64751 0.10229508 -1.8744843 1.0296961 -2.475381 4.2428036 -1.8615482 1.3739295 -0.23058872 0.3058204 0.66938376 -3.4481716 3.0640335 -1.4198092 3.0051591 0.2776251 3.1235945 2.2554128 -0.23866801 -0.23928069 -0.5213467 -0.50987697 -1.5489633 3.2606015 -0.27707767 -2.3876598 -8.888303 3.3716323 -0.08010179 -0.7525611 0.7435586 2.136344 0.16996698 0.42510927 -0.65992296 -0.7199979 0.015235847 -2.2139344 0.40242144 -1.6589373 0.6314091 -0.66981375 -3.0223815 -0.84220326 -1.8195324 0.48196313 2.8595188 -1.9116597 -0.2984017 4.482849 1.7840587 0.7597304 -3.9203687 -0.947795 -0.45721412 1.9426483 0.7454406 2.3047388 -1.0786514 0.1977954 3.952496 -1.6852018 0.19006634 0.6116794 -0.52775085 -2.0622988 -1.0639136 1.0868292 1.9910918 1.022042 0.8592623 2.638618 -0.5129296 -0.049800247 -2.1187627 -1.1108994 1.9760381 1.208638 3.1827464
543 -2.5464988 0.82972014 3.1446757 0.9379413 -1.237312 -1.6325939 2.2425137 0.14824115 -2.9548216 -1.8574922 -4.734213 -2.3988347 1.6802039 0.6695164 0.86040825 0.9551989 0.537376 0.7999909 -0.47767216 1.2340082 -0.5366195 -1.6412923 -2.2639668 2.7614417 0.36329803 0.12782642 0.4157777 0.12845632 -0.818051 1.4451189 0.07422202 -0.23570868 0.4729059 2.1402 5.3686595 1.285148 5.0419707 -1.027777 1.3932227 0.35374847 -1.2885758 0.30826157 1.0874473 3.124415 0.12354191 2.422675 -0.8095589 -0.031198518 -0.67841655 2.0943952 0.5404899 0.7464812 1.7294952 -1.8322856 -2.4570467 0.082298264 -1.6622925 2.794265 0.6362112 1.5068558 -1.8961191 -0.34423313 3.4014835 -0.732973 -3.8377938 -1.2587118 -6.7808704 3.1644797 -0.2749551 0.4307556 0.8011801 -3.7753215 -0.8122621 -2.5829167 0.19603787 -3.012255 -1.9705831 -2.0905457 -1.5593592 -0.9493261 0.6377341 -1.1932276 -0.6991208 -1.1485062 1.8165505 2.1740687 3.124867 1.7305337 0.6729496 -1.3947691 0.43870065 -0.7410911 2.433665 1.1094975 -3.2624474 0.6246037 4.6911254 -0.9260185 2.789157 1.1632314
228 -2.950246 2.4374924 3.2236485 -1.587929 -4.0942745 -1.1044506 0.11255294 -3.2316134 -0.63694793 -0.2671899 2.2935877 -1.1665726 -1.4764941 -0.036343668 1.1410946 -2.5834155 -1.3004601 1.5872762 -2.9892182 -0.87661654 -0.05657329 -0.052729126 1.419115 2.9623976 0.25520748 -2.1652734 -1.3942631 2.1523902 -5.3820148 0.9972899 -0.92285377 2.8351908 -2.811662 1.6729836 2.996296 0.8292317 -0.063927315 0.29844117 -0.6491347 0.07581221 3.513179 -0.28543127 2.3347337 -1.1054734 1.0138116 1.2144293 1.5562984 -1.9543921 -2.85161 -1.6339228 2.1623828 1.5683029 0.6359441 1.246797 -2.4031134 0.015295461 0.42501485 0.414757 -4.028826 4.073589 -0.123979285 -1.6109384 2.4067223 -3.3418815 1.4053969 -2.905908 -2.6740773 -1.2293854 1.37544 -1.6370684 -0.050958883 2.498574 0.77095395 2.0067449 3.2505043 0.41457924 1.0359327 -0.04041434 -0.18005939 -2.3148506 0.87390924 0.8731286 0.70251083 -0.18635918 -2.4553835 -1.3627518 2.4989922 -1.6939793 -0.6448578 1.48173 0.91025716 1.4560486 0.1496643 -1.8372482 -1.9062507 4.0351357 -2.5802662 0.5556723 0.62266093 -4.066609
541 -1.8951353 1.5255091 2.2916825 1.5313679 -1.8286743 1.9211924 1.4434197 -1.3962017 3.0463626 -0.1972529 1.8924243 2.6900396 -1.3039665 1.7543565 -0.77584296 -0.7850623 -0.5166154 -3.9174843 0.3350222 -0.17080599 0.7688616 -0.98491126 -0.03600267 1.1673886 1.17085 3.3292449 2.892625 -1.1885607 -0.14465524 -1.6846161 -3.387576 -2.0654702 -1.2870543 -0.6963762 1.2457203 2.694701 -2.6415765 0.2932876 -0.38101345 -2.6553633 3.7946064 -1.6043924 -0.5498847 0.28556424 -1.0793377 -1.9544218 -0.4178814 1.3927877 -1.8287947 -2.014459 -0.95889 1.1195904 0.71426237 -0.83297414 -1.6097491 -2.0406876 1.0897774 -3.258179 4.1836762 1.7966012 0.6781549 -1.6656953 2.2479856 2.6326377 1.4773374 -1.5456674 -0.24196869 -0.010870275 0.5010517 -0.32277057 -1.3897128 3.0883815 -0.68372 2.827445 1.8311929 -0.5273222 -1.8577392 -0.5045778 0.35125804 -0.9116466 1.2060702 0.50537395 -0.65783244 0.8303807 0.58871335 -1.4529628 2.3613281 -0.5285153 -3.9430141 -0.0042940727 1.3812159 -1.875877 -0.33594453 0.6875917 0.63946843 -1.6623467 2.276921 3.1154745 -1.0319746 1.7517253
504 -0.06055399 4.8406725 -0.75770175 -4.090519 -5.8001733 0.5645513 0.3345169 -1.403204 -2.4094791 -0.9238642 1.4516466 -1.9828768 0.5562785 -0.8999204 -2.4303503 2.484752 1.0188301 1.4511287 0.47416526 0.5743235 1.6596543 3.0848541 -3.2976296 -1.1009879 0.3184609 -1.2837315 -3.6300018 -1.924135 -0.26894793 -6.565552 -0.66544366 -4.4284525 5.057106 -2.940505 -2.5268908 -1.097331 0.82609296 -0.13181198 3.389821 -0.60269046 -2.1282647 4.239434 0.56451815 3.3771703 2.1078074 -2.8327403 3.2945864 -0.52781427 1.0546757 4.705033 0.77041894 1.8615528 0.49666494 3.1391294 -1.0841666 -1.1107097 2.2770681 -2.3232555 -4.00115 -0.11148293 -2.1420486 0.26384056 -0.3114059 -0.15209828 -0.634317 4.074919 1.5170547 0.94446087 -0.44499016 -0.19881438 -4.2851033 -5.484587 -2.3352783 0.116819724 1.2108461 4.858048 0.03927608 -1.75212 -2.9791586 2.1978395 -1.7260503 -0.01509277 -0.5509822 -1.0037699 -1.993825 1.3765186 -0.5240474 1.2727065 0.86568046 -0.58962137 2.286536 2.4770787 -3.05109 1.5273596 5.3468122 -4.7758093 -1.5253929 1.0619328 -0.50894815 1.3909305
