1512 100
1116 -2.7140284 -0.8169732 -3.1785808 -4.399629 2.6982536 -1.4592401 -2.0217254 4.803705 3.4579897 -0.37944105 -1.3623514 2.6829789 3.514835 -2.9213243 1.2011528 -1.1215173 5.6584315 -3.3783028 -2.6141443 -0.6053456 1.692694 -1.6356359 -4.4011984 1.2821633 2.5673478 -0.5076914 0.6551322 4.932446 1.4597461 -7.2320557 -2.9208343 1.4517107 8.71637 2.319246 0.6910843 1.0569319 -2.4737384 -1.5158342 2.414442 -0.810374 -1.1728548 1.7904015 -1.2938646 -3.9998734 -0.16648076 -1.323385 4.923492 2.6770065 -0.5471762 -0.19676262 2.144559 -0.25487864 -4.056038 -0.9495534 -1.0731213 -2.2496188 1.9037123 0.7305671 1.4411182 -1.1760206 -2.5321867 2.8973799 -2.562212 -5.8260307 5.3411584 -2.0767236 -6.5575395 2.0651867 -2.4984348 0.66000605 4.600529 2.2659388 4.4707046 5.232918 5.876717 4.1458206 -1.5849988 -2.4834507 -3.9018755 0.4058347 0.50518715 4.2068496 -2.2475595 -4.4910326 -0.16120471 -1.2386041 3.2373536 0.96209073 1.6068788 -4.0175714 -0.2692384 -1.2565253 6.2575035 -3.307536 0.8138109 0.08581985 -2.6155198 0.21405658 0.7374109 -3.4168153
483 2.6799986 -3.425196 -0.6270071 -1.8436944 7.737758 3.838335 -0.547488 -1.2126772 1.9281162 4.7519126 3.4451735 -1.8495694 0.8820948 5.540828 0.47527042 1.960813 -1.5847224 -1.4356879 -0.2796024 0.6022224 -3.292936 0.38703632 -2.3800445 -6.3905487 -1.3604152 2.3930771 1.4889461 -2.786948 4.07478 -4.368733 0.33448362 -2.8601549 -5.420945 -2.7527997 -5.062707 4.813645 8.814921 0.90025634 -0.16593584 0.09747255 2.4024503 -3.082305 4.138154 2.445523 -1.842156 -1.1730814 -0.1611898 2.1924093 0.7010019 -4.3609595 0.74137473 -2.843713 -1.0813115 3.818672 1.9719543 -2.3046994 0.99064314 1.0441238 0.9130862 -4.9991894 3.6553743 -0.60755223 -2.7490232 1.3591932 -1.4821265 -0.51471823 0.020196998 3.5323067 -0.6332193 0.96773624 3.6742678 -2.27376 1.055343 -1.5803188 0.8336354 -0.8806988 3.2955968 1.4113187 -0.28643444 -5.617792 0.5357571 3.1259613 1.7195382 -0.08231804 1.6245971 -2.317116 4.316952 0.49317157 -2.6686268 -0.9953714 2.852717 -5.582839 -0.62037784 -4.6449866 2.0177999 1.7065946 1.7986363 1.320893 5.764687 2.2252417
541 4.7155004 -1.3505142 -3.1863809 1.4164846 3.5063715 0.42333195 -1.013079 0.1322338 3.7119122 1.8681569 0.078121684 1.0415435 -2.7036734 -4.1659966 -0.10863587 4.922133 -4.835256 1.456405 2.4261236 1.8523397 -3.188364 -1.2975596 3.851795 -5.2271066 1.7966814 -6.3041186 6.687825 -1.334008 -3.778106 -0.070224136 4.662219 4.6412888 -1.5004759 0.12119771 -5.6417294 1.1420466 -1.1804575 0.77584755 3.4439766 -0.35466927 2.7748857 -7.5951443 5.78115 2.6739657 -0.7956153 -1.3088473 0.63030976 -0.94641817 3.8125887 -3.703199 7.5079637 -2.613568 2.5265677 2.5696292 2.800587 -4.272079 -2.6848185 -0.39581254 -2.9045367 -0.9282632 4.146745 1.643183 -1.9683602 0.92460203 -2.4665482 -4.279602 -2.4495218 4.6708245 5.0314775 -0.3557558 -0.3786365 -1.1037302 -2.7711015 0.49686193 1.1138244 0.3888848 1.8030069 3.0729775 -0.37437043 1.1173439 3.433159 2.6153178 2.5870452 -1.8876641 -0.368097 3.9003248 3.0862448 -3.8862264 -1.796117 3.5772834 0.24452096 -3.2098107 1.0938108 3.311339 0.1629474 -0.7021312 2.464095 1.2136472 1.2510238 2.4912677
695 -0.33976674 -6.557893 4.960576 6.367983 2.0830286 1.5380003 -2.5073638 -2.517044 1.8541741 2.615452 6.818989 -2.4275815 1.5335025 1.2488312 -3.6846757 -1.5896261 0.7898429 -3.2350907 4.4774475 -2.9048884 3.5443988 2.474376 1.9329664 -0.06324843 -1.2295581 1.3074373 0.35384652 1.300628 -5.5831356 -2.1556733 -0.89991397 5.746961 -1.5298568 7.557289 3.4974496 0.60666937 5.633628 -1.444902 5.8334756 3.747514 1.0806056 5.281313 4.6987 2.8115375 -6.93873 -3.1713758 5.386634 -4.839955 -0.53564644 -2.1044648 -2.355407 -3.562116 1.7573342 -3.2047312 -3.4021046 1.7966135 -1.7159672 1.5395314 -1.5414428 1.689651 1.7280132 4.1679225 2.2469952 2.0495014 0.7526334 2.896633 -0.35707188 -1.5906771 -0.5123178 3.1793518 -0.087381065 2.4849486 -4.18151 3.7622101 4.1514587 -1.7533977 -0.9848773 5.8793473 5.8377643 -3.97316 -1.6866156 -1.8072906 -1.5644249 0.49558085 4.883026 -2.171418 1.0761656 3.330738 0.30612046 -4.657984 0.22608638 1.509008 1.3213689 -4.447371 -1.2493186 1.6998335 -5.6725907 -2.2675867 1.2915587 -1.6859021
1223 6.0541563 -2.0895672 -3.5576904 1.3520458 -4.2299433 -2.5248775 2.905288 -3.448295 9.112716 0.17246628 -2.1132524 -1.2142137 4.206706 1.4817309 1.171708 -3.2643402 -3.9862227 -2.8641098 -1.9887189 1.903952 1.4552866 0.075616516 -2.1738167 -3.4229798 3.1871305 0.6889359 0.56905276 0.07501629 -4.4467893 2.6685765 4.7426248 2.1480074 -1.9366826 2.1610646 -1.6674452 -1.5682961 1.6798679 0.6903416 -0.4254354 8.417612 1.0966942 7.649707 2.5661628 -0.9873805 -3.539621 0.528414 3.6522741 -2.424522 2.0317957 0.45132372 -5.1677885 -0.11522857 3.0344994 -4.2729235 -1.6561303 1.170536 -0.30856383 -0.4100417 1.1471232 3.3615716 6.982469 8.748804 1.2685919 -4.9717455 0.5975774 0.5839828 1.1659696 0.46242037 -4.977745 2.2314765 -2.4435296 -1.6672074 4.529239 -0.2018526 2.4077456 3.520971 4.7908 2.0100849 3.9999857 3.9158928 1.0662222 0.6491488 0.40134415 3.5600107 -0.6089219 0.37605104 -0.8689942 3.0306287 0.114028715 2.642957 4.576939 1.5684848 3.2743146 -3.9023223 -2.688073 -2.7185743 1.4289111 -2.162263 5.0415344 -1.1145655
569 6.935144 -0.77779466 1.9576892 -1.3707514 3.1348028 -3.5436983 3.3469718 5.4404798 2.7417777 -0.7405579 -5.129991 1.4107727 0.63779116 -3.7690873 -2.257354 0.9307368 -0.8935932 -2.5012317 0.59475225 0.97453624 -2.5808961 -0.4326067 1.4611464 -1.7137809 0.6920001 -3.907561 2.915452 -3.8995209 -3.853064 -4.465788 -0.8472103 0.9032593 -0.10696979 1.6889818 -0.028865365 6.6430955 -0.47814855 1.3830937 5.921797 -0.9431287 1.5378157 -1.7840488 1.493944 -0.20304452 1.9032578 1.5528919 1.4272319 3.6590257 -2.6141 -5.9196362 1.9195236 -4.597586 -4.156349 2.9993398 1.5322614 1.1478807 -1.5924064 0.17254329 2.4665158 2.979578 2.972469 -0.15346725 6.3811035 3.5289397 -2.668469 -5.563273 0.3574084 -3.149318 -1.4178545 -1.4371506 3.9112363 -2.0904772 -2.9452739 0.24839927 -5.254142 -1.5593264 2.9410233 6.6838126 -1.7296964 -0.027926397 1.6688546 -0.76397437 3.9953759 1.290247 4.8478007 -1.2092364 0.29540136 0.10783652 -6.729652 3.659295 2.5449991 -2.7523255 2.5393758 1.098484 -2.2981484 0.8359619 0.5266199 2.562891 2.2438965 0.1800777
440 4.6476393 -4.500059 -0.6871812 -3.0563233 0.79726046 -0.5809656 6.177743 -3.3049636 4.3918424 1.1547017 -0.59857774 -2.36134 -2.7227883 0.36460367 -1.8913498 3.0464494 -2.509184 1.6924056 -3.9628134 -1.3557383 -1.5029505 2.243499 1.8428534 -2.50348 -5.6913676 1.5406117 -3.3271453 -7.268855 1.6074517 0.43544653 -3.4394379 8.945264 -4.1245847 3.748308 -2.9793851 -3.7506104 4.2747583 -1.4660834 -4.229172 1.2402521 3.6375303 -1.775288 -3.5299652 -0.1384168 3.280423 -1.0507836 0.1698875 1.87003 -0.6697571 -2.5816782 6.22298 -1.9345199 -2.9916093 2.202099 -0.004095037 -3.5275624 -0.13007894 0.738391 -6.0768814 -2.783461 2.508274 1.0187439 2.5707989 -1.435314 3.0640562 -3.9029424 -5.3790917 -1.2588525 0.917737 0.10544931 -0.41368103 1.5601977 0.8813776 -1.9754972 1.2758379 3.899943 -0.27844575 0.7185931 5.021398 -4.511658 0.075944 1.2155187 3.8133824 -0.90959454 -6.2692432 -0.8412554 -3.4548154 0.5985923 -4.9969463 -4.482058 1.9206076 1.7881433 -2.6751308 3.5814264 -3.5822012 -3.1571848 -2.2138844 4.756492 -2.9718482 1.2316309
67 2.4393215 1.876974 0.783979 -6.3468175 3.5596259 1.4098488 -1.6907048 4.738637 -0.37183562 -2.7300427 -2.774261 2.176481 -3.395522 3.006354 2.0507975 0.9405883 -4.647487 0.5183829 2.8027985 2.733167 0.04844711 3.5177774 -3.3318624 -3.011375 6.0135293 1.309624 0.44301686 1.4413621 0.49877313 -1.099999 -1.809393 -5.326495 -6.1217256 -2.8311212 -0.44114035 4.4312572 -1.6219144 -0.51633304 -0.25329608 5.7424216 3.382075 0.5098834 3.8097718 2.4894233 -3.378607 -3.0268593 0.36128682 0.18846183 -1.3620334 -2.5550873 1.2706646 3.190247 -5.430516 0.050430924 -2.3213637 2.461839 0.82792056 0.8674186 1.6598197 0.19383433 -0.0035371676 2.7745957 -2.297166 -1.6500499 4.3232927 0.9859696 -4.777581 -4.5631127 3.4346251 -1.3447601 0.75468296 2.0798914 1.0466915 0.4566753 4.5369186 -0.34620133 0.6568181 -0.11959633 -5.20469 0.90393573 0.37154236 -3.1155348 4.316428 -4.0014763 -1.6095874 -1.1362109 2.225534 3.305133 -0.41606092 -4.256276 -0.5171766 1.6993705 -2.369766 4.303425 1.9706452 -0.75758004 0.48978892 5.8350816 -0.9566379 -4.6243396
484 3.353171 3.0965157 -2.3962364 -3.1908445 2.0771687 -3.1334481 -1.5433811 1.3096769 2.7256577 3.9289498 -1.2580205 -3.8657784 -3.4963117 -7.7335386 2.3337872 2.315461 -3.197431 -5.963924 2.3354363 -0.7173092 4.0691686 -3.6908417 2.7845314 -3.4174483 -5.0278583 -3.5714784 -0.5802117 -3.4175901 0.68621737 -4.477057 4.630697 3.020691 -3.1948988 -1.6415143 -3.8899393 0.13114221 2.7962484 2.833344 4.7565193 0.10456852 0.13404687 -2.9285445 2.1827245 3.1367288 1.3155352 2.4030468 6.4168835 -1.812102 0.8280827 -1.2720853 -1.3711724 3.4190702 3.1848977 3.6456807 -1.2188207 1.0535455 5.076196 2.815963 -5.8982964 -3.2918837 -0.35684925 -3.7310576 -1.0364568 2.6706944 3.8682768 -8.172725 2.220148 5.2146573 -1.0770037 -1.1025285 2.8777697 1.2577838 2.9803035 2.059335 -2.4232492 2.2546225 4.883885 4.966801 -0.92854655 -1.3285377 1.803362 -3.4234414 0.49553213 -1.3568047 -0.09623604 2.6937914 2.7066138 4.927529 -4.5941195 -3.8854504 -1.8551072 -2.5008209 0.23277777 -0.98648196 -1.0400633 -0.84153986 -0.68754107 -0.20370203 2.987482 5.2408466
652 2.1894696 -1.3290762 -0.94940054 1.9167775 1.6221646 2.4236255 0.18741873 3.598345 0.49370447 1.2713037 -5.503944 -2.1434739 -2.7905831 -2.216807 -3.6745613 2.2289765 -3.051697 1.2786788 2.3430452 0.21807617 -0.5011494 0.37305716 -0.13777615 -2.8944988 1.2186043 -2.046467 2.3749723 2.545623 3.0777204 -1.5849094 3.317294 3.240599 2.200958 -3.494853 -7.369592 1.8102344 3.686562 3.992136 3.085619 -0.88903445 4.6957054 -6.3437424 2.0828273 1.0348018 -2.1206815 -3.576191 0.8283447 3.1019278 1.2834764 -5.1241546 -1.0275525 -5.897295 1.4415109 0.39267403 0.36079386 -0.9714751 3.5890634 -6.9494476 -1.147847 5.1381984 4.5300922 0.24326715 0.68221015 5.1877384 -2.086095 -3.631267 -1.4672171 0.05322216 1.2257327 0.70274913 -0.9487774 0.98241776 -2.8047595 -1.1928097 -1.916044 3.8307602 4.970517 5.167923 -1.8732561 -6.6768007 1.3292749 4.302673 -4.9004297 -0.9406072 -1.9587746 0.083924666 -2.2715452 -1.2715698 -0.2708146 5.2534924 3.3816059 -0.8187592 0.00711202 1.2160246 -1.3824587 1.5472599 1.1684226 4.6928 -1.7168233 0.9362272
747 6.2400427 2.5076845 -1.239703 -3.3618205 -3.6777663 1.2513167 -0.78201306 2.0632887 0.30091286 -2.7362647 2.9152222 -3.456387 4.691495 -1.0143591 1.815618 1.7848372 3.2396686 -1.5329785 1.1298114 0.14589024 8.448707 1.2998329 3.4410217 -4.797301 -2.8216727 0.7854481 -1.1596742 0.23581605 -2.099953 -1.8535852 0.058565993 1.453844 -2.5497332 -1.4234701 -0.3758683 -1.753472 3.3101876 3.2230856 -0.011345864 -2.9626346 0.016813653 3.778117 3.566302 -3.56876 0.50315094 -3.5666256 1.9059062 1.7645034 -3.4009182 -2.0819516 -3.2168856 2.9936914 -3.795982 4.8184566 -0.034394115 -0.69159853 3.3934543 -1.4966234 0.45758376 2.109781 -2.7192023 6.2211385 -1.2157391 -6.1198854 -3.593123 5.7656627 -1.2983631 2.9686985 -0.06551446 -3.9314408 3.5679803 0.66845804 -2.4606907 1.4629966 3.2748191 -0.7601459 -4.8007298 0.28919828 3.6189222 6.1041865 -0.7484403 -9.364033 3.6210694 0.5799444 -1.7740566 -5.8080363 5.904735 -3.2578788 9.068805 3.270215 -2.0737486 2.6705437 8.935604 -2.0203135 0.14956592 -2.6534624 1.3403946 3.19823 1.176535 -2.2706976
545 4.373444 -0.51704085 -2.2030654 -0.99190664 0.7978531 -1.8069075 3.4371865 0.7443837 1.6549152 0.82288444 -0.83315676 2.0887024 -0.72909844 3.7788098 -2.5247848 3.0432768 -3.6700373 0.22230028 -1.4632425 1.4459217 4.171337 -1.9228535 -1.4138141 -0.04228473 3.5680354 -1.8033912 -4.9012084 0.23541287 -1.5167775 -0.4898966 -3.5542076 2.4081194 -2.1472979 5.5083165 -3.7535112 -0.6574314 1.5838442 0.014434461 9.011226 -1.3069937 3.6367502 -4.978215 4.6386466 -2.714276 1.3454709 -9.52992 -1.4793321 5.415947 -4.05125 0.32834905 -5.8800583 -1.0391711 2.4928071 2.8938456 1.154018 -0.8828397 -2.285016 0.35914472 5.296989 0.61118525 1.6233993 3.647243 2.3547788 -3.5938318 -0.81963265 0.43394142 4.1315784 5.0610213 -1.0477161 -3.4230227 -3.4613452 -0.93347824 0.8561833 2.946998 4.506136 3.8997638 2.4835112 -1.6454247 -0.8402963 1.7571875 -3.9164832 6.3605666 2.9196703 -0.54020524 1.4255395 -1.7266384 2.4131825 1.3499625 -2.4873075 -3.0232646 2.395661 4.306773 -3.1783187 0.44092268 3.140348 -2.7573369 5.030673 2.2106133 2.6704757 -3.2006657
73 2.3140955 0.35250753 -1.1868986 -6.3374295 -0.4095132 -3.9387977 -5.203813 1.8335432 -1.2849503 -1.6427472 -2.7975812 -1.7280023 -1.6595951 3.8662128 -0.19056092 -2.4901083 -1.4291191 -4.077041 0.07261505 -1.8748316 -2.1125262 -0.061833486 -4.89634 -4.0073967 3.983025 -0.39643255 -3.807348 -0.05986573 1.971567 -1.3840775 -0.19541718 -1.1767368 -3.6764102 1.6569166 -1.108025 0.9330494 -5.461289 -1.4628305 -0.607773 3.4231038 -2.2393675 -1.868422 -1.7505044 3.888468 2.2265227 -2.7284405 -1.199571 4.0549917 -0.5728502 -2.072165 -1.4083078 -1.3249667 0.21621257 0.14760605 0.008173597 1.4312708 -4.681343 -2.1960175 2.869257 0.6811135 -4.841346 5.07678 -5.7758083 -2.2246897 6.8553367 4.668495 -4.9166408 -3.0525985 -0.18101257 1.5783654 2.3692884 0.94031715 6.542788 2.7765155 3.5372317 -5.449582 -0.12560296 1.454962 -2.248115 2.8979456 2.6806433 -2.9724238 3.8458269 6.423991 -2.0706635 3.4820251 0.818314 2.6182284 1.8441985 -6.0986705 -2.0907507 0.60873395 -2.667589 2.204846 -4.8575206 -5.3224797 -0.52595365 2.3004615 -1.5492892 -1.8774973
241 -3.2722957 -4.0867486 0.7852641 -0.17322488 7.460267 -0.68100744 2.5804522 -3.123412 0.8427486 -2.247626 -8.847624 -1.8303938 -0.29875162 -2.4823267 -3.6446164 -2.4562082 -3.429417 -2.995708 -0.079635225 0.44874835 2.4245696 -1.3794829 -1.7187384 0.7539224 -1.359422 4.124551 -3.7495415 -5.2389603 -1.9938223 -1.2076234 1.8195881 -0.71803564 0.21877891 -2.6147017 -0.55047566 -4.2460804 -1.2773079 -6.972752 -4.3489304 6.364989 0.12612723 3.044048 -0.34546658 3.5745788 -3.5991836 -2.9124844 2.3807545 -3.0516768 -2.46052 -0.5521114 1.9155391 -2.1506085 2.710222 -1.1325054 5.1703873 -0.057356674 -0.2892004 1.9031667 1.8152146 3.9516087 4.8002067 -1.0628133 2.6160412 -3.6566021 1.828501 9.020726 2.306475 1.3860275 5.868633 0.991429 0.8557689 3.0984616 4.084727 1.494379 -0.57525796 -3.5300407 -2.0627441 0.5516566 -2.2399282 -4.4477897 1.2872872 -2.7221208 1.040269 0.9194313 4.520121 -2.4172795 3.3086777 0.95460725 0.021252062 -2.8553727 -1.4675108 -1.5887202 -1.5714616 -7.1203647 4.5354004 1.9425135 -3.5883968 5.7758093 -3.1830275 1.7594024
487 5.8828926 -0.28771394 0.7700549 -5.447986 2.2640674 0.63457036 1.3188694 -3.5778098 0.81242263 -1.3182331 2.0811665 -0.38707444 -3.4694417 -9.139141 -0.40900666 0.011812097 -0.73376906 1.5737373 2.9997494 -0.643645 -4.028367 -4.969583 0.773042 0.64496475 -2.3799567 -0.5387209 4.032467 -0.59233284 3.3071089 -6.33894 0.03915845 2.745245 -3.0210857 2.753659 -4.251834 2.8255918 4.401392 2.1312659 3.4690952 -0.9586013 0.72987247 -0.81265867 -2.103776 5.269059 0.85520726 -1.1693013 2.9531288 0.34681708 -3.4161043 -3.7624776 0.44560212 5.5076313 1.5990461 -0.89636165 1.6457784 1.2951846 2.9733324 -2.3316002 -0.3677082 0.6838359 4.267215 -2.463111 0.4942378 -4.0325065 4.184736 -5.4668508 4.864447 1.4341571 2.1592572 -4.3507857 0.44190282 1.0676707 0.66196847 4.375572 -2.725742 -0.177498 1.5776819 5.594975 -0.953384 0.9548471 1.952991 -1.9754028 -4.800479 -0.10088929 5.4997187 0.5416734 3.491199 8.4902315 -5.308342 0.21554329 3.8682592 0.87718475 1.6889278 -0.293117 1.4048469 -1.8297565 -1.5986273 -0.8689459 0.6097062 5.2757697
21 6.910175 -4.239438 5.439606 0.6026616 3.8049932 -1.7744212 3.1585472 -4.0760756 2.262887 2.916125 0.4717387 2.3330119 -4.207749 -4.4388857 -1.6847022 2.3705313 -4.9846067 -3.706152 1.9532566 -0.92262423 5.0492306 -4.6134067 -0.2712417 2.4301813 4.8104715 0.06319765 -1.7387446 1.5512233 5.249235 -1.373387 -2.8329675 -3.2575135 -3.714065 -1.2036129 0.2777583 -3.2914014 -3.591331 -1.7321428 -1.8339087 -5.014378 0.2514411 -1.3719306 -0.43139058 -1.0910238 3.1462038 5.7459984 0.90679246 2.9584515 -0.35824966 -0.38787153 -3.689195 -2.5638058 -0.051850066 2.9628243 5.921429 2.7511141 -2.238139 -1.0931844 2.8381531 4.2025843 4.292542 4.792015 0.40268117 0.9305121 1.5965258 -1.6542152 -3.8583407 0.8541119 -2.6222043 -2.2505116 1.338991 2.447148 0.2727842 0.2410465 -0.15836284 5.210696 1.7803059 -6.4814687 2.0620434 -8.764582 1.0709243 0.31464326 -0.93894404 0.6555038 2.9711902 -1.5160081 2.6427753 -0.44891396 -0.6948389 -4.1475425 3.021825 0.44696772 1.266964 -2.5897586 -3.0513253 -5.53391 -0.7854564 0.48605752 -3.6255085 -0.03705827
646 3.707287 -5.3291173 -2.390386 -0.474256 3.8584955 -4.081824 3.1668577 -1.9942006 -1.2375772 4.235698 1.8944231 2.1602738 1.3196918 2.1068487 -6.456612 2.0036626 -1.2895439 0.81152385 1.9137325 3.1907933 2.3717718 1.4400564 -1.6374305 -1.3941733 1.6970552 -0.8419115 -3.5765707 1.886259 -3.955552 1.5355643 -1.9877996 0.8887846 -4.99556 5.230174 -2.8436644 -2.3097146 1.5405619 -1.73722 9.724953 -2.7903159 5.0941453 -2.8919039 8.70265 -3.6230752 1.6358826 -8.677628 -2.1962671 5.0463004 -2.9058511 1.7266916 -1.4950682 -1.5534546 1.3679433 4.750903 0.7074859 -3.2928026 0.854191 0.7836248 7.8592005 -1.8117973 -1.2769886 1.861411 0.9937409 0.5411191 -0.71525174 -3.835073 0.14523537 2.560319 -0.4621764 0.8142396 -3.635548 -0.05563123 2.6265287 0.70630854 -0.09394763 3.404097 -0.39508057 -0.7463041 -1.7265337 1.7677032 -0.853269 9.452071 5.949747 -1.5026087 -0.3138301 0.2121563 2.701029 1.0203284 -2.7230487 -0.9157028 1.0101932 3.2634397 0.018003402 -4.5752506 0.843654 1.017238 0.5289406 0.9945453 -3.0434039 -2.4755816
1020 4.3945236 -1.2139233 1.9862636 -0.13192621 5.2060256 -0.43921182 1.9400071 3.760831 -2.4903924 -0.57172346 -2.7432015 0.6222412 -3.8609958 -0.7210534 -4.49204 3.9384525 -0.8929477 -3.0051734 3.2220058 0.13817352 -2.0960062 -0.75664353 3.8043754 1.250113 0.5005959 -1.4553226 1.7603155 -0.5997824 3.453113 -4.8226895 2.6972866 2.5450068 -0.5489386 -2.346475 -5.5312977 6.0908055 0.9976897 0.9366916 -0.74255157 -1.1242639 7.249508 -8.773413 -2.2835734 -0.85550344 -3.6582022 0.77078617 -2.7903647 5.261898 -0.64719135 -1.5234327 -1.7237439 -3.5936 1.1557715 1.3748496 -4.053123 -0.68532807 1.859272 -2.144211 0.1443348 3.1048431 0.19982885 3.767809 5.26774 3.250181 -3.1980925 0.5080243 0.18425368 0.13567355 0.0949119 -3.347795 -3.7756827 0.38932475 -2.0552397 1.6914239 -2.5297203 4.0607467 0.6416112 1.7697883 3.2603042 2.2720947 -4.9243016 -0.70521754 -5.402089 -2.934432 -3.4142194 2.010394 -2.127951 2.787773 -6.532928 1.2059224 4.210657 -2.2993767 2.056149 1.182236 1.4766216 3.57581 -3.0185277 2.4427488 0.075103916 5.0751767
1441 -1.373831 -3.608993 3.6880968 0.5185842 0.5655105 -3.699286 4.376507 5.6635866 -3.7457519 4.893583 1.8681973 1.9889021 -2.7048953 1.0800399 2.659426 2.1476295 -3.3227158 -3.3794556 -1.7159479 -0.2772577 -4.3098364 -4.6823773 2.042195 -0.52241933 -4.343085 1.5097843 7.746249 -3.0620751 3.095637 5.682927 1.5998231 4.254694 -1.775506 0.46559328 -0.42198133 1.7836933 0.7320144 0.33339995 -5.1964393 2.5665722 0.3876187 0.82565564 -2.5855906 0.020823536 -5.884736 2.6958869 3.1745417 0.13003853 0.44275695 -5.910935 -2.2617447 -4.6383157 -0.7809604 -0.16559415 -4.919583 2.351525 1.333372 -1.5617855 2.3535693 -3.7401373 7.2608085 4.720567 3.6174347 0.28132284 3.2012548 0.006768541 0.49564362 2.636408 0.8808783 3.9086847 -0.2136139 2.006033 -2.4448097 2.491361 -3.2164998 -0.3015183 -2.8320146 -1.3208909 4.5917993 -1.1056645 -1.434921 1.9344847 3.076629 2.5225995 -4.697925 -2.2059844 -2.6419408 2.105018 2.6172123 5.9410434 -7.4493446 -2.2172325 -3.7193878 -3.469108 4.95028 3.464491 3.0961058 0.18676752 -0.04212997 4.0431437
247 -0.18043333 -0.5970086 2.9766002 -1.3755444 1.2481738 4.5310426 -1.9838115 4.2548923 -0.29622236 -0.053863335 -2.0928333 -1.512272 2.2557998 -2.427751 -0.26649284 2.539679 -1.5256853 1.4427985 -1.5291529 7.3438363 -1.7297192 2.3700368 -8.285507 1.080338 1.6867915 2.2465446 -0.32541662 -1.0748287 3.9395828 -4.325102 4.3807764 -4.82944 -6.8152514 5.635833 2.4875884 -2.3646204 -0.55462205 -0.30037928 -0.5953932 -2.4542747 3.77434 -1.1626859 0.084138334 1.925504 3.5342896 -2.3222215 1.8402108 3.3440588 -1.4659216 -2.4531996 -2.581293 4.3007736 4.2682357 -1.4545571 1.3117155 0.9589345 -0.55248785 -4.397188 -0.9064608 -0.043577228 5.319566 3.493799 -4.120775 0.22433606 2.7172341 -0.4120034 7.1176734 2.1615906 -3.0030916 5.248788 0.43175852 3.2855177 3.6088862 1.2339302 4.0877986 0.88587457 7.7411985 -0.62769896 1.2551385 4.62759 -3.652712 -1.3241637 -0.032654908 -9.765927 2.421041 -0.66559905 -5.546946 -4.4257665 -0.6467678 -2.2306006 0.568134 0.1781175 2.795365 3.3450081 4.110529 -3.6513286 1.6462909 2.4409552 1.7155328 -2.5026877
1365 2.0481615 1.7166973 1.0624666 -4.329131 3.3435044 2.0265257 1.5256823 0.0028620032 4.5660663 7.1801643 -2.3808007 -1.5071332 -0.045320746 -5.8959613 -3.511541 2.0556374 -4.1165442 -9.734234 5.337586 1.2807791 -3.8495932 -2.3770912 1.4774997 -4.5739226 -4.1663537 -1.9470388 -1.5161241 1.8211117 0.45709068 -5.7325196 2.6416192 4.524295 4.451221 0.45646605 -5.880461 5.1854734 0.16799945 3.4683192 5.2305117 -1.5956825 -2.8844335 0.45742366 -1.7672893 -0.8007204 2.5081568 0.34429184 7.932363 -0.028448297 -6.537037 -0.47862387 -3.4794488 -1.1918783 2.6793108 5.017152 0.69879764 2.311516 6.3709345 -2.0136597 1.1339605 -3.896454 0.87945163 -5.9611583 -3.7991905 0.4459605 -0.46778014 -1.9856833 1.2863587 -0.72580796 -0.6314401 2.7135122 -1.4846184 1.1447511 0.69516325 3.7473652 -0.44214207 2.7065976 3.7264411 5.0539923 2.457957 2.027301 3.4180284 -1.3466275 2.0718243 0.1850946 0.47528994 6.197361 1.0237582 0.33100027 -2.4206724 2.1484358 0.6664595 -2.0398881 3.0420783 3.4054909 4.056541 0.37214196 -2.121772 -5.0667434 -1.5125891 1.4061832
594 2.5302386 3.0657423 -5.7850275 -0.328848 3.1295612 -2.2854912 -1.053351 4.4371414 2.1865358 -2.0563595 -0.96589303 0.85999227 5.8742104 -2.4510243 4.168949 0.7381319 -5.4587817 1.7288654 0.035839062 -4.627221 0.4823999 1.4522862 -7.91042 -5.4865694 -0.2213509 4.9391446 -0.38221562 -4.4356008 4.2720237 0.9433482 -0.26331857 -1.0970024 1.0504509 0.382006 -4.661575 -0.011536189 -4.255409 -4.7331514 -2.1770782 3.0511734 -1.1723455 -3.1096354 1.2054645 2.7357256 -2.806816 -5.2776127 -2.7227917 7.9375787 0.84867924 -1.780864 0.7564301 -6.7315984 -3.787939 5.586622 -4.6056314 3.960504 0.41174436 0.2779953 1.2364281 -1.8293548 3.7101781 6.1879826 -3.4853053 3.6997166 5.055798 1.472476 8.392833 3.0113132 5.429356 -0.45513746 -0.26989913 0.11805612 3.5269916 -1.1461786 1.6789562 -1.3624088 0.47191584 -0.85721695 -1.0543435 -5.7719426 0.61644334 -1.9051585 -1.5682319 -1.9529672 1.3500742 -2.8368478 -0.89982885 3.390522 0.36444774 1.6084571 -4.3968806 -5.6795535 4.2070656 3.4289024 -3.8817353 0.43529704 3.446159 -1.6554699 -2.3197787 -2.9433408
1389 -2.0636513 1.8856642 -1.1418176 -1.8777883 -0.90664285 -2.3392184 -0.30719838 1.6081734 1.0377412 -6.4556885 -2.3077598 -0.24009402 1.4369844 2.6041753 0.34394222 -0.41007355 -2.3590791 -0.2845556 2.009169 3.836676 -2.6916945 1.2680656 0.0948955 0.21652049 0.78126884 1.862196 3.1308532 3.2406223 5.526073 0.86377835 2.086832 3.0687053 -3.4328768 3.5959852 4.608632 2.8527453 -3.8869376 0.026790304 -3.4560113 -0.21960106 10.207701 2.9137056 1.6376274 3.467611 0.1264757 -4.577627 1.1404072 3.8492866 -7.159812 0.609438 7.813258 -3.5950966 -3.1703753 -6.299342 2.2469995 -3.1771915 3.5158794 3.8208225 3.5650918 -2.481991 -0.60647637 -1.947806 0.37492248 -3.6689146 0.406789 1.4530299 0.47328696 1.2276337 -10.449189 0.45833918 2.841022 -2.568217 1.035021 -0.8850163 -4.248529 -4.591499 -7.8470144 -1.9371078 -0.21559526 -3.7612696 5.793394 3.498242 5.783593 -2.649549 -2.280408 -0.78271437 0.81906533 3.8737798 1.0423961 -3.4547434 1.4948102 -5.6683135 1.8173556 -0.46699417 -2.3590677 -7.546729 0.30490005 -0.08580652 -1.7719729 -1.8153784
1025 0.95531785 -3.12517 7.617914 0.047798336 -0.096395805 -1.4216747 -2.794524 -1.4652132 -4.6492305 1.9085528 -2.4719784 -5.288744 -3.1767135 -2.3304691 -3.459667 -2.0387645 -1.0872608 4.6483808 2.3320718 0.21475664 0.01276534 4.92779 2.279044 -0.95372754 2.0132983 -1.118301 2.3419638 0.4496124 2.6120641 -4.538342 1.4747348 5.0182986 -2.5638216 3.7328866 -3.5558605 -3.0351567 -3.044512 -2.52033 2.4713285 -2.3353896 3.6299624 -0.14568037 3.6652634 2.2676272 -1.8007059 0.95174915 -1.8921723 4.973769 -3.612257 -3.4957514 3.3763711 -4.3980103 0.40053612 -8.970798 -1.6396381 4.6137233 1.6009723 -0.371897 0.9874097 -4.779605 2.9563508 -2.6728013 0.28342232 1.7620453 4.4159746 -1.547019 2.2118235 -6.398197 1.5191753 1.1967763 -3.749126 4.2691293 -4.6246314 5.348628 6.87948 5.782939 4.437013 1.6644663 -0.022987451 4.7799 -1.1256696 3.7707634 0.46745643 1.0129046 0.06832181 -3.4192188 2.9249654 -1.2271793 0.50102234 -6.6505065 3.6221955 -3.9284778 5.0033746 -3.9239411 0.3473654 1.3583977 0.76936793 3.7239296 0.2983954 -3.0642493
686 -0.358592 -8.957847 -0.4606198 -0.49093878 -1.5256226 -0.23161124 -0.56847507 2.5166862 -3.6923857 4.589257 -2.229319 1.4298635 -5.2344213 0.1673729 0.12914178 2.8875477 -6.4275236 3.113274 3.516482 -2.1908147 5.553311 -0.6337548 -4.316474 -3.570386 -1.3536175 1.9005775 2.0770414 2.1984818 0.7038008 -2.1875076 1.2391458 -1.8433541 -2.9643588 -1.0220081 -0.19619656 2.1381567 -0.90238386 -5.9132056 3.0557377 -0.13752232 -1.8420262 -2.2914877 -2.473989 2.8752956 -4.7824807 -0.9301892 3.9841638 3.6949956 0.8576037 0.39005968 0.6981077 -2.5000076 3.148323 -1.8047668 -0.41336536 -3.3842092 0.6000898 -5.605314 3.8537169 0.9841244 -1.6493427 2.9279606 2.3864827 -3.0381606 3.7719753 4.409753 4.1870465 -0.14360332 2.6416318 2.0174618 5.5905256 6.922196 5.3596983 -4.3331804 3.1077442 -0.23906693 6.157311 -3.5034657 3.6839266 -0.82029754 -0.8777111 1.1183149 1.849021 -2.7504551 0.10127331 2.3010411 -1.9554514 0.9478963 3.2910442 -4.555997 5.1352882 -1.9685315 3.5675197 3.074651 -2.2287207 0.94238573 2.5802372 2.1515155 0.78427285 -0.45776558
1377 2.482581 1.0949503 -0.5471512 1.7742609 -3.3222935 -0.21314566 -1.5797491 4.3638844 -2.0043104 -1.4946829 -0.34063196 0.048247896 -0.2401254 -4.6267323 -1.743771 -1.8243641 -2.8238785 -1.110186 -0.49710402 1.2413652 -1.9626368 -3.2879653 -3.064754 -4.0608025 1.7547714 1.9046977 -7.145255 4.445212 -2.799688 5.9306364 4.224561 -3.574315 -7.1245675 -3.110742 1.5470634 3.9105728 1.2724653 0.31339854 -2.0281653 2.3039289 2.7714424 1.1571165 0.30499431 -3.7282116 -3.286105 -3.4766257 3.8704817 4.6997585 -2.0734346 -0.80641943 4.475682 0.74344844 -4.4737887 2.8007004 -0.710698 -3.525405 0.24211627 -5.4540634 2.0752313 2.0355055 -3.4693725 -1.6736703 -6.7309732 -3.0474613 1.1058038 1.075332 -1.6909527 4.118377 -0.6934796 -0.5229078 5.407739 -0.03915991 5.1492767 4.634294 8.382653 -2.1146042 1.6313555 -4.5357 -1.2654428 -0.31601298 1.9921613 -1.0968223 -0.18561886 0.85025555 4.331128 -1.938085 6.507924 4.2681746 0.6678202 -0.12873396 0.45206696 -0.043308295 0.51032495 3.5839999 0.98989195 -0.23020864 -1.9689546 -2.282209 -0.8036524 -3.5117722
1084 0.5383074 0.94670576 0.4722146 2.7900283 4.455559 2.9324338 4.7985415 -0.09572939 -1.632235 -1.7369024 -2.0264657 0.8239396 0.23086745 1.4737685 0.268034 4.2022104 -1.4008446 -0.9348966 1.3519245 -2.6904705 -3.1109927 -2.392908 2.4844272 -2.6054215 0.9087915 -2.9245753 -3.1103718 3.8746455 2.7567658 -3.785277 2.1936684 12.004494 -2.7644324 -0.49484187 -0.9864651 -1.4355286 0.29137057 1.2513164 1.7960292 0.8685881 6.06389 -3.7412121 3.5288284 2.7555861 -2.9759161 -3.6576893 -1.3268312 3.3770688 2.7764246 -1.7747549 1.7044845 -2.9393835 -1.7019943 -1.0136235 5.9875026 0.33149472 -4.094915 -4.1368604 3.174679 0.29841208 -0.075220704 1.3729569 1.199529 1.5407896 -4.472964 -6.6553226 1.4721256 -1.5930879 -0.8495009 1.9944525 -1.6804721 1.2920932 0.030181365 -1.1457659 0.15686259 3.977717 7.6621485 3.164599 -4.062789 -4.5535536 -4.3724093 -4.2258425 -0.12092986 -3.569468 -0.347092 1.7315919 -3.1878462 1.0781305 5.1213574 5.363659 -2.6281106 -3.8429315 -0.8540352 -3.1892946 -0.76712775 2.0996628 -2.4563203 0.8779672 2.0873969 1.644532
873 -2.3822486 0.6247813 -3.4756477 3.1269825 6.1485476 -0.5087281 -0.9524142 -0.6077958 -5.607624 -2.4169443 -7.043133 5.8537745 1.2195529 4.8162007 0.13775189 -2.6519134 0.8443049 2.6151462 -0.035805613 -2.5040498 -1.3050473 4.808361 0.4331988 2.389055 -1.3197327 -2.9501715 -0.9133451 -2.389819 -2.6384034 -0.3901125 5.6401043 -3.509719 -2.3042622 0.8690304 3.94269 -3.9644752 3.128955 -1.1042727 -1.9378477 -0.27175924 -5.6855993 -2.3702798 1.9627949 2.857872 3.9118216 15.034203 -1.8646005 -4.72855 0.58937013 1.9425815 -4.108056 1.1606817 2.9341178 4.677266 -5.7638254 -1.4873558 1.6206398 1.8653885 1.1613215 2.04965 -3.063686 -2.8635032 -1.9923906 -3.6570015 1.584539 -0.9087904 -2.3161623 2.5181289 -1.2149377 1.8127401 -1.8999839 -0.27375525 -4.188273 -0.8359557 0.7662772 1.7281945 0.19501516 -2.0155332 1.1062696 2.7070951 -1.6827544 5.0877514 3.5678935 1.2861407 1.4632964 -1.40211 -1.0886607 -1.1461064 4.338866 4.2535243 -3.6427238 7.8611646 -5.46967 -5.2391977 3.292209 -0.6015716 -2.028475 -7.9989853 1.5942813 3.5864036
715 -2.5941923 -2.580642 -0.066912666 5.216693 -0.8977804 7.4734516 -3.9744315 4.922301 4.714197 -3.6845846 -4.2969513 -0.6046519 -2.7863417 -2.2791295 0.22765034 7.3675094 6.4921017 -1.0871365 -3.9224055 3.31711 -2.5209248 3.7719324 1.2248782 3.808057 -0.36135486 0.22529536 0.6085228 0.55873704 4.5313253 -0.3314553 -6.451162 3.7404666 -5.188605 6.5366035 3.8574166 1.3460432 -5.816573 3.5326378 -0.7737575 -0.04001627 -0.36233065 -1.5372491 -4.5680127 -0.82290775 3.0884733 0.13539866 0.871286 1.6186956 -2.1117887 2.6868799 -2.5728753 2.0333118 0.87205356 0.8268682 9.112587 2.1260815 -2.467106 2.7124534 -0.66930336 4.3252106 -2.7934728 8.322485 -3.7484171 -0.14207457 -1.5054724 1.0107814 1.4478135 2.444876 1.7894106 -0.07096991 4.215663 1.2749245 2.0694363 2.3502223 2.8229606 4.3447084 1.3410623 4.758438 -1.1826177 -1.4602429 4.345266 -1.482225 5.6050177 -0.54179883 -2.9702632 -1.6613641 3.1626647 5.76023 -4.5861645 2.7712233 2.9625916 -5.132329 3.070305 -7.2975836 -2.1369252 2.1767287 2.5427163 -1.6049218 -0.14780033 -3.9525788
884 1.8976343 1.9405094 2.7016618 -0.33075005 -2.4165752 -3.3369572 -1.2081296 -0.5123138 5.2066627 -1.6617243 0.19067432 -0.17266814 -0.3338263 3.747057 -3.7807841 1.5520439 -2.7637825 -7.209511 1.1224588 -1.5274167 -2.9033995 0.7125362 -5.189398 3.9185855 6.2634664 -4.0620694 -1.4497784 8.375943 3.5882692 -3.4600785 -3.5923984 -1.3803673 3.1688917 -2.1354017 4.612229 0.5680652 -9.121591 -1.8080672 0.06995007 -2.1645088 2.3442647 -2.0101852 -2.4203763 -0.81164926 -4.9373465 -2.3501015 -0.98461556 0.63341653 -3.5181305 1.1713063 -3.871445 -1.2166513 0.07964312 -0.37159002 -3.6366334 -2.688343 2.7963166 -1.6404928 0.119942956 -1.6891372 -3.1645343 1.6867298 -4.283776 -0.7593918 8.269662 3.1533267 0.5073632 4.926103 4.04315 0.037470307 2.061065 -6.0592175 6.5135307 -0.58797204 -0.24884045 -0.22128583 -0.91574204 0.6714479 4.3787513 3.2373383 6.967913 -2.2639687 4.2590485 -5.243045 -4.460996 -1.7107333 4.912849 -1.6912835 4.7591777 -4.6143427 4.2421885 0.5629508 -0.128967 1.1689965 0.43485865 -2.666644 -4.1433306 4.488838 3.5910707 3.3654397
586 1.181312 0.23616585 -0.1791051 0.80068755 4.272863 -0.6529657 -1.0725044 0.8121923 0.792733 -2.7903845 -0.6888 3.2034554 -8.1666 -2.6665158 -0.43288913 3.3674297 -1.9050881 -6.440071 -4.290108 3.9620295 -6.732409 1.2109424 -0.31212935 -0.23021565 2.523088 4.3140593 5.558602 3.902872 -0.041786265 -8.581695 -2.1611302 -0.82331955 -3.3067265 -2.7490125 -2.2724154 -0.93326175 1.1734391 -7.1631794 2.0427554 -0.8259494 3.6898048 -2.6137364 -2.6990302 -0.08338858 -2.1644437 -2.7463615 3.0130491 -1.0173768 -1.5491616 -1.6138712 2.0549364 0.6337411 -2.8298535 2.1875002 0.44852975 -0.16509832 3.041595 2.3996153 -3.2678974 -0.21905388 -3.3540244 0.89397275 -1.0883679 0.8894793 -3.8434784 -1.4324188 3.9394186 3.8115919 -1.4197102 -4.5169454 1.0627503 2.8213956 0.4308419 1.8222286 -4.4549427 1.850636 6.5135393 -1.609812 3.4007065 -1.2615172 4.5485506 0.9302032 1.7075342 -0.98535275 2.9407146 -1.0379442 -4.9694743 -0.58024853 -2.9786384 1.0922996 3.4392688 -3.8240921 7.6542816 -4.6735783 -1.8094732 -0.81784713 1.7790107 4.0555024 0.16396742 -3.8845224
1204 -0.5188747 2.195635 1.6188188 -5.1537004 1.9647791 2.6265802 -1.8528402 2.2366545 -0.8455348 -2.4500759 -0.68465066 -3.2384424 1.3104919 4.6679664 0.7047143 -4.7495036 -10.391884 4.2127595 -1.8852704 -2.8520184 2.7859025 4.3305626 1.6836612 -2.2998865 0.18684289 0.5648193 1.3819567 1.4427298 4.5555515 -1.1287802 0.7308775 -3.922648 1.2688344 -2.7594666 1.047853 1.5862983 -1.1568985 -3.3188236 2.214069 4.947857 -0.6996148 1.5074188 2.8998384 0.41895586 0.16693054 -8.311654 4.284393 4.6877747 -0.68549806 6.7166247 3.1290174 2.8391793 -1.8692375 0.14684175 -0.48414937 1.1245997 0.64902496 -0.5665476 8.922347 -1.2040321 1.9712912 0.6226173 -1.8630643 -3.638523 2.4860544 6.287562 -3.2579384 -2.7687335 -0.7809335 -0.48341063 3.4527497 -0.50600946 2.6767588 3.9906454 2.6337614 0.89464736 -3.3470476 -2.7034645 -2.0250568 2.2804093 1.5726429 -2.7288911 4.018669 -2.0488844 2.7642229 -3.0734808 4.5461864 3.4978507 -1.2681566 -2.7825246 0.61547923 -1.4335061 -0.774816 1.9869379 1.2540711 -5.2491293 2.1305997 2.084692 2.0173066 0.5012232
459 8.126799 -0.6178704 0.63458496 -4.3740153 -0.23690233 -6.5971923 -1.7848175 -0.080731764 -3.4844577 -5.031549 -3.8611374 2.0888634 -2.3685005 1.8301316 0.29268497 1.3315322 -1.5741445 0.88325894 7.3921165 -1.282312 -5.463149 0.3412266 2.548578 0.15654543 6.3682747 1.4297719 -2.9162395 3.1970177 3.8440452 1.6059935 -1.5124644 -7.6412716 0.053366236 5.007082 0.38966465 0.30434206 4.7830157 0.9780841 0.13616224 2.510449 -0.7511403 -2.9685717 -0.10627622 4.7127066 0.3635058 -3.787647 3.114768 -2.2690697 -5.727636 -2.2676432 0.16937579 0.9964518 -0.7833605 -3.8213162 -1.404489 -0.6469714 -6.4723682 -4.0145545 -2.8784068 -0.7060615 -4.7100673 5.85507 -3.5863066 4.821309 -0.15831286 7.2725534 -0.23586017 0.55674607 0.030581666 -0.49648267 2.623379 3.2569788 5.422246 1.3615417 6.264192 4.55158 -2.717497 -0.2308193 -2.5385773 1.0362508 -2.2917292 0.9394715 2.0998828 4.8249564 -0.21782109 5.3170466 -1.1774591 1.7444744 0.37340528 -4.0506864 -2.7769923 -2.1342168 -2.0638793 0.84312993 -2.9140892 -2.3673968 -0.324869 3.118092 -1.6909474 -1.2480716
1118 -3.55168 2.5188177 -2.8533316 -6.612135 2.8701463 0.19823137 -8.41453 7.6201773 -7.7320905 1.206278 -4.996436 2.1721046 3.21322 4.5225306 -1.1422002 -3.6833389 0.09131095 0.2028628 -1.6672543 -2.5699637 -6.4032254 -10.876435 -3.8607817 -0.4442438 -1.4311835 -0.25388733 -6.1845555 -4.1404033 6.8932896 1.5929588 2.8398893 2.4242795 3.1041934 3.9774144 -2.400646 -1.9087852 -1.501418 -3.687988 -0.7517657 -0.05368795 -1.429604 2.0550697 3.261637 4.213897 4.5190005 4.8076625 -3.4950762 -1.6961211 -0.2855246 6.146332 -5.31391 3.2242546 3.586572 5.9835963 2.3374598 2.3938267 -2.9311159 -0.8793533 -5.0839925 1.0818766 -2.5791414 1.969068 0.5915688 0.19628496 2.3327923 -0.9080459 -4.173217 0.09529254 -3.5010314 -1.636872 4.228298 -6.7610765 -5.565632 -2.615386 -1.8751416 -3.112907 2.6183305 2.0572002 -0.4166426 0.45946008 -2.95342 -1.5809301 -1.2902298 5.6658483 -0.34618452 0.28622168 -1.3536825 -8.528936 1.1094638 1.4898862 -2.5135558 2.9753242 4.023634 -5.155937 -6.2268915 -0.9548806 -1.9684395 0.748349 5.8885965 -3.2379608
1330 0.80143267 -3.4461706 2.058082 2.0921993 -0.28518814 2.1529682 -1.9181689 2.1778774 0.990808 -5.757436 -2.1930618 1.2240866 -4.458428 -1.2841666 -6.728747 -2.0581336 -0.039544474 -8.254231 4.539382 -0.94140613 1.5690314 -3.6455474 5.8984694 2.5565808 0.044504315 -2.0704558 6.5232196 3.2754767 2.0123582 -7.2355785 3.0310745 2.9368079 -0.96792424 -3.2749822 -4.9136405 1.1198646 0.8466507 -2.6357355 1.3880066 -4.1510105 5.110511 -3.4523232 1.190503 2.134932 3.2367694 3.4034727 -2.6489797 4.364256 -0.45766297 -0.7087653 0.8540172 1.7978884 -1.6871253 4.894384 -3.148388 -0.12945741 0.80458724 -3.7440934 2.7885656 0.5285713 -0.5568854 -0.8789028 4.6980114 4.817562 -0.80321866 -0.2722576 -2.6300719 0.83147377 -2.4515235 -0.6652294 -2.4570148 -1.5739748 -1.3179283 -0.9698268 -0.6629783 2.2820687 3.8096251 7.351898 1.229017 -0.5380758 -5.5946274 -0.8746179 -2.4818077 -1.2144158 1.1466585 3.8759077 -1.4071946 3.701952 -6.8884845 4.61995 3.8747187 -3.791556 -0.775023 1.2204772 0.45134932 3.4543684 -4.56834 0.51170576 1.306651 2.566576
7 -3.947053 -0.37885448 -1.0472239 -2.9183567 0.16201018 -6.388495 0.5124188 -0.6918459 1.9024638 1.4132793 -3.057949 -1.8108504 -0.7341273 -6.9373803 -2.975707 4.2066975 -0.2850417 -1.8338802 0.18493697 3.6477165 -11.852466 6.535262 3.045586 -3.97721 -0.9001493 -2.6052434 5.453546 3.580797 2.3307328 -1.2565671 -3.0320113 -0.5753957 -1.2338648 -2.1151905 2.4022832 1.8641598 3.7532961 -1.8537198 3.4733922 -4.4551053 3.7908268 -5.0806556 -6.0366583 3.545649 -1.6969049 0.6563269 0.6190383 1.8272057 1.084706 1.4241296 -2.2304478 -0.13654222 0.49540693 6.3840375 0.9393897 -0.5425936 -1.2345046 -0.17549047 -1.5901264 1.7427138 1.2783977 8.307647 -5.184637 2.3294616 -2.0142002 -3.021045 -7.2718205 0.6509824 0.030045392 1.3041463 -3.9092066 1.2641877 1.5937971 -3.4643881 2.707013 -1.5458192 -1.7502574 -0.5912702 -3.6243289 0.9551204 1.7703398 -0.1460891 3.6945286 0.6693639 10.936529 -2.7594457 0.57515925 -2.0390415 0.38791072 -4.6804748 -5.5470605 -4.075455 1.7888168 -5.311984 0.8857383 -2.5666785 -0.09041353 -3.402385 -0.04504682 0.80776894
510 -5.325421 -3.5922978 5.8624916 2.912131 -2.1977236 3.5533538 -6.9059415 -0.56034714 4.8129287 -0.74735343 10.028009 -3.8047311 2.4770827 -3.5191817 -6.378053 0.10995711 -3.6150458 -0.08345255 -4.270199 -0.54286015 -1.76101 -1.0889481 -0.32784826 -6.8115535 -1.1871743 4.8801117 4.840399 -0.27355945 -1.937773 -2.8121176 -1.7873948 3.886233 -2.0617142 3.83827 -3.5149012 -2.9674597 5.588846 -6.3504934 4.87352 3.638983 1.7181171 -1.6943408 2.6540115 0.5607812 -3.4767213 1.8495966 -0.2950997 -0.028779669 -2.483404 -0.5715202 -6.6659493 -8.369862 -1.3540263 3.1381598 -4.4329166 2.3260362 -0.4175917 0.64106333 -6.97848 -2.8967125 -0.91213155 5.5700674 2.7473044 5.3441353 4.9905767 4.2985673 1.988135 3.3646083 -3.1361809 3.3512166 -0.8804563 2.2093172 -1.7428702 3.2243526 -4.5249085 -0.2779737 3.9599605 4.7965474 -6.7965393 -2.3257005 -5.4825673 0.9390341 -2.212335 -1.7924194 4.016691 -2.7483888 2.4639633 0.20035905 7.423806 -3.2395074 1.6220152 -2.8183188 1.2200457 -0.188894 -0.4463633 2.7251406 -3.8979063 -5.927641 -2.797636 -2.1145475
771 -3.218828 2.7977338 5.0938983 -0.75573236 1.2465596 5.722592 3.2775319 0.8897364 -0.35654345 2.7029986 -0.8535661 -2.615449 -0.5975386 -5.457775 -5.2043552 3.393076 -5.722522 -1.2534246 6.921663 2.5599136 -1.9962357 -4.5903826 5.0855913 -2.4208329 1.096745 0.93540645 -1.0496199 -0.31289932 -1.1543472 -3.5991738 -0.1727423 3.4273412 2.3077276 -2.2972028 -4.745332 2.9344044 -0.88075715 -1.4409674 6.6992364 -3.7703373 2.6364088 1.9848416 -1.338309 4.699925 0.96711856 3.582643 3.1321187 -0.72095865 -1.2822555 -3.4921536 2.391185 -1.1043519 -0.6355845 0.14014554 -1.5045316 -1.9005729 0.73087007 -2.1891546 -1.0233688 0.26523635 -1.2003084 2.9258363 3.2643125 -5.6363177 1.3223712 -8.226659 -1.2882221 1.4802023 3.8602037 2.6969724 -3.894774 3.9550056 -3.4591234 -4.0825753 0.48004788 7.295191 4.340011 1.3219984 1.4235547 -1.0176469 -1.2273859 2.8521268 3.7220333 -1.207747 0.29721877 2.5364573 0.30778366 4.2191124 -3.0383964 2.1180437 0.64360917 2.1646175 1.9867406 5.807584 -0.6484367 1.6263963 1.2529967 -0.35570344 -3.6912265 -2.921439
1471 0.040527787 -2.6733017 -2.35352 -0.44747904 2.4455001 -4.132376 1.1152762 4.8054495 2.2980392 -2.620613 -2.1991355 -2.630588 0.8649956 1.7909248 1.3639936 2.3563812 6.249189 1.7768648 -1.435747 0.840682 -1.6697111 -0.3700394 3.5868647 2.3082566 -0.6382279 0.58937114 0.9798166 2.581933 2.2127533 5.623994 -2.214979 -5.2697945 1.0464194 1.6527393 3.5562115 -2.213706 2.7780402 -1.0464611 -3.8191478 -2.2729201 2.851009 -0.038446374 -1.1169531 -4.6093125 4.04295 -4.0113397 5.43145 4.5540414 -2.3049364 -0.72333914 1.8892202 -1.4785768 0.021135539 2.3560622 -5.146887 1.530305 -0.80256784 -6.0779524 -4.8196287 0.12870634 -1.433129 4.1341925 -5.6789694 -6.59577 8.968159 4.5287075 -2.7445848 -2.1698017 2.5875206 4.9163666 -0.21386434 -3.6153045 -0.032102514 -0.4883209 6.916281 -7.0824366 -0.55580956 1.9766161 -3.7347267 2.897021 -0.19804572 1.1354305 8.767043 1.9987476 3.0513136 6.7974677 0.8495378 2.9724538 -6.9141464 6.087001 2.0438209 -1.0110909 2.1860802 -5.952716 -0.7236173 0.4198474 0.52952415 -1.9304031 4.0230017 1.9724817
138 6.4518795 3.2151191 -1.1557107 2.2263417 2.6639173 -1.0466876 -4.8620744 1.3103507 3.151389 1.6478763 1.5206264 2.736717 -1.150609 -0.73216754 -2.895106 1.435726 -0.5834651 -2.9046807 5.720167 1.7120047 -2.629855 -1.5931003 -0.42938116 2.0710535 5.7131624 2.4068146 -0.65641236 2.9763799 -2.0669484 0.6454813 -5.2089305 2.0413501 6.4276824 6.1872106 -3.878052 0.48467737 -3.655686 -0.76017183 -2.2332172 -1.1882071 -1.7281122 0.33390152 5.8169065 -5.8776317 2.28336 1.8378531 4.00629 -0.3154431 -0.46478403 -0.4360208 -6.611449 3.812778 -3.2663963 -5.645809 2.726192 5.824101 1.5230609 4.5590353 1.5903015 -0.10738477 1.5784025 -0.7511471 -7.7651515 3.6805892 6.393624 4.4961476 -0.96757543 1.6569008 -1.3753836 -0.79153955 2.6342714 7.671981 -0.19288771 -4.7797484 -1.5647298 7.470382 -1.8526568 -2.2798405 -0.5323248 -3.370565 -0.26446334 3.468214 0.41866678 -5.17877 -3.708858 3.8449185 1.6478899 -3.5239158 -1.9667122 -5.642268 -0.19462308 -0.09954422 3.6179056 -3.7015126 -0.05292306 1.3381426 1.665959 1.9542696 -0.43572015 0.5516061
237 0.05231478 1.573821 2.1810083 -0.8974621 1.9421535 -0.8920806 -4.719035 0.70045453 0.09681959 -2.978559 2.7977066 5.115426 2.067554 3.2613072 3.4503214 1.0761776 -1.7226307 1.8024478 -0.9755064 2.1699967 5.644403 2.2577963 3.8616366 1.774558 0.97428876 0.3602057 0.21463025 3.5556626 6.927007 0.8591107 3.2898946 -3.0743892 -3.2326736 -4.0846696 -1.370965 8.844957 3.3863893 -4.324544 2.3049743 7.2832136 -2.3562603 1.9190307 -1.4280977 -4.408602 3.6635385 -4.6907268 1.8900509 1.6446513 0.5696731 2.407033 6.8023777 -1.2345636 -3.8692214 0.4142734 2.5421207 -1.5615879 -3.5571375 1.0778568 6.3026023 1.8425409 -1.9189701 -0.60400015 -2.9915965 3.2595565 6.109171 4.630847 -3.7909708 -2.3992789 -2.0457673 -1.3112994 -3.8278553 2.640063 2.9687681 2.801543 5.362898 -0.12504502 1.8163638 3.0339677 -1.3974036 -0.11145259 -0.7160429 0.122233905 2.619627 0.4167624 -1.3273822 -4.2587943 4.783065 3.3538272 1.3756639 -2.2747707 -4.642144 3.2184553 -0.51645875 4.6528854 1.454489 -3.904017 4.5530567 -0.7310191 1.9562229 0.14074256
1234 2.4694598 -0.9357708 -4.7791543 4.0688734 -2.7946572 1.8571999 -1.0855973 -2.3776565 -3.176712 -6.5381036 1.4010756 0.42665967 -1.3482866 -7.0737343 -6.108326 2.7231922 -5.288077 4.2292433 -0.6689195 2.9797707 2.399943 1.8817571 -11.328408 -0.5506833 -2.17608 -1.1925023 -6.9404454 0.81621534 -1.1696358 -1.9013237 1.6437237 -0.3429888 -4.266094 0.2910885 -1.0047084 6.73335 -5.2359085 -6.748413 1.0991268 -2.9340286 5.733949 -1.7893246 -7.6888814 1.171433 -1.8172519 -0.49178666 0.92236316 -6.37709 1.5993961 0.11180957 1.5661688 -1.85389 -4.8833737 0.2938283 4.063985 -3.4256785 3.9225776 0.40086335 -4.631158 1.1415373 -0.8979418 -0.9620909 -4.9252687 2.3814783 4.7149124 -3.6491604 3.2472098 1.6338999 -3.1902897 2.5515976 2.0028043 -5.905017 2.4942665 0.27760124 -2.8480663 -3.058581 0.48381957 2.558169 1.8929515 -0.7793263 -1.5399656 0.79524636 -0.5779159 1.0695698 0.50307536 -1.6320628 0.14357097 1.6826757 -0.99411714 -3.318372 -6.4695506 -0.9840067 2.4691737 1.7559462 0.34479535 -2.4528384 0.6378728 -4.556256 4.051021 -4.893848
28 -1.0475831 -5.2145863 -2.7443328 2.3815937 -3.745346 7.5258393 1.1575589 -0.38353917 1.6497998 -3.185147 6.7378173 3.7165432 7.7377315 5.310599 0.9597387 -3.2305005 -5.728326 0.7242747 -5.841815 3.2238684 -1.3830177 2.6653407 0.5349563 3.675088 3.702493 -2.7760797 0.93495077 -1.3779653 -2.1631012 1.6506501 4.718578 -0.03758503 5.460533 -3.9443035 -0.31541783 -2.2073421 2.5477226 3.1719992 0.93250054 -4.1465793 -0.1047123 0.7206793 -3.3242757 3.791242 3.2154217 6.8592086 1.8474612 -2.3562646 3.2874913 2.8628013 3.7462208 0.3035162 0.4186106 0.22266722 0.80206877 -2.361565 -1.6622698 -3.0853348 -4.0528073 4.5075746 -2.6523056 -3.8439355 1.787628 0.8812201 0.9657648 2.0552897 3.5793083 -6.2210393 2.1802561 -3.0066087 -2.117924 3.9294457 -3.5792193 -1.4446529 -0.90349495 -1.7122661 -5.747775 -3.3170712 2.0725024 10.707418 0.46067315 -1.9241486 -1.6718076 1.9357982 -4.1087127 -3.2710521 0.94291186 -4.216791 1.1474034 6.4793735 3.2287226 1.1457028 -1.510744 -0.7958706 -3.3946595 0.19864622 2.599391 -3.146667 -4.056771 4.4056306
1214 -3.023438 4.889159 -0.42357764 -3.0010204 -1.6726564 -1.4650396 -3.1861565 1.9973831 -2.5423973 2.6775136 2.1800172 -6.466842 -0.85990995 0.75676084 -2.087921 -3.7361202 -8.114104 4.6692834 -3.7258914 0.23103827 3.7510726 1.3172277 -2.1250207 1.1797085 0.5136127 -0.04739912 -0.29290527 5.2659883 4.1914763 -0.8801757 0.619866 -3.0092242 1.7836628 -2.6426494 6.398613 3.8023703 0.575899 -1.3688035 -1.3441248 2.2561352 -2.0128393 2.9507134 2.186071 4.4257555 0.7894162 -8.046864 5.383969 5.3207974 -2.5424924 4.505271 2.5027697 -1.3541514 -2.7582762 0.2691471 1.3186241 0.9741973 0.56250226 0.09768526 9.258457 1.5623583 0.4413478 0.35648298 -0.4921061 -6.626491 1.1606245 3.8535898 -4.477271 2.249473 -0.2607904 -2.4596825 4.53242 -0.020438118 1.0062476 7.9204183 2.8169131 -1.5102501 -0.3057608 -0.6845997 -0.51389396 -0.20319578 0.30212972 -2.4903815 1.0634588 -2.7810907 2.0021336 0.6995529 2.8526466 4.290556 0.66228676 -1.9885992 -1.2434205 -0.57138336 -4.192026 0.37037063 1.8534566 -2.9226074 -0.12645851 4.872474 1.0451603 2.1274586
658 -0.9060521 -2.3047423 0.15679303 -7.52881 4.8719516 1.7179673 0.36214128 1.8522863 2.8875334 -8.518599 -1.5982567 2.224602 0.08465954 -10.6966505 0.6591776 1.3562343 -1.4450467 -2.133945 -5.905997 -6.9915214 -1.5046998 1.8200805 -1.4688134 2.7233722 3.2810667 3.463494 -6.1520953 -1.0985283 -2.9577684 -0.71326387 -0.6998128 0.039536707 -0.97306633 2.6876295 0.70332587 8.043742 -2.603711 3.025501 0.25743964 1.0713102 4.3640423 -2.0541513 3.240224 -3.761238 0.37898573 1.7285566 -1.7045004 2.6149063 0.579312 0.0014893829 -4.384278 -1.5495836 -2.7496831 0.33433166 -2.4480977 2.8810334 1.4172194 2.283208 0.5231602 -1.0916029 -3.62125 3.4326158 0.7193617 -3.5878844 3.890021 -1.42925 -4.0468025 2.1857598 -1.3762443 -1.9357034 2.768183 -2.9668584 -0.823745 1.617413 5.6254034 -0.08765253 -4.5989 -2.985254 5.9560566 -2.750345 -0.9701366 -4.5555744 0.721852 -1.619866 -1.0912821 1.4929616 2.9172258 -3.76709 6.548853 -0.83144367 2.5539873 -4.02533 4.4527936 1.8305186 -2.7208953 7.018048 4.994217 0.8598311 -1.6427156 -0.1597742
509 0.735319 -1.8853775 3.139446 3.3665998 6.1370564 0.89684254 -1.2672919 -3.600319 -5.6977067 2.0308611 -1.9721916 0.8583726 0.8631848 -1.4500995 -1.1444217 4.3823166 -0.6464076 -1.1693677 -1.757661 0.48632547 -4.8142176 -4.437404 2.6287112 -3.9378214 -2.6036937 -1.9450237 1.9603379 0.92003 -0.21033882 -2.3161304 -1.829943 3.66037 -3.6041336 -1.3491627 -2.9899287 3.1472034 0.96550685 -3.116359 -1.2758969 1.9972799 2.9965022 -6.844206 -0.915538 4.293178 -2.5446215 -2.5584564 -2.8059015 -0.9581168 3.765687 -1.8119947 0.60495305 0.9603009 -0.6504768 3.1867857 -0.38937935 7.391073 -2.2129872 0.8052245 3.989456 -8.089407 -0.02879078 3.0577593 4.6696677 1.2153922 -0.86940044 -4.5890326 1.966457 -1.9539684 4.144335 1.989813 2.7292042 1.3289456 1.0618745 -0.7537461 -1.1435685 4.2298503 8.528995 1.4963462 2.769066 3.0157485 3.8357453 -2.9354014 -1.6619371 -0.59170955 0.32497016 1.5696621 -4.0303 2.6031814 3.150683 2.0178168 1.9984487 0.038048815 2.012059 -2.9028955 -4.1594143 -4.380039 1.0250283 0.5942504 -0.31651014 0.8008012
636 2.516332 3.736974 1.22616 -3.0851793 1.4165363 -5.778401 2.9154682 4.4265513 -0.7008557 -4.75597 2.2086 1.7459228 7.13285 -0.09416124 1.492009 -7.333246 1.4019645 -2.5733166 0.89587504 -2.558995 1.5278239 -1.2215391 -1.4855272 -1.9167943 4.482466 3.859914 2.4091034 1.0591935 3.480707 -2.116219 1.8706547 0.52083105 0.24226151 3.0328069 1.123591 4.210036 -1.2628653 -2.516414 2.0612402 0.945061 -2.7680864 -0.61348104 1.6569537 -7.610478 1.4647927 -4.671862 0.5682138 3.7379515 -6.786679 6.8794947 2.0936704 -0.50910354 -2.5951774 0.46908736 -1.903128 -4.7945023 -0.597457 2.2359087 -0.33156818 1.9584985 -3.6050982 7.889683 -1.5487942 -5.1774287 5.207007 0.6181435 1.2006794 4.700922 2.399987 -4.4118047 7.1427126 -0.6399333 3.5632443 1.8622698 0.474587 4.9757047 -1.8404512 -1.5559729 2.479405 -3.0245867 0.739221 -0.3919173 -1.4856949 2.392667 3.4049194 -2.2153227 4.2029104 -2.0503302 1.9846097 -1.0253797 1.7784591 -2.4958854 2.135378 0.7084855 1.0137403 -0.5188278 1.2682649 2.559259 -2.2741551 -3.406794
20 5.5278416 -0.46184513 1.0897005 0.5044794 5.2176785 4.8025007 6.175146 1.1724399 1.9462994 1.639188 3.0026228 -1.2270652 -4.66387 -2.1380012 -2.284504 2.4885614 -0.97449696 -6.0206738 -0.7714692 2.562552 -1.4722958 0.28265843 -1.1805105 -1.8431988 2.1294885 1.6057554 5.3372564 -4.494356 4.230346 -1.636904 1.8793406 -3.589677 -0.15731366 -1.2546839 -0.9267818 -1.6664424 1.9997551 -0.49086308 2.9035447 -1.9997276 3.9389405 -2.6794147 -1.2636613 0.3974109 -4.2553563 -5.3080935 -1.2288773 1.7105849 -3.793383 -4.2424836 0.87008774 0.86040115 1.3894359 -6.176569 -2.5728889 4.845662 -1.2411953 -1.0512434 -2.7041323 -3.1196756 0.7511691 -5.77987 -3.1272397 2.0746953 0.44632027 -3.3487058 0.25756925 2.1588476 3.2403455 -3.710118 -2.0230777 -2.9619148 3.3210416 -6.4059653 -0.035704195 2.2898107 6.642283 -1.2833691 2.5337048 -5.5366454 0.063427754 -0.8417311 -1.3590571 3.2058318 -2.4131184 -2.0897727 5.17369 0.9948251 1.197083 -0.7008148 -1.4138831 7.956064 4.265417 2.8406222 -2.1741025 -1.8273557 -4.142294 4.7009044 1.799387 1.1268873
979 -3.4123237 -0.15624256 -3.3947647 2.8560894 -1.9924573 -2.2647367 1.9131579 3.2340615 1.5340129 6.1007123 1.4099928 3.205718 -0.30002123 -3.220607 4.074877 5.8690844 -3.2819102 1.86369 -2.7656994 -0.20376934 1.7871615 2.1361167 -2.043829 -1.2705942 -4.827489 0.28308475 3.5601525 0.47433054 1.5457159 1.9962804 -1.5172032 -2.6834154 0.32884237 4.3914037 -5.6784234 4.539463 -3.479039 0.51316684 -0.3677224 -1.742081 6.5115733 0.33860695 3.484885 -1.1408969 2.9633312 -3.983511 -2.5455532 -1.7877939 -5.032673 0.55728775 -1.4358385 -1.9416722 -5.100144 -8.109867 6.1379595 2.9114585 -0.52874184 -0.028527774 0.04054329 -2.7530317 -5.0070267 -3.371461 3.2347 0.94044507 2.7039363 3.708284 -1.8128245 2.0148215 -3.144787 -1.7358238 -3.6275713 -0.43505886 2.5018463 4.369465 2.3655608 6.2836804 -2.434579 -5.9128532 5.344367 -4.599225 0.37584716 -0.456542 -2.0225632 0.92449355 3.5018294 4.253932 5.4395022 -2.1448863 -1.326576 -0.730122 6.6935053 -1.5769235 -2.956845 -4.423954 -3.0563247 -7.2579713 -6.8530006 -2.5057485 2.684121 -5.3632774
1418 1.6730701 -6.6703005 -2.0281684 1.7907097 0.34414136 -5.2328353 1.0684818 4.4220853 -0.46259236 -0.9522225 1.2177522 2.4642124 0.28135458 4.3572745 -2.187527 -4.842634 -0.48228562 1.3117589 9.611108 0.97237945 2.1012769 3.619654 2.3147216 0.445453 5.6851544 -3.1143126 0.94985294 -4.5771346 0.7950789 -2.1831365 1.7010912 4.8416233 2.0240922 -1.4469538 -1.1456763 5.7451506 -6.0975637 -3.335745 -7.9256277 1.6255226 4.091174 1.8048643 -2.8959484 -2.5570018 -2.032718 -3.511164 -4.7407393 0.17826249 -1.3642538 1.3339329 -0.7041995 0.72107667 2.0608616 3.1360536 -0.9599031 4.5579586 -0.32256278 -1.4441341 0.26404834 0.056368493 0.24448398 -3.547044 4.809536 -2.8462436 -6.044873 -5.9191823 -3.6793854 1.2191826 1.9842529 3.2901032 -2.014681 5.837445 -1.9289695 4.5970745 -0.4824734 -0.1500462 3.0139132 6.2259965 -0.6335236 3.5019855 -2.9371707 3.5684779 -4.2524595 0.31157193 1.4666479 0.87157315 0.81583405 0.8848103 -2.0183592 0.39464483 4.7132688 -3.468575 3.1424575 -0.123605676 2.9734666 3.7107155 -2.0409257 4.522861 2.173116 0.3464936
999 -0.035151318 -2.9032323 -0.85055 -0.4294804 -2.617811 -3.1329637 -3.3749778 3.221872 1.6501725 -0.97683805 2.054334 -1.9977272 4.3064947 -5.9720025 0.03512408 0.79718053 -0.8848809 1.3044193 0.72610176 -4.259469 1.4199955 -1.0127541 1.4029869 1.423671 4.048272 0.4322138 -4.577785 5.195103 0.60355836 0.98817503 3.1600344 -2.8134525 0.27330947 0.36496615 4.884618 3.4219644 4.113259 -3.2467158 -2.2071831 -2.4988854 -4.085135 -1.4438947 -0.10797378 -1.8203751 0.62563556 -4.347734 -3.7229729 1.8283415 -4.397004 0.5026713 6.809853 -3.1521814 -2.7031143 2.0570068 -3.578617 -0.32297295 3.5265374 2.8695462 1.2928482 3.7126064 -3.6795366 3.7138047 -5.43882 -2.314417 3.9433947 0.10062288 -0.10451753 -1.1385047 3.3632424 3.282491 3.261181 -2.0945964 6.7609134 -0.9947434 6.822028 -0.078548305 -2.097332 -2.1910763 -3.201762 -0.13864502 0.022895705 -2.6064522 2.423226 -1.2958746 -0.89708245 -2.8677957 1.6267842 1.5344499 3.9505994 -1.408638 1.6767923 5.638365 -3.0757017 -1.44105 1.5487331 3.625683 -1.6707447 2.3430521 1.5248575 -4.9011893
655 2.888061 -3.5745463 0.35903683 -1.8705252 -4.4848504 -1.8683677 1.6132488 -3.8457494 -5.3397985 -1.0516634 2.2718349 3.0323062 -2.360478 -2.4588423 -6.15797 -1.8052897 -2.034755 -1.479039 4.840497 -5.0554605 -6.9892716 -5.0867057 1.8263289 4.7035494 -2.9488177 -4.7263393 2.8608224 -3.5299642 0.7371504 -3.4587605 -4.723211 0.7274676 -0.9654858 1.9884511 1.1934291 1.2572968 -3.111105 1.4628477 1.7421688 4.970295 5.4909325 0.27517927 0.4754161 1.1389012 7.5603285 2.168401 1.1570584 6.6497035 -1.4944861 -3.768083 0.3721394 -6.2511525 -1.2053305 1.6835732 -1.334608 0.2292581 5.4478626 4.6820526 -0.7612584 5.4668717 2.049116 4.036563 3.2069914 3.041663 -4.139032 1.3984212 6.8130608 1.3096322 -2.6974716 5.085251 -7.840852 0.4717982 8.28104 3.5922225 -1.6222041 0.6108656 3.0196884 -4.680033 -2.0624833 -5.587362 -2.6164174 3.4101553 -1.3128399 -0.9773714 0.3963908 -7.119109 2.1564803 -6.11764 -3.2501328 1.2075683 -3.7890797 -4.0665555 3.2463028 -2.1128266 1.4664264 -6.801804 1.654594 0.16157578 -2.138856 0.40877032
193 6.3456583 -5.8495913 1.085715 2.4389057 -1.4489034 2.0865526 0.49698833 -4.732969 -4.7885756 5.740871 -0.4446247 5.0173025 -0.95045865 -1.358295 1.7990783 -6.2366138 3.888006 3.0499525 2.069632 -1.0893743 -4.540739 1.1046677 -1.765833 -3.1502166 0.24223529 -7.6424003 1.6900371 4.8493905 2.1197774 2.7325528 3.5048213 -0.8698651 1.1994014 3.8030064 -6.656654 0.46861237 -3.7635546 2.2431946 -6.2119412 -0.5468876 2.0201502 5.0726686 -1.0630647 0.7228385 1.0101264 -5.626972 -2.8484855 -7.572484 -3.5862658 0.22090581 -2.9992495 -4.6054807 1.3112923 1.5697725 -2.4002187 0.33407056 0.48197398 1.8161812 -2.8462903 4.139308 1.9857116 0.24676514 -2.4511604 -1.8083322 -0.4096652 -3.8742826 -4.165096 -2.8190842 4.308953 4.035294 -4.364755 -0.25085977 0.88651836 1.2108302 9.155478 3.5461407 5.6586385 4.0964074 6.816603 -5.294986 3.973506 0.2931725 -4.773986 -6.488261 -1.1423004 -2.312423 -0.35033405 1.6742837 -3.0504544 -0.64399546 3.8393974 -4.4905643 1.6554948 -1.8841013 1.7244046 -4.808645 -5.2346864 3.4049108 -3.4228237 3.4932952
351 -0.73927844 -1.9506214 -1.0903581 0.36183882 1.087619 -4.6376953 2.2344775 4.8139853 4.5430837 -0.8035258 -7.16804 0.26202828 -5.3792458 -0.6020282 1.7047998 2.2373803 -0.24367338 -4.9710035 3.3385599 -0.6871476 2.777212 -0.40108436 -0.53398263 0.616114 -2.0162807 1.5794407 -3.0204768 2.636963 2.132948 1.5736575 5.821563 0.90007585 -1.5970895 -3.5029776 -4.7946696 -0.73629117 4.297847 -6.223604 1.9248197 4.224991 -2.806068 -6.354736 0.5335474 4.045214 4.038463 -2.6077104 -2.363886 7.365384 -1.9300106 -2.6618745 -3.896717 -4.164512 -5.2739377 -0.6115609 0.05506891 -0.43491405 0.7428539 0.02790478 -3.0561883 0.45936733 -0.88745004 -0.89434344 -2.4030483 0.66118544 -0.23601112 -3.2453916 -3.5557113 -3.2059417 -5.847599 0.98751265 -1.271312 0.8890685 -0.7512853 1.7100059 -5.879233 -0.31789377 3.8704293 3.0414848 2.4268208 -3.8987787 1.734643 -1.669151 0.87147 -0.7494218 2.449149 0.4132411 1.0310181 -6.3520103 0.28266189 -2.532103 1.0341662 -4.4704227 5.18701 -2.3597426 0.08651186 -2.6654313 -3.361644 5.607983 2.1021423 -7.5458803
1444 -2.1983168 1.5294752 -6.010121 1.691301 2.103655 -1.0782086 -1.978299 1.712543 -1.6531687 -1.4458148 -2.5810351 3.2233794 0.78529197 -3.0394635 2.319096 -0.43952337 1.1538192 0.48126206 -2.9743993 5.674303 4.0715823 2.475928 -1.00212 -0.3972206 -0.25114077 -2.8002088 4.5916934 -1.8087603 4.548925 2.8695884 -1.9336674 3.2503915 -2.714414 -0.39832962 2.440863 -0.57210976 1.191818 -2.5953817 -1.5989916 -2.313721 -1.4002669 -3.0653849 4.4345813 -4.1556845 -2.2799091 2.3377092 0.50755924 -0.5679505 -7.038347 2.5879717 2.0601182 -0.19221696 -4.0418973 2.816676 -2.584499 1.7138302 1.8071582 0.29920197 -0.14275251 -3.8076844 -3.192807 -5.3969913 -1.4043941 -2.9095867 5.1826286 -1.7708589 2.8158152 -2.3038256 -4.2299395 2.4716747 -4.9795732 -2.2183049 -0.050112616 -1.6365147 6.6663213 -4.445845 1.2682992 -4.3272967 -0.2827468 -2.4236932 0.5230184 3.2451587 -1.3120096 5.5484147 2.7884185 1.3185973 -2.213622 4.335531 -0.73708594 -0.5554573 2.878712 0.79610115 2.584267 -2.5264974 -4.0972133 0.02965013 -2.2189467 -1.0620962 -1.1592293 7.6314416
872 0.12364617 0.51242054 0.48406917 5.542907 -1.2707856 -1.0568044 4.133478 0.8166135 -1.5248296 -3.749037 -2.0244174 3.078231 6.08965 1.9607111 1.229651 -4.2479134 -0.62188214 2.6570835 1.9323137 -0.06775603 -1.2008814 4.8242536 2.5893335 -4.876846 2.100119 -2.5325866 -3.4424248 -2.2153387 -0.62523097 0.46179822 -0.7032424 2.061295 -0.3236799 -6.3181806 5.4081154 0.49372885 -5.635131 -1.5410122 -2.3812828 -5.6033316 -2.4014032 -4.681305 1.8245153 -0.30512232 -0.82657826 4.8161426 4.7484856 0.97068226 1.8499901 -0.20388535 -2.2234256 2.0989792 4.96728 2.6982706 -2.6903787 -1.5891962 -6.603539 -4.1307693 -3.2062578 4.1972203 -0.056962747 -7.6083612 -3.0041795 -8.078538 0.18210454 3.8094752 0.49897948 -1.1016545 -0.764194 -4.2072525 0.72535527 2.866138 3.426832 3.1718013 -8.320004 -1.5040553 -4.415782 -0.05058669 -1.2634455 0.58509344 -7.619663 -2.067951 -3.2579498 4.539507 -2.4096847 -0.7172518 -0.8416477 -1.836593 0.66467005 2.5356207 9.220916 -0.11438151 -10.263621 -6.2397704 1.438428 3.6867554 6.366948 0.11640062 3.5157933 2.3365207
501 2.2291563 -2.0258574 -1.2287334 1.8185844 7.993899 3.1293275 5.2062907 -2.520448 1.1637393 -3.361981 3.8055384 1.5443864 -1.9359589 1.0372359 1.2498994 8.21159 -0.11711213 -5.720488 -2.7507696 2.7013505 -6.0432076 4.080968 1.4349937 1.817623 5.6844826 -0.3926938 3.3887575 0.257229 -0.21095313 2.5797756 3.2363677 -1.7122366 -4.876634 -4.60758 -0.3297722 -3.0160933 0.21009618 0.14353378 2.2155697 -2.2116032 4.2822113 4.452979 -5.6652946 4.6390643 -3.1579475 -2.74952 1.3762274 -0.58069605 -5.1763487 -0.5494982 0.19656813 1.5711 2.123767 4.188325 0.75748146 1.0838498 3.8082232 -0.51341605 -0.6503537 1.6316577 -3.1061058 -3.3459232 -1.4526725 0.8932838 -2.3852315 -0.9327653 -4.4824953 2.9140139 2.8201203 -3.8083029 -4.1908402 -0.19124043 1.7830043 1.7517415 3.9154253 -0.17588523 12.574827 -0.22560348 1.5320451 -0.65355045 -1.1476598 -2.0305476 0.39626625 -0.4063961 2.2656012 -5.404089 0.8726891 -1.1953607 0.48150107 0.017772067 -4.322682 -0.55206805 -0.48073584 3.2110574 -6.411098 -0.37060142 -4.25436 5.7874556 2.4913845 -3.7360013
117 1.5747386 0.04300633 -1.6095501 -1.7703903 -1.1617926 5.3379664 -5.587785 -2.7303622 -3.7157495 2.5090184 6.0260634 2.986547 1.7024264 3.631654 2.39632 4.103994 0.76809007 -2.2803605 -5.78534 -5.445113 1.0384829 2.0083218 -7.2676616 3.4430933 3.3322005 2.5523746 -0.30438414 0.22733012 -4.0317354 0.4548001 3.2107735 0.65660995 1.0166564 -0.85525304 -2.42596 -4.095142 4.6592965 2.1441755 -2.7728443 -0.26733497 -1.3265386 0.21005212 -2.5233405 1.8884195 2.0321748 -0.30033687 -0.48328933 -7.055922 2.4974694 1.7815262 4.910833 -0.34086138 -0.95685387 0.056083106 -0.93016195 -3.8603864 -2.8593795 0.11302368 -2.687555 2.8624382 -2.8791072 -3.8964486 -1.3828236 3.5113027 -5.3026814 1.549705 -1.3487059 -3.7758172 1.8279326 -3.2350757 -6.587834 3.401244 -3.2245038 -0.06947927 -5.0044103 -1.1696805 -5.304974 0.9530432 -0.9042094 10.350599 -5.9947147 3.6538632 2.4994166 -2.7321336 1.5940272 -0.2512455 5.189775 -4.797581 3.0775285 5.6663885 2.413701 -3.0289805 -1.9572889 -1.2683746 -3.0021985 2.4706743 4.4987707 -1.675694 -2.3404763 6.412947
1215 5.219868 2.6898715 0.8625123 0.97313213 -2.0383387 -3.1420743 -1.2666711 4.9233203 -0.9411741 -3.5836935 -6.1147127 0.3071465 4.9863462 -2.6116815 2.5205228 5.6192465 0.28434896 -2.689622 1.7127554 -1.3296875 2.9336195 4.492354 -0.47315094 -2.4410508 -1.8686982 3.2746844 -4.866902 2.700645 3.2014785 3.020387 -5.0362806 2.8339775 -1.9798069 2.9261694 -3.422373 1.2364644 2.0423405 -0.048496556 0.29657638 -4.067348 -1.4798211 6.155439 -1.9476637 -3.1663327 2.167649 4.6785793 1.1766566 -2.2141612 2.6852913 0.115838416 -1.5039412 5.438288 -4.8460546 -0.7563553 0.21764179 2.7815773 -0.05450526 3.2231 0.73992836 0.2480507 -4.78623 3.6501067 7.4129715 -2.9218836 -0.7507832 -4.2362833 -2.4723263 2.5938017 0.62392837 3.9469266 1.9003409 -2.1719632 -1.8860745 -1.7692611 -1.7286711 -3.3036165 -2.56099 -4.296022 -2.8630226 -4.0551715 -1.8076808 -5.0064135 0.7125047 -4.6453524 -2.2195182 -5.5512033 3.9825237 -0.072662584 -2.0873964 -0.60900134 0.11566158 -2.446266 4.9055247 2.8058596 -1.5579739 3.7504382 -0.040276654 5.1641216 -2.7179337 -0.34985638
1502 0.27827275 -6.3124857 2.95573 -3.2236273 0.41870576 -2.7512171 -2.7242353 5.5337744 -2.3913224 -0.69861174 -1.8652598 -0.57864964 -1.1499763 -0.0078380415 7.9896946 5.6197596 -0.0360982 -1.723192 6.06843 2.8876023 -0.9586441 3.1725008 -0.3055098 -2.1077306 -2.661477 2.2119646 1.773133 1.8664459 3.3668542 -4.427791 0.9865844 -3.387198 -0.83502585 1.6898345 -0.5545966 -1.7379192 -1.8503163 0.21329354 6.3928685 3.357831 4.2833743 0.16086307 -0.5237116 -3.0419912 4.771302 -1.4514546 -1.1666774 0.1312323 -0.14956868 -3.2430267 -2.9200919 -3.7446532 -5.372928 -0.24816145 0.07283147 -2.7888556 0.7342297 -0.7347933 -2.5432522 4.703613 0.9108881 -3.1593513 -1.5781858 -5.2203503 -2.545018 2.2063036 4.901682 -0.80568427 -0.96380943 4.75325 2.5937133 0.049838375 2.602558 -1.0294137 4.1447577 3.2174985 1.1317885 1.0956187 -4.289855 -1.9908438 -0.13283549 -0.3919119 2.3460588 -5.1709013 0.15560906 -0.685342 -3.9461792 5.8320956 0.2543494 0.12061039 0.20673768 -2.0435903 -0.22418524 6.3738904 -0.75934875 -2.1820383 0.826412 0.3733359 5.1053114 -2.0475721
113 3.1984363 -1.222705 0.35246274 1.2922311 1.8610065 1.7745765 1.8828713 -0.38941762 -0.93239546 -2.860852 -1.8858958 -1.1951282 -2.787095 -0.13923265 -3.6344657 6.5301094 -2.612188 -3.071061 -1.5937108 0.41016147 -4.997774 -1.6636317 -1.7808453 3.25341 3.8920987 2.0013878 2.1150331 -0.12475575 -1.6655382 -7.6857777 -3.1265905 -3.8488915 0.7867239 -5.3047123 0.19681899 2.3636634 0.81047356 4.961321 3.2540586 -1.5665352 0.14656027 -3.2947156 2.195021 2.0517867 -1.4363691 -0.1106858 0.24556167 1.3497255 -3.152826 -3.1647077 0.87945163 -0.27414176 -4.5397506 1.0148803 -1.5563897 3.1108546 -1.5327606 1.8724296 -4.3100414 -4.4044967 0.8938351 1.5549629 -0.07413861 -0.38488406 1.2326862 -2.121292 -0.6323456 1.4789196 2.7346642 1.9081633 -7.1302505 -1.0511702 0.4596337 1.5181954 -3.846856 3.3512416 6.4543242 -0.44493335 5.7246246 -0.86505693 -2.034395 -1.6453406 -0.6406447 3.2510934 -2.8207016 1.3020301 -2.2361865 -0.6047159 -0.38262758 -1.1274459 -6.101252 -3.050485 -0.88924795 0.9862165 -3.5474136 -6.536837 -2.5960982 7.917559 2.310381 1.2006116
612 0.6778329 3.2535133 -0.25657886 4.7567163 -2.2591734 3.3456 4.789617 -4.5817533 5.4590473 -0.48044744 3.1012194 3.938942 1.9966168 0.19063418 4.2675495 -5.98441 6.076585 0.71624404 6.105956 -1.9311022 -0.22231832 2.5160222 3.8861701 -2.367378 -2.5714843 3.032216 0.27380857 -0.33262601 2.0668273 -3.7974458 1.0673941 -1.4522208 2.0973132 -3.6893373 -1.432717 -1.7009401 -8.470745 5.214372 -7.391747 -3.3072863 0.13710201 -0.45422143 0.6460673 1.6448437 -11.309628 -0.30879888 1.6567756 -4.043877 -1.0230116 -0.14620966 1.2031525 -3.0553596 5.608391 5.3295846 -3.8956008 9.058317 -3.281062 0.8390908 -3.433223 4.4895415 -3.660493 -1.0998217 3.7817843 -1.2933933 1.0577747 2.4184408 1.5866164 -1.5120797 -7.053122 5.367875 -3.4494643 0.6576427 3.691278 -0.036902025 -5.518375 -2.8398645 -0.79769105 6.3659973 2.981128 1.1382215 -5.843652 3.3211312 -4.213722 2.636341 5.3826513 -5.3312864 -1.8916686 -0.7069621 -2.570607 8.080197 1.139949 0.79741055 -10.852667 -2.959218 -1.8601465 4.748376 1.2964193 1.5810275 4.455264 -2.529156
523 0.94493294 -3.8687818 -1.2265078 -1.7438797 0.2068976 -1.9042245 6.439757 0.45118698 1.5178474 -2.371458 -5.561988 0.08065669 -0.45592472 -1.2314469 -2.0964847 1.8089128 -3.6242108 3.678625 0.5085169 0.6472052 -1.9800406 0.89296424 1.8700254 2.093426 3.7306159 -1.758211 0.14973664 2.717638 1.4246222 -7.980804 5.7429795 0.68675524 1.7787578 -1.4483842 -4.822774 2.3827708 2.5818007 -1.4343299 5.8562837 0.12329096 1.4637641 -5.9362726 6.955927 0.08306188 1.7623701 -0.7232174 2.915495 -0.75398374 -3.3133593 -3.4034586 3.580329 -1.5469173 2.9183295 1.3043368 0.5568362 3.5972424 -1.288061 -0.67451966 4.604703 2.1481946 5.029012 0.10474725 0.4705311 5.0516257 -2.016846 2.4345932 -5.6031566 7.775463 -2.4037573 -1.7778513 -3.132301 6.68889 -3.9001 4.905309 -3.7046745 0.5632891 2.111448 2.9310777 -0.34064046 -0.9138007 -1.2152822 -6.235674 -1.7761251 -1.0602905 -2.2732105 -1.8514484 0.38971937 3.1713781 -6.465087 -2.0184734 3.9698648 0.37733856 2.5065515 2.023958 -2.5081391 -0.17208298 -3.307709 0.8898121 -0.22819184 3.0407586
868 -0.09443933 -7.2748065 -6.428681 -1.5393738 -0.10467256 -1.6396804 -0.51313686 0.08698652 -6.2150416 -0.20359969 -0.1395272 -2.7917693 -2.663795 2.6368885 -1.8467964 -1.562223 6.9130073 -6.3283935 -1.7071378 3.9434247 -2.4913135 -3.0615911 -2.9431536 1.6946491 -5.189428 4.579055 -0.08087893 -3.214723 -0.27217144 0.10864909 3.276886 5.884617 1.6650189 3.5718503 1.0082757 6.8696055 -5.3571277 -2.4509823 3.0203142 1.0365114 -2.4525838 0.7184447 0.35423216 -0.8291537 -3.269517 -5.060409 3.1124206 -1.8980546 0.7042759 -1.7396009 -1.8071184 2.6666226 -2.5445087 -2.7900598 -1.3195164 2.9561899 -11.913207 -0.6701946 0.6974428 -1.2341706 2.619644 1.2418483 3.8629806 2.5524929 -1.044232 0.12631898 -1.2257371 -1.9262741 -1.3818779 0.36263257 4.9408803 -0.92132187 0.05580037 -2.7524211 7.2654023 0.4519826 1.251661 -0.793968 3.7856915 -0.07821469 3.5614874 0.06657649 1.7012862 -0.16698828 0.007899156 -2.4332356 1.7083094 -0.9581468 -0.03452675 -3.6985934 2.8478887 0.35415015 -2.6277988 -2.8064277 -5.003676 0.59707993 -3.3188536 0.69987434 -4.4016805 3.811688
206 3.8534102 -0.7039412 6.113649 2.2455075 -0.2214227 -2.0150144 0.48529798 7.953454 -3.6630797 -1.6328343 -0.46021277 -0.059620332 -0.5433624 -2.8757088 0.7051028 -1.2823889 -1.2793957 2.0127418 -1.0569887 2.1325057 1.610032 3.9942234 -0.6455148 3.4919963 -5.270701 -1.7194276 1.4431527 -3.3313131 -8.073025 2.0023785 3.92386 -0.19231893 1.4873515 1.0274572 -2.313778 -0.4883488 2.5902078 2.5860806 -5.5075197 -2.7968214 4.9302826 -0.9928732 -0.7083015 1.961761 2.232381 -0.48533323 1.8447628 -11.768789 8.208318 -1.2113669 -6.29402 -3.1343095 3.0400107 -0.09146637 2.089558 -2.8125966 -1.2298005 1.5466528 -1.1530591 -5.3623767 0.54338336 0.6097861 -2.872462 2.7288194 -0.9059012 0.43996122 0.1425777 2.9759614 -4.3085546 2.6376524 0.6623819 -0.04239362 0.8302176 -1.8117218 -4.273102 3.8517191 -4.450406 -2.3853028 -1.3493594 -5.736196 1.8234316 5.8393145 5.5051003 2.2212498 -2.6580465 -0.43246895 8.028976 4.865542 5.5599666 -3.5328603 -4.2054167 -3.5243118 -2.7915473 0.5510736 2.4143767 -3.0340703 -0.057149287 3.3194196 2.3211334 0.037461776
1293 7.2036076 5.158817 -4.702348 -4.7108297 1.1483508 6.9555497 0.2813011 -1.4491581 -3.9449682 -1.3462441 2.2640638 -3.0901783 3.449735 -5.152163 5.874568 2.1305764 4.47489 -3.1640267 7.508535 -1.9367545 5.4991274 -1.225362 0.31718037 -1.6582825 -2.545516 -2.2575862 0.271291 0.1274374 -2.069952 -3.1281986 -0.52884275 -1.64183 -0.18321265 -2.3541725 -2.0954268 -6.83777 -2.1583085 -0.14920285 -3.2294648 -2.5085213 1.4234755 1.5695633 2.0714173 -2.6909928 4.6618347 -5.151071 -3.2123084 2.7075496 -4.102033 -4.345231 1.5218772 -1.143091 -2.1592884 2.0480273 -4.2761674 3.6266332 3.6334026 3.7477794 -1.5720551 1.7366811 4.0758476 3.0062673 -0.23789275 -6.0321436 -0.05491932 7.119103 -1.1713613 10.122137 0.38043278 -8.985921 8.332822 2.0809152 -8.532726 -3.457305 2.5349343 1.3817978 -4.169041 2.342013 -0.8347514 7.3320823 -3.920513 -3.3811758 8.712346 0.827259 -0.6626935 -1.6408582 0.8242672 -1.1706322 6.2381806 -0.33644384 -3.2957134 -0.913107 5.548527 -0.4661502 -0.36034957 -6.038112 2.2216177 2.554201 -0.0298852 2.174748
258 -3.1769364 -4.2363563 2.4413133 0.4703043 1.7424109 0.65643626 4.0513334 0.7197575 -0.77551883 1.0320953 -3.201674 -1.8715241 -0.79935825 -3.7724032 -2.3769953 6.096595 -3.8571367 -1.6126236 4.9039636 -2.4541821 -3.2921047 -4.1176715 2.3750327 0.70353186 0.5557978 1.2486849 4.295176 -3.600296 2.0865798 -2.6230922 -0.6455578 0.09371448 2.7929661 1.3813689 -0.327535 7.240999 -0.05525789 1.4411423 7.7874975 0.07863233 2.225941 0.8800159 -0.7798437 0.6023713 0.5694575 -2.08868 -0.98601097 -3.5482357 -0.6269032 -3.4703443 -5.045174 -6.0416427 -2.8424556 2.1501212 0.2142239 -2.2996402 0.52786714 -1.0306914 -2.2840805 0.36120313 -2.6507518 1.490616 -0.9075781 -0.27251974 -3.1147637 -1.2230349 -1.9614394 1.4547399 1.6597192 2.079607 -3.9632454 -3.6193426 -1.4145491 -1.655865 0.09068495 6.9248343 3.8735814 3.7352786 3.5280485 3.171636 1.2069049 2.9364467 -2.1850088 0.60550565 -0.097391285 -1.9329666 -3.7006173 -1.709256 -1.9170467 -1.9547911 -0.8370137 -1.3260368 -0.39995444 1.7753755 -0.8217841 -3.0431788 -1.7908216 1.9759666 -2.984272 3.4811292
616 3.2328649 -3.2752185 3.1472082 -4.01052 -5.9852524 3.3456357 6.0097265 3.461287 4.444625 -1.0822326 -1.7434821 5.677939 -3.682386 1.213253 -5.65998 0.9105795 -0.59251344 -2.986425 1.4323992 1.2246251 -0.14082804 -3.3803823 -1.7895665 5.347902 2.3892696 -0.1298706 -0.9434536 1.1741409 -1.9970889 9.312141 -4.346314 1.0382668 -4.4683237 1.5423107 -2.5896351 0.1306068 3.113849 -0.70353615 -0.8993974 -0.11342396 3.902331 -3.3490021 5.0551934 2.3582106 -0.8725477 -5.2196684 0.6137669 6.5469174 -1.287387 1.6017729 2.981567 -0.6195145 -2.8727214 2.3455634 9.599762 1.0237085 3.6079628 -3.440072 -0.10453602 1.3770112 -2.696422 0.06783837 4.447081 -4.1652284 2.0024283 0.3147224 -4.6589437 -1.4335908 -2.0234478 0.9085323 3.3741152 -2.7471628 6.2641473 4.808963 3.2952402 -0.84959245 2.1051135 -2.4426794 -1.739272 -2.074786 -2.7056825 4.37496 2.24913 -2.285117 2.4231074 -0.3005573 -1.2853873 -4.6943626 -7.414109 -0.09880131 -2.4052334 -0.095798574 -0.026258627 -1.4452618 3.8494694 -2.0368917 2.6740336 -4.3192835 -1.489422 -4.5650477
363 0.071540415 6.435909 -2.3139672 -0.44682693 3.2797158 0.056208007 0.00064069655 -3.006123 -1.8740848 5.663602 0.18152937 6.1417336 8.754941 -1.981663 -0.89923686 -0.747429 6.776837 2.5460968 -4.2712846 -5.63378 -1.5752342 -1.1599095 -2.4449744 5.2791843 1.9697144 -4.658629 2.697676 -1.8520192 -1.8135532 1.3646251 6.991193 0.52296 -0.5818561 0.7666876 -0.90108335 -4.932836 3.2202766 -0.65422773 -1.8417847 0.16700038 2.896845 -0.2304386 -2.3925686 -0.21910146 -5.5812807 11.853798 -1.4765081 1.0755563 0.9505657 -2.2483795 1.5494924 -1.0966924 0.57540166 7.6025715 5.9689193 -9.847999 -3.002515 -4.7844715 2.0254495 3.2737937 -0.6719964 -10.532642 1.9314265 0.45823768 -2.5192263 2.3719127 2.1712172 -0.16556433 -2.0287423 0.25887495 1.0994422 -0.37774742 -7.402751 5.9659743 3.3767369 1.7976352 -1.8552781 1.1304849 -4.235158 -0.70475703 -0.21717577 -7.331832 5.086939 3.26595 -0.029701198 0.29002103 -1.9678075 0.273382 3.7732391 -3.0873137 -4.1980166 3.2156796 -0.6425972 0.4887855 2.8844368 -4.548253 2.8845465 2.0154314 5.612228 2.1955078
120 -1.7626193 -3.4477625 -2.2835257 5.6688085 -3.4211328 1.3802278 2.83404 2.1433935 -4.492071 2.3727145 1.167945 0.57245564 6.218206 0.7413844 4.1939225 -2.9123101 -6.715138 2.3244088 -8.324072 -0.45703685 -0.63413584 -1.4578353 -3.5599666 1.4258602 -0.9936664 4.9811716 -1.2815014 0.42973816 -4.387955 1.3159845 -2.3032358 -1.1803575 3.155622 -0.015612734 -2.1437213 -5.762438 -0.37159127 5.23911 -1.6338305 -7.5064373 0.41410452 -2.6787212 2.3954256 -0.5253279 4.982771 4.502085 -0.48265824 -2.936307 4.909351 3.0192447 2.7036529 2.111505 3.4613006 -3.8345053 -4.6832957 -1.6329528 -3.5434854 5.238607 1.4230676 1.9957771 -5.6364727 -4.841082 -1.9722728 -2.22226 -0.9967396 1.6284904 2.5907826 -4.1605945 0.40501532 -3.8692782 -3.8501477 3.603128 -2.194265 2.3113298 -6.2809987 -2.813985 -5.8949003 3.1553974 0.5390028 4.5331755 -0.3426192 1.1307837 -0.9911786 4.2679663 3.3838317 -1.2480989 -1.7756647 -5.257266 0.35275206 1.7990328 2.9116278 0.7308948 -1.4851714 -0.9406512 2.7124963 -0.25227585 -1.4679397 -0.53782314 -5.255005 2.0833068
1466 1.2189595 -2.9697406 6.580641 -0.54476595 -5.275336 -2.1081913 -2.7075765 4.063113 -0.3749925 -2.428415 0.763452 1.1752079 -5.635363 -1.7162132 -0.8933019 -2.4470165 1.785629 -7.432873 -1.3199685 2.4429512 0.42891255 4.5586743 -4.189694 -2.3243074 7.2591558 3.567071 -1.4384601 -5.3278008 1.9487381 -0.81747663 6.4686356 1.7739818 -0.59015775 0.49479303 -3.6239202 0.3822231 -1.0512046 0.34643748 -1.9313781 2.5612485 5.183804 -1.7110624 4.905893 5.485025 1.4399055 2.6694949 0.9874437 5.612792 -1.0755914 2.02562 -1.8026123 -1.1746005 -2.601729 -2.6288533 1.3962116 -2.3489444 5.0332713 1.3190961 4.0345626 0.2994383 -0.3154054 0.6223959 0.80802494 2.3755577 -0.79164815 -0.5520528 2.566155 3.5087721 4.21435 1.5514861 3.012998 -9.831659 5.1844125 -1.5038124 4.041082 2.4171305 -4.0910296 5.7338486 4.165476 1.3608707 -5.3445153 -1.9527245 -0.5243449 4.168644 0.61133516 0.502587 2.4656394 -4.712181 -0.6309319 -4.110303 -0.7395131 7.9770403 3.983108 -0.6323846 -2.7218707 2.456161 -0.35573095 2.1003783 3.8539608 0.2649648
710 -3.8941286 -5.499091 6.6522717 4.4848275 -2.7713342 4.5214696 0.67823267 -1.046848 8.0754 0.73861927 -4.4846506 -1.2012154 1.968945 4.4797764 1.3009208 0.7743775 -1.7264274 2.936823 0.9302282 1.2826056 -1.4811615 -1.5937569 -4.970279 -2.627704 1.9191377 -1.6022114 2.527299 3.311327 2.4193938 -6.9417863 2.7558675 0.9179458 -5.2772136 -1.5830945 -4.234741 1.8220664 -1.7742409 0.32531434 0.45352644 -4.3144336 -5.0684247 -0.6185315 1.0208336 -0.7484495 6.062353 3.0809548 3.1511135 5.0321527 1.8411155 -2.1399562 4.2147255 -1.317729 -1.2537465 3.9650838 0.6668757 -5.0601187 -0.81503767 -1.6030557 -8.643002 -5.126801 1.759308 -1.2618184 8.818168 2.6426797 -2.119014 -0.7632351 -1.2670678 -0.20889194 -0.45493093 -1.2003244 2.8240001 2.8491776 -2.6263206 -3.0813785 -4.0947647 -0.83044523 2.1316555 -1.1482431 -0.56936246 0.63618386 2.744101 -2.6540346 -4.285433 4.4449944 -5.94148 3.5735824 0.7605174 0.5506422 4.8649225 4.0910125 1.3506622 -2.265987 0.8483122 -7.1095886 -2.3304257 -3.8924518 -0.6208052 -0.619183 4.711391 -0.12808724
1005 0.70799685 -0.22461902 -3.1174965 -0.8841675 -2.4304297 -3.9039586 0.48353362 3.5786679 -2.983608 -3.1186454 -3.8621912 0.42197612 2.1170588 -2.5568469 1.6665131 2.0958452 1.3289236 -1.7072763 6.817614 -4.599534 -2.130172 3.2146764 1.5541594 -2.2312274 -0.26914278 0.22794499 -3.4468353 4.1952677 4.4656296 -2.8752627 0.25266525 -4.15181 -3.4418263 5.6413307 0.06322074 -1.6187856 4.9391375 -0.27165264 -5.995159 -4.3304377 1.2635684 5.0196614 1.168768 -6.657046 -1.6319766 -3.3900192 -2.8049881 2.4839604 -3.3957283 -1.6724868 1.7521368 0.11949513 0.48724905 0.7689864 2.9608085 -3.7454047 -2.076454 -1.7967916 0.5215423 0.31996837 -4.5503826 0.88625866 -5.2588253 -1.7959232 4.3855534 1.6885434 -0.5075428 -4.6790395 2.2428956 -2.8809416 2.5977736 1.8203219 4.439739 0.14294209 3.2836268 -0.5803778 -1.84118 -1.9072702 -2.1802351 1.3111905 1.3427038 -4.075271 -0.18427007 -4.939704 1.1683297 -4.662893 5.001747 4.9462357 1.3038121 -3.3870814 -3.8230445 1.3328005 -1.1514015 -1.8434515 -2.8492186 1.0335513 1.3885361 2.07208 -2.792066 -5.425232
783 4.7171597 -0.33685333 -4.5885315 4.830728 0.49735343 1.8834316 -2.2967703 -3.8709671 2.9624827 1.7162731 -6.5256686 0.47499502 3.6272893 -4.7346106 -3.9137568 -2.8322566 7.474453 -4.7973113 -2.0776365 1.8165354 -1.7262539 -4.1095147 2.1035345 -0.5673587 -5.8325477 2.195683 0.96170676 -0.70459366 3.5871396 -1.1575178 -0.1575502 -4.80561 -1.900727 0.04793528 0.78142434 1.9782608 -6.3203187 -3.0012481 1.3420451 1.8808963 -2.1589448 -5.208088 -0.6449556 5.117038 -0.17463978 -2.090066 2.210516 3.150685 7.840708 0.6331456 -3.3705552 -0.20846257 -3.2313998 -8.574242 0.6926373 -2.3116944 -0.86598414 -2.8597474 -0.15450858 -8.303133 -0.31493822 3.8424551 6.2193384 2.549417 -6.614438 -5.6244326 3.8730392 -3.1295412 7.3830247 0.89100254 -0.6597515 4.411893 -5.461818 6.0548387 1.0183244 -2.1570926 -2.4045954 0.18602918 3.890267 -0.22683367 -2.7257962 -2.3663251 4.7572155 -4.169542 4.2412567 -1.5007836 4.76205 1.538155 -0.48271447 -0.8839262 -3.4199512 -0.016177583 -3.2293932 0.8390626 -4.1049047 -0.36326954 1.1953797 0.13529179 -3.4362097 4.269933
580 -2.3191576 6.0478845 -3.0266104 -1.7910318 -3.901151 -3.374981 1.5055714 2.0334094 -6.391975 -0.30395636 2.4788892 -0.8097178 -3.7441936 5.9236474 -1.4951224 1.7567705 -0.1157664 6.3994737 -0.17737955 -0.5498526 2.158402 -0.12008159 -1.308709 1.1341962 4.565427 4.320284 -1.2874827 -4.8413205 -5.391219 0.009348273 -3.3325953 -1.8039725 0.7738198 -6.299817 -4.2494063 1.9198877 2.6075118 3.9275775 -1.8574787 1.8054367 -6.780228 -4.8893037 -5.082534 -1.6763904 -0.9304027 0.23484786 -0.8533227 -0.7988064 -2.2247741 6.8737206 -1.3015333 1.8514904 9.441375 -4.2885704 -7.224891 -0.53243613 5.11204 -0.22616728 -2.2996812 3.8868592 -0.10083989 -12.576587 3.7995622 -0.14791048 -1.1981305 -2.4765322 -0.7719717 -2.3020022 -2.5325153 -3.5987632 -1.103503 -6.540006 0.3173212 -5.911603 0.26317266 -3.1982255 -2.834457 6.554905 0.8905366 0.5011387 2.1955342 -8.341628 -1.6637188 -4.097161 2.4084353 -4.6986895 -3.1146612 1.7227341 2.7567346 0.023784664 0.91721946 -0.5566687 1.737921 -9.060477 0.43621066 1.807664 8.748574 -0.6679524 -2.9013894 -11.921408
606 -4.7020507 -0.10393511 -0.7705905 -0.4085251 3.52661 -3.1058853 -6.553082 5.527164 4.091363 -1.20993 1.2549022 -0.5047526 -1.4806294 -0.6180319 4.4210835 -3.085996 -2.0137582 -1.9825671 -1.1134899 -1.2375209 -1.4109844 -1.6626284 -0.99954325 -0.72602403 2.382967 2.6496716 -0.7863455 -2.051673 -2.1852643 -2.315189 4.1240993 -2.8913624 -8.000269 1.1876447 -3.0982096 4.67813 -6.5399776 -1.9330764 2.9482138 -0.76611215 -4.223104 0.7285852 -1.5819649 -2.9113817 4.383573 0.7307136 -0.054288812 6.5288787 -4.278493 2.465506 1.6594528 -5.255815 0.07481782 -3.104358 -3.175895 -1.0825465 1.4994378 -5.184029 6.2061644 -0.39497826 3.4276252 1.71536 -2.1877613 -8.041403 2.473628 1.3077507 -5.4949093 1.4888357 -2.7693958 -1.142548 7.016098 -2.3105805 4.581219 -1.0509578 1.2612449 -1.3451672 -3.850433 1.6382647 -3.9367437 2.0908885 -2.9477713 4.068252 -0.70296454 -0.7515085 -1.7039409 -1.5506117 4.0812225 -1.6715994 -2.1547043 -3.651128 2.4512122 -0.714397 0.5029194 -2.4520247 -6.237786 4.4037027 -3.8915997 5.181553 -1.6884271 -3.24821
1239 4.088715 -0.511803 1.2954334 -0.41624615 2.729644 0.5392536 -0.48299628 1.3434474 2.1142452 2.6548164 -4.2984133 1.9717548 -2.9143913 3.8934114 -5.73195 -1.9866722 -3.1210704 -0.8586909 -4.7376103 0.41825837 5.779642 2.2989311 -1.7590197 -0.050327692 0.48363268 -4.264679 0.19386974 2.8989143 5.461992 5.130999 0.51544654 0.40249923 -3.270827 6.1169467 -1.3959473 0.5688852 -2.6755576 0.5406956 3.8012462 -4.4953966 1.8752856 -4.255775 5.510055 -2.5281732 1.6968418 -6.0379286 2.9635677 -1.1280124 0.72471154 -1.4495597 2.9190028 1.8309113 2.8616788 1.3005939 5.1581798 1.1223866 -0.7493008 0.6382481 1.4627253 1.8387718 -1.2687018 -0.8658947 -3.6280794 -2.4134076 3.7706747 -3.6325366 -1.0576636 6.571899 -4.3458967 -5.538012 0.9501408 1.7942224 2.98875 -6.6235056 -1.1328219 5.776595 -0.019014927 -3.5385268 -6.2512197 1.8581483 -2.7809975 -0.843511 -0.5285421 -7.377173 5.0143023 -3.0916488 -0.41909683 -2.1623437 -1.1715153 0.46445963 -4.7728786 7.743569 -1.884968 -2.8052263 -0.9718955 -0.23826714 0.7331121 1.6772943 5.670412 -1.3498272
661 0.2920743 4.062127 -2.2233486 -0.5884748 0.06227602 0.09163092 -0.380449 -1.3444043 3.7810223 -5.4149914 1.854414 -0.50036937 -2.338568 3.6515405 0.12463036 -4.1331797 -2.733477 2.066437 5.40984 0.72892165 2.2285976 -4.6403704 -6.8091826 -3.7474449 2.3895254 0.88147664 -6.410648 0.5952251 3.1528337 0.061843507 4.229084 -1.209766 -0.461946 2.957585 3.1798227 -1.3089048 2.2997649 -4.7295494 1.7910609 1.3152083 3.983345 -2.0728185 -3.2411933 -3.1200614 7.271721 -1.0299387 -2.2226713 -1.39241 2.8882627 0.9431895 -3.1725543 -2.0398355 -3.007863 -0.061994247 -1.3428727 -1.4983299 -2.1855812 -3.9368334 1.0085267 -5.0827 1.0630361 3.2855232 -3.7678404 -7.5095253 4.921853 6.0623717 -2.0144534 6.087719 -3.137589 -1.7565023 -0.3079173 0.66906756 3.629023 4.260169 -0.55423653 -0.585697 1.7215601 2.190339 -2.9667487 0.68703246 -0.9975036 -2.7075331 1.4684963 -5.887849 -0.3597378 -6.1920776 -1.9372458 6.234178 1.2086416 -2.3935385 3.2992413 -0.30352837 1.3316312 -1.1173931 -2.6103756 2.0092983 1.8596474 -0.049947735 2.758469 -1.9623122
764 1.0427884 -2.6001196 1.4855553 -1.1312807 -0.99885976 4.657807 1.6716849 -0.09690698 -1.9117283 2.860778 2.4169934 -3.8501022 -0.9520725 -9.846418 3.4445987 -0.22573416 1.3570992 -5.9044414 4.1504936 -1.8960252 -5.3400154 -2.659202 3.1188262 -0.32125407 -2.7103915 -1.6974759 2.5762942 -3.9987857 1.9144888 -6.6613207 -7.025029 -0.386064 -2.529994 1.2347208 -1.3500553 5.9034047 -1.3515987 -1.3231474 1.9998193 -0.271904 4.537251 -2.4810846 1.671727 0.5395307 2.407012 -2.5653176 1.2189642 -8.310448 -2.74902 -0.14523844 -3.4046981 1.1924543 -3.012812 0.09057495 -0.9606784 -4.4548306 -1.795179 -3.287316 4.618572 2.8293917 3.4437175 -0.48115367 -3.0407138 -3.1240933 -1.353213 -5.165588 -0.9463421 4.394456 -1.5588936 1.442718 0.89894086 -1.5538665 0.9212386 -3.099075 -0.29328293 0.30846292 -0.8771541 2.9617987 -0.038842633 1.5595367 6.243818 -0.36247945 -3.2327118 0.029641781 0.7525759 -2.5656734 -1.043579 -2.5390518 1.5179888 0.071812086 0.38310397 -2.5876305 -0.25655243 1.2381015 -1.6293538 3.3180695 0.03416097 -3.9276078 3.2933357 -0.2375684
647 -3.7656763 -1.7038907 -2.3645995 -5.2906933 2.434116 1.6103184 0.3009182 2.6700149 4.6254554 2.920053 -7.7362027 2.413584 -0.48939905 -0.14026198 6.0818486 5.033952 -1.6570092 3.6026711 2.3112137 5.9932847 -4.44152 7.3616877 3.3325744 -0.18771301 3.1643186 5.4404144 0.9004583 -0.8796774 1.1490036 0.011396882 -0.7060457 -2.3869753 0.12327154 -2.9355783 -0.6109176 -1.9116223 -0.37914732 1.549708 -3.1084542 -3.4682431 2.0029256 -0.1163882 3.4436142 0.5070891 2.3584704 -4.4319983 -0.5411893 -2.473683 3.4549744 0.27640092 -1.9755712 1.3477596 -5.795714 0.3736065 -6.4689937 0.6142621 -2.0351045 -1.6122772 -4.705396 6.12528 1.6639876 3.147105 0.099982575 -2.8052342 4.792178 1.4272692 5.2137785 -2.0478213 -2.1077373 -1.7241321 0.52143216 -6.203665 8.261674 3.3855538 3.6835685 1.0166156 -0.21979618 -2.6627998 -1.7258648 -3.1317656 3.3002012 -2.0107324 5.0113463 -1.1287167 -1.6073979 -0.06438175 -0.9052692 2.1715388 0.5563165 -3.307552 1.8990746 -0.78428805 4.342671 1.2838504 -3.0351493 -2.4754927 -3.4169118 -5.544887 4.347645 1.2432799
776 1.9270526 -4.0791993 2.9503195 -0.41498852 2.8942277 -2.875728 3.0206652 -2.3160632 0.037296694 -4.7921185 1.8149842 -1.8683956 -1.328005 0.19097462 -0.99635243 2.424455 -3.6928642 4.0342274 3.1057427 -2.3331413 -3.503432 -1.5800294 4.3071146 0.07815815 -2.6857145 5.232766 -0.8296757 -4.592863 4.8490114 -2.9553833 -2.0658376 -1.8133495 -1.8385499 1.0965233 -6.09839 0.56803805 -2.7143674 2.343318 5.7666783 4.6797457 -0.09062336 -0.004009513 2.5315456 2.9819448 0.6499174 1.5908096 -4.336189 1.3322275 2.7273612 -4.8771367 4.919986 1.908887 2.7910118 -0.6068449 -4.37948 5.094677 1.9046085 -2.8482232 2.148852 1.365876 -0.2402803 -0.5201753 -2.2041934 3.2186399 -3.149413 -8.381157 1.6379786 0.26881894 0.005811553 -1.5117536 3.5427535 -4.4481506 -3.4427145 0.47441718 3.1520336 -0.5751035 2.4238358 4.468941 -0.31726182 0.49433577 4.117787 3.7765372 2.194724 4.0965014 -4.219648 -3.0600808 -2.718807 4.162561 1.6856542 -7.466799 1.2207283 0.33616275 5.477441 -10.241414 0.096940584 1.2806296 -1.3601983 0.74832106 -0.4223907 -2.3705604
208 -4.4075356 1.1246984 -0.6892808 2.9030788 1.9804306 3.6448877 -0.52991235 0.20787276 -2.1722448 -3.1477005 -3.1074312 -2.4108014 0.45900717 -0.8774004 2.1693776 5.856798 -0.70355797 -1.8079704 4.6380377 -2.240852 -3.6054292 -3.0337477 -2.8065498 -1.3073456 2.3813295 0.46823856 1.5475293 -4.514324 4.114906 -1.8585749 2.3088057 -1.7076087 -1.0763688 0.42199957 -2.376206 0.4871661 6.765394 7.560905 4.524983 -0.28522748 -0.55785453 -1.1025195 3.699651 2.2317915 -3.1626775 0.6160429 -4.192514 4.1586876 4.170133 -4.038601 0.47078586 1.3085269 -1.3605621 3.5323906 0.6775643 -0.45587045 0.55568707 -1.2145206 -1.8163567 -0.8487919 0.59647274 -0.7891286 2.998987 -0.8162168 2.5419977 0.8044109 6.7226834 1.940056 1.9677006 3.8461902 3.5839987 -1.470171 -1.66202 0.50833255 -1.4460785 2.7291226 5.4717283 1.6318307 -1.5147179 -0.43132025 -1.9047103 -2.0321438 -6.552125 -1.511905 -3.2972302 1.039082 1.8762691 3.5482297 -1.0454495 -3.09476 -6.176749 -2.9787471 1.170353 -1.614806 -1.7925463 -2.704654 4.9011774 4.2859716 -3.9856002 3.2403233
678 0.77206427 4.3125567 -1.0304999 -3.1761444 -1.1387995 1.0311563 -0.7397847 0.06092722 -1.3954618 7.829089 2.416385 -3.5270028 -0.6080347 -0.35131323 1.7471609 -4.6976614 0.45392388 -6.8451533 5.2909794 3.291964 1.8659996 6.140458 2.5386393 0.09115749 -1.1462057 -2.9412174 -7.4551253 -4.290709 3.0645034 -5.176158 -2.8404043 3.5706778 -7.131968 1.4265773 -0.9179746 3.157239 -3.9857557 -2.9573138 6.7552423 -1.9704559 -0.3724234 2.2969675 -4.8412905 -0.29862505 -3.432063 0.49162182 0.47802112 1.559535 0.19064927 -6.953518 -1.7730125 2.0052912 -4.387718 6.007918 -2.969432 4.3289065 2.0862865 -1.3662815 -3.5104427 0.28927806 1.4272795 -2.6591642 4.577116 0.23988716 -4.8785143 3.7117157 0.62984437 3.584495 -0.9767821 4.0433564 -0.8169628 3.1491868 4.4422398 -4.2196636 3.8234878 -0.51302946 -2.766435 -1.9496918 2.3492715 -5.0908437 2.5728097 4.2576604 1.4195963 -2.5915182 -2.3098528 -2.2973678 0.6390886 -7.5217137 -4.6021805 2.3476787 6.042701 -3.1770718 -5.256576 0.50286376 -4.5281763 -0.81573784 -1.2532401 0.39672825 2.3813138 0.61171573
611 0.9607562 2.5137248 -3.8563912 -2.0369298 -1.9900377 1.5813236 1.3554673 -6.7043934 0.129703 0.9559451 4.5788836 0.4534476 4.5301256 10.573957 3.337041 -0.5763615 0.69301516 0.05506274 -2.6868885 4.282383 -3.7075922 -0.3554587 2.2465053 2.0467486 0.8485768 -2.1285024 0.51681346 1.3402758 4.6150265 -4.641334 8.504741 6.030054 4.268191 -3.1621487 1.3980126 0.058077563 2.797102 -0.7564777 2.2177935 -4.3732305 3.1261957 -2.7066805 -5.2087564 -4.360907 2.262035 10.521481 1.3499824 -1.7994137 3.6197045 0.26205027 -3.9869094 2.4437068 -2.6827986 3.784108 1.3014017 4.9820094 0.16105527 -7.0470276 7.0164614 6.562016 -5.7351017 -2.6717942 -2.0528963 1.9325922 1.7381756 4.6446238 -2.4017594 -0.3870445 3.431549 -0.0044179773 -4.6148343 7.6969204 0.20512 0.5849979 -2.5486438 -9.05403 -5.658424 0.83292717 1.4831971 3.2752337 2.1129816 2.5802531 2.2717159 1.0880905 -1.128395 0.34458667 -0.3369229 -5.794787 0.9024796 1.0420793 -5.0197773 0.2785708 1.1116285 2.154362 -1.0321641 2.4440324 1.0131363 0.28863114 0.086741015 3.2426536
697 5.64101 -0.18722185 -5.496895 -0.24159756 2.375332 -1.9634931 -0.0007386359 -0.18793155 1.4794729 -1.0152884 0.32231125 0.97235143 -3.601336 -2.6427302 -0.9348676 -0.2606697 -3.0612397 -5.4707804 0.81740505 0.46732554 -2.1594994 -3.8233533 0.024724921 -3.7463868 -1.2422197 3.923971 0.40861985 2.4993932 3.5086708 -8.866663 -3.3445587 -2.1599827 -2.876015 -2.9766438 -4.2838426 -3.6943862 -1.9094882 -0.44897825 8.496871 -1.5885532 4.213047 -2.322232 -3.1468294 1.6722217 -3.3827066 -3.3347971 -2.6935973 -3.948663 4.620236 3.291511 1.6835927 -3.013146 0.4121229 4.5504885 2.9045208 -1.2534783 -1.0362829 -5.53379 2.0744073 -3.3838322 -1.5031546 -2.8827927 3.7267585 -1.7739992 2.143417 3.4910376 1.5833145 0.5515609 3.0373714 5.4584956 0.4540692 3.7249067 -3.9831755 3.7483294 -3.7349474 -1.0425388 3.2574365 -0.66668886 1.0612961 -2.8035977 -0.24190299 0.2703607 1.2738055 -2.8535283 -0.2970591 2.9395783 -3.630825 -3.3031654 0.10637143 -3.9138093 1.4227422 3.5434248 0.57853657 1.6487147 -2.9774084 -4.297401 1.1810331 -4.0252304 1.7503937 -2.5803328
377 -1.898925 5.372032 -2.5800018 -2.2714465 3.8549201 -0.7396358 -1.28297 -0.425226 3.121008 2.2940366 1.3701663 -0.54912955 -2.8409534 -0.11326496 -1.3627099 -2.2638698 -3.4266055 1.7508012 -0.14917149 0.82227904 2.6818144 -2.880978 -3.051899 2.925327 3.4155228 0.29135066 -3.1367295 3.198197 0.9262846 -0.72499484 -3.1163042 -3.650114 -1.1300055 1.4357274 0.6732509 9.243454 2.651138 -0.78274554 -1.4289685 4.2636228 -1.1628306 -0.12402599 -1.3657088 -2.261958 3.2141864 0.3592196 3.435325 6.3139353 -0.36204246 -0.7038246 -0.62822455 -1.9422612 -3.536034 -5.846852 -0.35302246 3.452122 -8.874751 -3.5780647 0.33723217 -0.53889036 -3.2489762 -1.899242 -5.2783318 -6.421783 -0.14324988 6.476647 -7.41759 2.6798353 0.63595873 1.394167 0.37098408 1.6818871 2.8734705 -0.25620362 -2.9978175 2.8790324 -0.9194744 3.6519349 -0.44972068 -1.363726 1.5261654 3.2192218 -3.9976726 4.022796 -0.5154287 -6.530525 -0.6305043 2.5653088 0.7503369 -4.759082 -0.96825224 2.4050465 -1.3435198 4.397492 -0.67750394 -2.330185 0.37341234 6.1270795 -0.3566266 -0.8429554
1230 6.142688 2.0803766 -0.56780773 1.2527642 1.7159706 -4.459995 -6.268667 -0.26359254 2.4170494 -2.0980518 1.445791 -7.0273814 -4.9401436 0.7841008 -0.53707546 4.725605 0.32505697 -3.201453 5.001366 1.7790188 2.779864 -2.0226252 -3.03805 0.43773878 4.6331835 0.53813666 -1.4186416 1.7276174 -1.3588704 -5.437774 -0.04118149 -0.005692537 3.0798776 2.9274976 1.7603763 4.37477 4.3276525 1.1755863 -6.445746 -2.3598948 -0.3041173 -2.6007097 0.7785481 -2.8467672 -2.9968271 5.872968 -3.4760451 1.3064108 -4.338497 -0.4345558 -1.295861 -0.59864956 4.139597 -1.213603 3.3703573 0.6149639 -1.327014 -2.7366443 3.9119408 4.5896397 -2.9986095 3.2077076 -0.45578706 0.7217202 2.6192446 -1.4223155 0.08607415 2.079133 0.85396165 1.3111223 1.3138398 3.6155932 -1.7470824 1.040662 -1.9217612 4.7436314 0.16556588 -3.9960163 -2.3016064 -2.3637853 -1.6513157 -2.4080353 1.203897 3.0330856 1.2683505 1.2915539 1.4016474 -0.024312442 2.4123526 -1.5677146 1.7676316 -3.2279913 0.071129344 2.937436 0.2002321 -6.8336544 -5.5019417 1.9847548 -2.0006518 1.5946965
37 3.1551363 -6.076585 0.41744676 2.5130563 -3.0227616 -0.47214708 -6.550007 1.1677842 2.4548986 5.6231227 0.5671781 -0.7288482 -4.228886 -0.95178026 0.09999391 -2.6508405 -1.1926904 5.082857 3.931914 6.026849 -1.9756103 -4.57868 -1.6662333 0.38466498 2.4461253 -7.033103 -1.9139538 -2.0926921 2.08657 -2.7001076 1.4143301 -4.245413 -1.6322634 2.9404492 0.7393223 -4.264508 6.4727254 9.05941 -4.0143228 -1.0029263 2.4237933 5.432011 -1.1167748 0.52694845 -5.5632925 0.8515371 -1.4862676 -0.9762843 2.1754858 -4.1103063 4.7401643 -6.620062 -0.29423437 -1.7825197 0.54111886 5.07371 -0.6048938 -2.9225225 0.6449416 -2.207371 5.5586987 -0.73728514 -2.1635 -1.4360816 2.2447994 -1.4108835 0.300038 2.1404486 1.9813396 0.79062057 -0.11435647 -4.208058 -3.989146 2.6833894 3.197116 0.7215554 -3.7495723 -0.72778636 6.5801296 -1.7947296 5.851998 1.4631029 3.260032 -0.08020719 1.4469407 -1.2920996 -0.083284 -0.25872028 6.2071185 -5.9691644 -1.9614803 0.3048899 -1.6513044 0.15894748 4.197449 3.4955902 -0.92796427 0.9349594 0.58077145 -1.9179193
1207 -0.39191067 -2.2187939 1.1174827 3.6708035 0.35861543 2.2364237 1.7776777 1.6297102 0.98982453 0.4230339 4.8524003 -2.3441362 1.0315645 0.9882063 0.19993374 -3.2608266 2.4086008 -1.4136789 4.5289345 1.2627114 0.7765515 -2.1661224 4.9147353 0.5001507 1.92423 -1.4940166 1.0356716 -3.2927918 -2.549778 -3.0526607 2.4203718 -2.761907 -0.38165548 2.3745258 -0.7280532 1.6097945 -1.051427 -1.6014061 -1.4978127 2.2724977 1.8308662 2.8446999 2.3218272 1.8396797 -3.8418703 -1.1429582 -2.5451558 -2.8468409 3.9723933 2.9757 -1.5059534 -2.4622817 3.384121 3.461745 -3.4677365 5.2451024 -1.217276 0.41966662 -1.95822 0.3766902 -2.7775438 -0.9172627 -0.39415407 0.1097483 -1.650132 -3.7688746 -0.6074897 -4.207279 -2.9277744 -3.5095618 -0.30550757 5.201991 3.8137767 0.42108896 -2.0988352 2.5095599 -1.1140313 3.558567 3.4440951 -2.553633 -3.610454 -2.1974847 0.4513946 3.4772773 -1.8419394 3.637375 -0.13314949 0.044358306 -4.271983 -2.2997625 0.839829 -2.3092046 -2.1523325 -1.3078151 2.3479185 -1.4296373 2.5424647 1.7590786 3.5347807 0.7763758
1213 -0.5697103 1.4970223 -0.9414195 -0.5858388 -2.4785974 -0.79377943 -0.62705934 0.11340579 -3.193947 -1.115569 -3.631892 -3.2936816 -0.96902055 7.029102 -1.6871836 -2.5617642 -11.660205 6.0417237 -0.2632926 2.6356897 5.6837664 -0.66904 0.5930389 -1.3289768 -4.1115947 0.78430223 2.1672075 1.5734758 3.9535644 1.3177106 -2.2576497 -0.59443265 2.2526731 0.5478974 3.8553398 2.550851 -4.336806 -2.7465618 0.5888703 -2.6334724 0.150504 2.3901832 0.84626865 1.7182795 -2.3801355 -2.5117517 2.1013045 4.3531 0.4551561 2.3539822 0.5592186 0.9797806 -1.4664904 -0.82681465 -0.61970407 -2.6171186 4.256541 -2.2403402 4.7238708 1.867178 0.5225214 0.27374142 -4.352544 -5.0694485 3.124947 0.31180042 -5.310072 2.7773795 -2.9959254 -2.9064982 6.4659734 -4.120716 4.047916 6.0163054 0.89774597 -0.64284176 -3.365449 1.3177046 -0.4707959 -0.9639335 0.9206469 -2.4122334 0.24553147 -4.111203 1.5064535 -0.5605116 5.20563 4.9946895 -0.34636056 -1.976693 -0.39264953 -1.556624 -3.1160476 3.042785 -2.4834194 -2.5027623 2.594083 4.789904 0.50835395 -7.485943
240 -2.938128 -4.4984274 3.278802 1.2363485 -0.84936917 -1.1298004 -0.6931472 -1.9983828 -5.176627 -0.90292454 -1.2431004 4.4852166 -2.2149453 -4.9718466 -0.6140648 -1.6297065 0.5690092 0.951356 -1.150498 -0.43634942 -2.4294705 -0.72867286 1.9294254 5.4207263 -0.5608297 2.080522 2.8243134 -6.8131104 -0.3422976 -4.622019 1.1230751 2.633911 1.1228836 1.487555 -5.66119 -0.4072877 1.3501402 5.143632 -0.22064558 -1.0810637 -0.42691728 5.58918 2.382191 2.095656 -1.5718497 -3.3779426 1.2998385 0.89137053 5.1350617 -0.41181928 -1.3257443 -9.27515 -1.4060125 0.2933598 0.48171523 0.3949372 1.6579053 -0.8384497 -4.562355 -2.0947444 3.9501889 0.5162308 0.043627467 0.1941198 1.2993902 -2.016909 -2.0168812 0.879977 1.796575 4.4790287 -0.24728122 2.4519858 0.1694123 -1.5773958 -4.4511943 2.3586419 -2.8054068 -3.167686 -0.2853837 -3.0808055 5.8595514 4.24788 3.329668 4.231646 1.0036495 -7.4904466 -1.3519018 5.6346383 3.7714632 2.0048523 -3.0258555 -3.766929 -3.5048053 2.3745866 3.3876603 -3.46205 -3.785377 4.6159177 4.21696 3.6095626
1455 -5.94671 6.5836926 0.001558866 -2.0265841 -4.1083884 0.5140333 4.5387254 0.2328369 -0.27167574 -4.1701503 5.331919 1.7536198 -3.379492 1.5888319 2.325319 -2.773147 -1.6538391 -2.5609095 3.7861514 -3.8237038 -4.560712 0.110679366 -0.5476769 -3.5134666 -3.3297234 5.5871615 8.794846 -3.044794 -4.6787486 -4.8261633 2.883254 -1.4097039 -0.33192855 0.093827225 -0.05202363 0.9626545 1.5443996 0.4487146 0.6120946 2.9125268 2.537659 -2.6654928 -2.9602754 -0.12645929 -0.524102 -5.111473 1.0458049 4.366618 -0.89946395 1.4700099 -1.8636427 0.32495397 3.8492033 3.8674111 -0.60177475 -0.07735177 -1.9965106 -0.7150972 -3.2596815 -1.0716363 2.3046942 2.5900624 5.595609 1.4818163 8.575222 -2.2392724 3.517263 3.2115932 1.0989726 6.3350277 1.8757293 -2.617434 -2.9365952 -6.4187517 0.17912933 3.2642658 3.0604765 0.7984373 1.1729888 -2.1228373 -2.8483052 -0.3637978 -1.5951395 1.0845854 -3.0446835 -6.6668053 4.0892897 -1.0004545 1.0667431 -1.8059576 -2.1278977 -0.75722873 3.1518364 -3.7613115 3.4807398 -2.8602657 2.079838 0.14298287 1.7221134 8.995418
1009 5.602253 0.34601146 3.7506404 -1.2268398 1.0351335 -5.0606685 0.091482855 -1.8526579 1.7641732 0.9971963 -0.16948882 2.6407337 -2.7139602 -5.174475 0.68580484 3.5605006 -4.1708207 0.30085415 -2.4191594 -4.844099 -2.1697822 -1.1287382 -0.019591387 -0.53330916 -3.0902188 -7.1835337 3.792563 -4.9695477 0.34996656 0.8405398 1.430459 2.1689475 1.4896833 -1.0080639 -2.4255447 1.4336829 -5.880874 4.347905 1.1301528 5.317079 5.1671786 -7.119985 5.621102 1.9376101 1.6681918 -1.00957 0.15531048 4.7175994 -1.0987102 -1.2725978 0.34108102 -7.1538854 -5.4768896 3.8258727 -2.052222 -3.453229 -1.18712 -3.0092325 0.62333167 -0.39887175 2.9885008 -0.46559808 1.3690073 3.4973662 -6.8851666 -3.8604043 2.425041 -7.676193 -0.8052936 0.035518277 7.967145 1.8482317 -2.6109102 -3.3748677 1.6414064 -2.7682242 1.7294838 6.704028 1.5328901 0.78602195 0.16488194 -7.0659647 -1.3885691 -2.1739168 2.0637748 -2.4876142 -2.0977156 -1.5783331 -3.449743 -0.4087204 -2.4506252 -0.13462606 0.4534905 -0.5076227 -1.1554165 3.572452 -2.0622714 -1.1351639 -0.32034883 -2.5801733
224 0.77423126 2.5040648 -3.1824832 -4.9137883 -4.4624486 8.609575 0.28475815 -5.4020715 -0.38571456 0.37574798 1.9967339 0.017890872 0.9634895 9.622666 1.1245489 0.3500019 0.27504066 2.45046 -1.2115142 -0.006159712 0.5057709 0.52618843 -0.9709837 -0.9982735 2.1714284 -1.0528963 3.8465018 -1.9214603 2.2666812 2.7463124 6.574189 4.5787797 8.80253 -3.5447986 -3.5812256 -0.45991898 3.9524539 -3.1427755 -0.7950514 -6.5938826 3.300888 -5.3560796 -0.47938842 -0.42142355 2.269679 10.207025 2.1386502 -1.8895165 2.4635677 -0.6974292 1.101678 3.1913898 1.5820531 2.8534102 -1.8485619 2.6501822 0.12119258 -3.7169137 6.0064793 9.998416 -5.550695 -1.2354478 0.07349246 -1.0463433 -1.3183043 -1.0431781 2.7909334 -2.4101684 2.4541886 3.3630066 -2.2889457 3.2107067 -3.5855174 1.2678156 -6.2081175 -2.8770945 -4.565647 3.0059786 2.88191 4.2565017 1.3441622 2.5813873 -0.24360083 1.7623562 1.2674383 3.4077497 -2.4563098 0.84743327 0.14223076 5.001198 -1.6903552 -0.047905654 -2.1426778 0.2697425 0.30868706 2.4346128 -3.8211603 1.969391 -1.0373596 2.0901148
1489 0.015383884 2.5525239 -2.0009165 -1.3995868 -0.6305164 -0.07804542 -3.7329865 1.1727954 -4.4867887 6.988383 5.038674 -0.00056594395 -2.6740468 1.8092228 3.762034 0.95648134 -1.0695738 -4.2945294 0.8294237 -5.1364293 1.1180663 -2.7619848 -0.21319358 -3.382772 1.0615047 -0.05411351 -9.355908 -2.537115 -2.1595747 -4.346218 -4.8998804 4.6314516 -4.5620995 4.275248 3.823637 1.3895838 -4.531296 -2.9217281 10.267891 1.1840314 5.4935656 0.7452625 1.9608195 -0.27161705 -1.2982302 3.8314438 -1.4545131 -3.089337 -1.2899277 -5.9182477 1.4533007 3.4966836 -1.8475014 2.8775904 -1.731428 2.4328523 7.00272 -2.476164 -3.8294997 -4.4765553 5.8292584 1.4722974 -0.8101425 0.8511537 -2.5258431 4.107244 -4.252883 4.0191574 0.64667684 0.35568523 -4.047958 2.2044287 6.9405828 -5.255717 5.9733458 -3.0483873 -4.7395997 4.1724753 -2.2429662 -4.4897943 5.1976247 3.2232935 0.8282522 -3.484496 -1.5587571 2.3807151 0.5746595 -7.0373654 2.05944 4.011497 3.3273485 0.11990971 -3.226966 2.6283689 -4.3318024 -2.263184 -3.1788554 0.08210199 0.53863525 5.939963
